<?xml version="1.0" encoding="ISO-8859-1"?>
<!-- This network was created in GeNIe Academic, which can be used for educational and research purposes only -->
<smile version="1.0" id="Unnamed" numsamples="10000" discsamples="10000">
	<nodes>
		<cpt id="OA_MAIS">
			<state id="s1" />
			<state id="s2" />
			<state id="s3" />
			<probabilities>0.2626026237430673 0.2701656249702712 0.4672317512866616</probabilities>
		</cpt>
		<cpt id="GV_ENERGY">
			<state id="s1_below_210" />
			<state id="s2_210_475" />
			<state id="s3_475_1144" />
			<state id="s4_1144_up" />
			<parents>OA_MAIS</parents>
			<probabilities>0.4427570093457944 0.3125679200173875 0.1940067376657248 0.05066833297109324 0.1903718178937361 0.3029734868490546 0.3196630400338016 0.1869916552234076 0.1742151233813828 0.1858813828487662 0.241403005130711 0.39850048863914</probabilities>
		</cpt>
		<cpt id="GV_MODELYR">
			<state id="s1_below_2003" />
			<state id="s2_2003_2006" />
			<state id="s3_2006_2009" />
			<state id="s4_2009_up" />
			<probabilities>0.4623490967207968 0.3067795884585747 0.1799209452324553 0.05095036958817318</probabilities>
		</cpt>
		<cpt id="OA_AGE">
			<state id="s1_below_24" />
			<state id="s2_24_32" />
			<state id="s3_32_46" />
			<state id="s4_46_63" />
			<state id="s5_63_up" />
			<probabilities>0.1950455207054996 0.186226775878307 0.2060332772053997 0.210685236450812 0.2020091897599817</probabilities>
		</cpt>
		<cpt id="GV_FOOTPRINT">
			<state id="s1_below_3" />
			<state id="s2_3_3" />
			<state id="s3_3_4" />
			<state id="s4_4_4" />
			<state id="s5_4_up" />
			<probabilities>0.2004680498872685 0.1967293587145752 0.1989269100145552 0.1988412911327378 0.2050343902508633</probabilities>
		</cpt>
		<cpt id="GV_CURBWGT">
			<state id="s1_below_1180" />
			<state id="s2_1180_1290" />
			<state id="s3_1290_1420" />
			<state id="s4_1420_1510" />
			<state id="s5_1510_1590" />
			<state id="s6_1590_up" />
			<parents>GV_ENERGY GV_MODELYR OA_AGE OA_MAIS GV_FOOTPRINT</parents>
			<probabilities>0.4231601731601732 0.3971861471861472 0.1634199134199134 0.01406926406926407 0.001082251082251082 0.001082251082251082 0.5661577608142493 0.138676844783715 0.1463104325699745 0.08524173027989819 0.03944020356234096 0.02417302798982188 0.01310861423220974 0.05805243445692884 0.5187265917602996 0.2827715355805244 0.08052434456928839 0.04681647940074907 0.004273504273504274 0.004273504273504274 0.05555555555555557 0.3376068376068377 0.388888888888889 0.2094017094017094 0.003968253968253968 0.02777777777777778 0.003968253968253968 0.003968253968253968 0.5753968253968254 0.3849206349206349 0.3849206349206349 0.242063492063492 0.2182539682539682 0.1468253968253968 0.003968253968253968 0.003968253968253968 0.540650406504065 0.2967479674796748 0.1504065040650407 0.004065040650406504 0.004065040650406504 0.004065040650406504 0.004901960784313725 0.1813725490196078 0.6225490196078431 0.1813725490196078 0.004901960784313725 0.004901960784313725 0.02380952380952381 0.02380952380952381 0.02380952380952381 0.02380952380952381 0.8809523809523809 0.02380952380952381 0.1666666666666667 0.1666666666666667 0.1666666666666667 0.1666666666666667 0.1666666666666667 0.1666666666666667 0.9731182795698925 0.005376344086021505 0.005376344086021505 0.005376344086021505 0.005376344086021505 0.005376344086021505 0.003875968992248062 0.003875968992248062 0.9806201550387598 0.003875968992248062 0.003875968992248062 0.003875968992248062 0.005376344086021505 0.005376344086021505 0.9731182795698925 0.005376344086021505 0.005376344086021505 0.005376344086021505 0.003787878787878788 0.003787878787878788 0.003787878787878788 0.003787878787878788 0.9810606060606062 0.003787878787878788 0.1666666666666667 0.1666666666666667 0.1666666666666667 0.1666666666666667 0.1666666666666667 0.1666666666666667 0.4450757575757576 0.2973484848484849 0.1723484848484848 0.02462121212121212 0.001893939393939394 0.05871212121212122 0.7043650793650793 0.1329365079365079 0.08531746031746032 0.02579365079365079 0.0376984126984127 0.01388888888888889 0.002450980392156863 0.002450980392156863 0.5318627450980392 0.3700980392156863 0.07598039215686275 0.01715686274509804 0.003875968992248062 0.003875968992248062 0.1666666666666667 0.1666666666666667 0.5852713178294574 0.07364341085271317 0.003875968992248062 0.003875968992248062 0.003875968992248062 0.05038759689922481 0.6550387596899225 0.2829457364341085 0.9747474747474749 0.005050505050505052 0.005050505050505052 0.005050505050505052 0.005050505050505052 0.005050505050505052 0.3854166666666668 0.01041666666666667 0.01041666666666667 0.01041666666666667 0.5729166666666667 0.01041666666666667 0.003030303030303031 0.003030303030303031 0.693939393939394 0.1121212121212121 0.1848484848484849 0.003030303030303031 0.004901960784313725 0.004901960784313725 0.446078431372549 0.004901960784313725 0.5343137254901961 0.004901960784313725 0.02380952380952381 0.02380952380952381 0.02380952380952381 0.02380952380952381 0.02380952380952381 0.8809523809523809 0.1666666666666667 0.1666666666666667 0.1666666666666667 0.1666666666666667 0.1666666666666667 0.1666666666666667 0.5608575380359614 0.0006915629322268328 0.0006915629322268328 0.0006915629322268328 0.4363762102351315 0.0006915629322268328 0.1666666666666667 0.1666666666666667 0.1666666666666667 0.1666666666666667 0.1666666666666667 0.1666666666666667 0.005376344086021505 0.005376344086021505 0.005376344086021505 0.005376344086021505 0.005376344086021505 0.9731182795698925 0.001126126126126126 0.001126126126126126 0.001126126126126126 0.001126126126126126 0.001126126126126126 0.9943693693693694 0.486254295532646 0.2903780068728523 0.1460481099656357 0.07388316151202749 0.001718213058419244 0.001718213058419244 0.4153439153439153 0.1772486772486772 0.1931216931216931 0.05026455026455026 0.1296296296296296 0.03439153439153439 0.02407407407407407 0.01296296296296296 0.5018518518518519 0.2907407407407407 0.09074074074074073 0.07962962962962963 0.002873563218390805 0.002873563218390805 0.2097701149425287 0.2959770114942529 0.2959770114942529 0.1925287356321839 0.002314814814814815 0.002314814814814815 0.002314814814814815 0.002314814814814815 0.3078703703703703 0.6828703703703703 0.2829457364341085 0.7015503875968992 0.003875968992248062 0.003875968992248062 0.003875968992248062 0.003875968992248062 0.8809523809523809 0.02380952380952381 0.02380952380952381 0.02380952380952381 0.02380952380952381 0.02380952380952381 0.00326797385620915 0.00326797385620915 0.4738562091503268 0.4150326797385621 0.1013071895424837 0.00326797385620915 0.01282051282051282 0.01282051282051282 0.01282051282051282 0.01282051282051282 0.4743589743589744 0.4743589743589744 0.006172839506172839 0.006172839506172839 0.006172839506172839 0.006172839506172839 0.006172839506172839 0.9691358024691358 0.003787878787878788 0.9810606060606062 0.003787878787878788 0.003787878787878788 0.003787878787878788 0.003787878787878788 0.9888888888888887 0.002222222222222222 0.002222222222222222 0.002222222222222222 0.002222222222222222 0.002222222222222222 0.001412429378531073 0.001412429378531073 0.2641242937853107 0.7302259887005649 0.001412429378531073 0.001412429378531073 0.4947089947089947 0.002645502645502645 0.002645502645502645 0.002645502645502645 0.4947089947089947 0.002645502645502645 0.1666666666666667 0.1666666666666667 0.1666666666666667 0.1666666666666667 0.1666666666666667 0.1666666666666667 0.5318627450980392 0.3112745098039216 0.1200980392156863 0.01715686274509804 0.002450980392156863 0.01715686274509804 0.3422619047619048 0.2886904761904762 0.1279761904761905 0.03869047619047618 0.1458333333333333 0.05654761904761904 0.01555555555555556 0.01555555555555556 0.4688888888888889 0.3088888888888889 0.1488888888888889 0.04222222222222222 0.002923976608187135 0.002923976608187135 0.195906432748538 0.1608187134502924 0.3713450292397661 0.2660818713450293 0.002252252252252252 0.002252252252252252 0.002252252252252252 0.002252252252252252 0.4481981981981982 0.5427927927927928 0.4166666666666667 0.382183908045977 0.1925287356321839 0.002873563218390805 0.002873563218390805 0.002873563218390805 0.6333333333333333 0.004761904761904761 0.3476190476190476 0.004761904761904761 0.004761904761904761 0.004761904761904761 0.003144654088050314 0.003144654088050314 0.4371069182389937 0.003144654088050314 0.1918238993710692 0.3616352201257862 0.004385964912280702 0.004385964912280702 0.004385964912280702 0.6622807017543859 0.004385964912280702 0.3201754385964912 0.003875968992248062 0.003875968992248062 0.003875968992248062 0.003875968992248062 0.4922480620155039 0.4922480620155039 0.767639902676399 0.2274939172749392 0.00121654501216545 0.00121654501216545 0.00121654501216545 0.00121654501216545 0.9810606060606062 0.003787878787878788 0.003787878787878788 0.003787878787878788 0.003787878787878788 0.003787878787878788 0.001572327044025157 0.001572327044025157 0.992138364779874 0.001572327044025157 0.001572327044025157 0.001572327044025157 0.002645502645502646 0.002645502645502646 0.002645502645502646 0.002645502645502646 0.9867724867724869 0.002645502645502646 0.1666666666666667 0.1666666666666667 0.1666666666666667 0.1666666666666667 0.1666666666666667 0.1666666666666667 0.6055555555555555 0.3388888888888888 0.03888888888888888 0.005555555555555554 0.005555555555555554 0.005555555555555554 0.7222222222222221 0.05555555555555556 0.1031746031746032 0.1031746031746032 0.007936507936507936 0.007936507936507936 0.004629629629629629 0.004629629629629629 0.5601851851851852 0.3101851851851852 0.1157407407407407 0.004629629629629629 0.00273224043715847 0.00273224043715847 0.1994535519125683 0.1830601092896175 0.4781420765027323 0.133879781420765 0.01851851851851852 0.002645502645502645 0.002645502645502645 0.002645502645502645 0.208994708994709 0.7645502645502644 0.02380952380952381 0.8809523809523809 0.02380952380952381 0.02380952380952381 0.02380952380952381 0.02380952380952381 0.8153153153153154 0.004504504504504504 0.004504504504504504 0.1666666666666667 0.004504504504504504 0.004504504504504504 0.00617283950617284 0.3765432098765432 0.2283950617283951 0.00617283950617284 0.3765432098765432 0.00617283950617284 0.004385964912280702 0.004385964912280702 0.162280701754386 0.004385964912280702 0.3991228070175438 0.4254385964912281 0.003333333333333333 0.003333333333333333 0.003333333333333333 0.003333333333333333 0.2433333333333333 0.7433333333333333 0.1666666666666667 0.1666666666666667 0.1666666666666667 0.1666666666666667 0.1666666666666667 0.1666666666666667 0.1666666666666667 0.1666666666666667 0.1666666666666667 0.1666666666666667 0.1666666666666667 0.1666666666666667 0.1666666666666667 0.1666666666666667 0.1666666666666667 0.1666666666666667 0.1666666666666667 0.1666666666666667 0.005376344086021505 0.005376344086021505 0.005376344086021505 0.9731182795698925 0.005376344086021505 0.005376344086021505 0.005376344086021505 0.005376344086021505 0.005376344086021505 0.005376344086021505 0.005376344086021505 0.9731182795698925 0.3159203980099503 0.5099502487562189 0.1368159203980099 0.03233830845771144 0.002487562189054726 0.002487562189054726 0.297008547008547 0.5021367521367521 0.09188034188034189 0.04059829059829059 0.04059829059829059 0.02777777777777778 0.002487562189054725 0.1368159203980099 0.3457711442786069 0.435323383084577 0.04726368159203979 0.03233830845771143 0.003787878787878788 0.003787878787878788 0.1628787878787879 0.4810606060606061 0.2083333333333333 0.1401515151515152 0.005747126436781609 0.04022988505747126 0.005747126436781609 0.1436781609195402 0.5229885057471264 0.2816091954022988 0.2126436781609196 0.3505747126436781 0.4195402298850575 0.005747126436781609 0.005747126436781609 0.005747126436781609 0.1666666666666667 0.1666666666666667 0.1666666666666667 0.1666666666666667 0.1666666666666667 0.1666666666666667 0.003333333333333333 0.2033333333333333 0.3633333333333333 0.1233333333333333 0.1833333333333333 0.1233333333333333 0.02380952380952381 0.02380952380952381 0.02380952380952381 0.02380952380952381 0.8809523809523809 0.02380952380952381 0.02380952380952381 0.02380952380952381 0.02380952380952381 0.02380952380952381 0.02380952380952381 0.8809523809523809 0.003787878787878788 0.9810606060606062 0.003787878787878788 0.003787878787878788 0.003787878787878788 0.003787878787878788 0.1666666666666667 0.1666666666666667 0.1666666666666667 0.1666666666666667 0.1666666666666667 0.1666666666666667 0.0009259259259259261 0.0009259259259259261 0.1731481481481482 0.8231481481481483 0.0009259259259259261 0.0009259259259259261 0.1666666666666667 0.1666666666666667 0.1666666666666667 0.1666666666666667 0.1666666666666667 0.1666666666666667 0.003787878787878788 0.003787878787878788 0.003787878787878788 0.003787878787878788 0.9810606060606062 0.003787878787878788 0.3677248677248677 0.4153439153439153 0.1772486772486772 0.03439153439153439 0.002645502645502645 0.002645502645502645 0.2922705314009662 0.5096618357487922 0.1183574879227053 0.0603864734299517 0.01690821256038648 0.002415458937198068 0.002645502645502645 0.09788359788359788 0.3042328042328042 0.3994708994708995 0.08201058201058201 0.1137566137566138 0.004273504273504274 0.004273504273504274 0.1837606837606838 0.2863247863247864 0.3632478632478633 0.1581196581196582 0.003787878787878788 0.003787878787878788 0.02651515151515152 0.04924242424242424 0.4356060606060607 0.4810606060606061 0.3686868686868688 0.4292929292929294 0.1868686868686869 0.005050505050505052 0.005050505050505052 0.005050505050505052 0.02380952380952381 0.8809523809523809 0.02380952380952381 0.02380952380952381 0.02380952380952381 0.02380952380952381 0.01282051282051282 0.4743589743589744 0.4743589743589744 0.01282051282051282 0.01282051282051282 0.01282051282051282 0.007246376811594201 0.007246376811594201 0.007246376811594201 0.2681159420289855 0.7028985507246376 0.007246376811594201 0.02380952380952381 0.02380952380952381 0.02380952380952381 0.02380952380952381 0.8809523809523809 0.02380952380952381 0.1666666666666667 0.1666666666666667 0.1666666666666667 0.1666666666666667 0.1666666666666667 0.1666666666666667 0.1666666666666667 0.1666666666666667 0.1666666666666667 0.1666666666666667 0.1666666666666667 0.1666666666666667 0.005208333333333333 0.005208333333333333 0.9739583333333334 0.005208333333333333 0.005208333333333333 0.005208333333333333 0.005376344086021505 0.005376344086021505 0.005376344086021505 0.9731182795698925 0.005376344086021505 0.005376344086021505 0.1666666666666667 0.1666666666666667 0.1666666666666667 0.1666666666666667 0.1666666666666667 0.1666666666666667 0.2037037037037037 0.425925925925926 0.2481481481481481 0.1148148148148148 0.003703703703703704 0.003703703703703704 0.3226950354609929 0.4503546099290781 0.1099290780141844 0.0673758865248227 0.04609929078014184 0.003546099290780142 0.002688172043010752 0.0510752688172043 0.3575268817204301 0.4059139784946237 0.1317204301075269 0.0510752688172043 0.002525252525252526 0.01767676767676768 0.2146464646464647 0.5025252525252526 0.1843434343434344 0.0782828282828283 0.0220125786163522 0.003144654088050314 0.003144654088050314 0.04088050314465409 0.3427672955974843 0.5880503144654088 0.9702380952380952 0.005952380952380952 0.005952380952380952 0.005952380952380952 0.005952380952380952 0.005952380952380952 0.009259259259259257 0.287037037037037 0.3425925925925926 0.3425925925925926 0.009259259259259257 0.009259259259259257 0.005747126436781607 0.005747126436781607 0.4195402298850573 0.557471264367816 0.005747126436781607 0.005747126436781607 0.003267973856209151 0.003267973856209151 0.1209150326797386 0.6699346405228759 0.1993464052287582 0.003267973856209151 0.02380952380952381 0.02380952380952381 0.02380952380952381 0.02380952380952381 0.02380952380952381 0.8809523809523809 0.005208333333333333 0.9739583333333334 0.005208333333333333 0.005208333333333333 0.005208333333333333 0.005208333333333333 0.1666666666666667 0.1666666666666667 0.1666666666666667 0.1666666666666667 0.1666666666666667 0.1666666666666667 0.1666666666666667 0.1666666666666667 0.1666666666666667 0.1666666666666667 0.1666666666666667 0.1666666666666667 0.002645502645502645 0.002645502645502645 0.002645502645502645 0.4947089947089947 0.4947089947089947 0.002645502645502645 0.1666666666666667 0.1666666666666667 0.1666666666666667 0.1666666666666667 0.1666666666666667 0.1666666666666667 0.4818840579710145 0.4166666666666667 0.06884057971014493 0.02536231884057971 0.003623188405797101 0.003623188405797101 0.218954248366013 0.5718954248366013 0.1013071895424837 0.00326797385620915 0.04248366013071895 0.06209150326797385 0.003968253968253969 0.02777777777777779 0.2658730158730159 0.3373015873015874 0.2182539682539683 0.1468253968253969 0.002688172043010752 0.002688172043010752 0.1962365591397849 0.5026881720430108 0.1155913978494624 0.1801075268817204 0.002645502645502645 0.002645502645502645 0.01851851851851852 0.01851851851851852 0.3042328042328042 0.6534391534391534 0.3245614035087719 0.3245614035087719 0.008771929824561401 0.3245614035087719 0.008771929824561401 0.008771929824561401 0.5814814814814815 0.2037037037037037 0.2037037037037037 0.003703703703703704 0.003703703703703704 0.003703703703703704 0.004065040650406504 0.004065040650406504 0.589430894308943 0.1504065040650406 0.004065040650406504 0.2479674796747967 0.004901960784313725 0.004901960784313725 0.004901960784313725 0.3578431372549019 0.3578431372549019 0.2696078431372549 0.005208333333333333 0.005208333333333333 0.005208333333333333 0.005208333333333333 0.1927083333333333 0.7864583333333334 0.2274939172749392 0.767639902676399 0.00121654501216545 0.00121654501216545 0.00121654501216545 0.00121654501216545 0.1666666666666667 0.1666666666666667 0.1666666666666667 0.1666666666666667 0.1666666666666667 0.1666666666666667 0.001572327044025157 0.001572327044025157 0.001572327044025157 0.001572327044025157 0.001572327044025157 0.9921383647798743 0.005208333333333333 0.005208333333333333 0.005208333333333333 0.9739583333333334 0.005208333333333333 0.005208333333333333 0.003787878787878788 0.003787878787878788 0.003787878787878788 0.003787878787878788 0.003787878787878788 0.9810606060606061 0.572463768115942 0.3550724637681159 0.05072463768115942 0.007246376811594202 0.007246376811594202 0.007246376811594202 0.2239583333333333 0.5677083333333333 0.03645833333333333 0.06770833333333331 0.03645833333333333 0.06770833333333331 0.03645833333333334 0.06770833333333333 0.4739583333333333 0.2239583333333333 0.09895833333333333 0.09895833333333333 0.003333333333333333 0.003333333333333333 0.08333333333333333 0.5033333333333333 0.3433333333333333 0.06333333333333332 0.003875968992248062 0.003875968992248062 0.02713178294573643 0.003875968992248062 0.2596899224806201 0.7015503875968992 0.008771929824561401 0.9561403508771928 0.008771929824561401 0.008771929824561401 0.008771929824561401 0.008771929824561401 0.2152777777777777 0.7569444444444443 0.006944444444444442 0.006944444444444442 0.006944444444444442 0.006944444444444442 0.1666666666666667 0.1666666666666667 0.1666666666666667 0.1666666666666667 0.1666666666666667 0.1666666666666667 0.02380952380952381 0.02380952380952381 0.02380952380952381 0.02380952380952381 0.8809523809523809 0.02380952380952381 0.002976190476190476 0.002976190476190476 0.002976190476190476 0.002976190476190476 0.1101190476190476 0.8779761904761904 0.5755555555555556 0.4155555555555556 0.002222222222222222 0.002222222222222222 0.002222222222222222 0.002222222222222222 0.1666666666666667 0.1666666666666667 0.1666666666666667 0.1666666666666667 0.1666666666666667 0.1666666666666667 0.001572327044025157 0.001572327044025157 0.001572327044025157 0.001572327044025157 0.001572327044025157 0.9921383647798743 0.005376344086021505 0.005376344086021505 0.005376344086021505 0.9731182795698925 0.005376344086021505 0.005376344086021505 0.1666666666666667 0.1666666666666667 0.1666666666666667 0.1666666666666667 0.1666666666666667 0.1666666666666667 0.467948717948718 0.3141025641025641 0.1217948717948718 0.08333333333333333 0.00641025641025641 0.00641025641025641 0.0989583333333333 0.5989583333333333 0.1614583333333333 0.1302083333333333 0.005208333333333332 0.005208333333333332 0.05367231638418079 0.307909604519774 0.2231638418079096 0.172316384180791 0.172316384180791 0.07062146892655367 0.003205128205128205 0.003205128205128205 0.08012820512820513 0.4647435897435898 0.2916666666666667 0.157051282051282 0.005952380952380952 0.005952380952380952 0.04166666666666666 0.1845238095238095 0.1488095238095238 0.6130952380952381 0.8809523809523809 0.02380952380952381 0.02380952380952381 0.02380952380952381 0.02380952380952381 0.02380952380952381 0.1666666666666667 0.1666666666666667 0.1666666666666667 0.1666666666666667 0.1666666666666667 0.1666666666666667 0.008771929824561401 0.3245614035087719 0.3245614035087719 0.008771929824561401 0.3245614035087719 0.008771929824561401 0.02380952380952381 0.02380952380952381 0.02380952380952381 0.02380952380952381 0.02380952380952381 0.8809523809523809 0.02380952380952381 0.02380952380952381 0.02380952380952381 0.02380952380952381 0.02380952380952381 0.8809523809523809 0.1666666666666667 0.1666666666666667 0.1666666666666667 0.1666666666666667 0.1666666666666667 0.1666666666666667 0.1666666666666667 0.1666666666666667 0.1666666666666667 0.1666666666666667 0.1666666666666667 0.1666666666666667 0.1666666666666667 0.1666666666666667 0.1666666666666667 0.1666666666666667 0.1666666666666667 0.1666666666666667 0.005376344086021505 0.005376344086021505 0.005376344086021505 0.005376344086021505 0.9731182795698925 0.005376344086021505 0.005208333333333333 0.005208333333333333 0.005208333333333333 0.005208333333333333 0.005208333333333333 0.9739583333333334 0.4506172839506172 0.3024691358024691 0.191358024691358 0.04320987654320987 0.006172839506172839 0.006172839506172839 0.004385964912280702 0.5570175438596491 0.2412280701754386 0.1359649122807018 0.05701754385964911 0.004385964912280702 0.04609929078014185 0.2163120567375887 0.2801418439716312 0.2801418439716312 0.1312056737588653 0.04609929078014185 0.00308641975308642 0.00308641975308642 0.05864197530864197 0.5216049382716049 0.2808641975308642 0.1327160493827161 0.004273504273504273 0.004273504273504273 0.004273504273504273 0.08119658119658119 0.1324786324786325 0.7735042735042735 0.1666666666666667 0.1666666666666667 0.1666666666666667 0.1666666666666667 0.1666666666666667 0.1666666666666667 0.01515151515151515 0.01515151515151515 0.01515151515151515 0.9242424242424243 0.01515151515151515 0.01515151515151515 0.1666666666666667 0.1666666666666667 0.1666666666666667 0.1666666666666667 0.1666666666666667 0.1666666666666667 0.02380952380952381 0.02380952380952381 0.02380952380952381 0.02380952380952381 0.8809523809523809 0.02380952380952381 0.005747126436781609 0.005747126436781609 0.3505747126436781 0.005747126436781609 0.2126436781609196 0.4195402298850575 0.005208333333333333 0.005208333333333333 0.005208333333333333 0.005208333333333333 0.005208333333333333 0.9739583333333334 0.005208333333333333 0.005208333333333333 0.9739583333333334 0.005208333333333333 0.005208333333333333 0.005208333333333333 0.1666666666666667 0.1666666666666667 0.1666666666666667 0.1666666666666667 0.1666666666666667 0.1666666666666667 0.005208333333333333 0.005208333333333333 0.005208333333333333 0.005208333333333333 0.9739583333333334 0.005208333333333333 0.001572327044025157 0.001572327044025157 0.001572327044025157 0.001572327044025157 0.001572327044025157 0.9921383647798743 0.4866666666666666 0.2866666666666667 0.1666666666666667 0.006666666666666666 0.04666666666666667 0.006666666666666666 0.005747126436781609 0.5229885057471264 0.3160919540229885 0.1436781609195402 0.005747126436781609 0.005747126436781609 0.05701754385964911 0.2412280701754386 0.1096491228070176 0.3464912280701754 0.08333333333333333 0.162280701754386 0.003546099290780141 0.003546099290780141 0.1312056737588652 0.3439716312056737 0.3865248226950354 0.1312056737588652 0.003546099290780142 0.003546099290780142 0.04609929078014184 0.04609929078014184 0.1737588652482269 0.726950354609929 0.01282051282051282 0.01282051282051282 0.9358974358974359 0.01282051282051282 0.01282051282051282 0.01282051282051282 0.008771929824561403 0.6403508771929823 0.008771929824561403 0.3245614035087719 0.008771929824561403 0.008771929824561403 0.01041666666666667 0.01041666666666667 0.9479166666666669 0.01041666666666667 0.01041666666666667 0.01041666666666667 0.005952380952380952 0.005952380952380952 0.005952380952380952 0.9702380952380952 0.005952380952380952 0.005952380952380952 0.01515151515151515 0.01515151515151515 0.01515151515151515 0.01515151515151515 0.01515151515151515 0.9242424242424242 0.1666666666666667 0.1666666666666667 0.1666666666666667 0.1666666666666667 0.1666666666666667 0.1666666666666667 0.1666666666666667 0.1666666666666667 0.1666666666666667 0.1666666666666667 0.1666666666666667 0.1666666666666667 0.003875968992248062 0.003875968992248062 0.003875968992248062 0.9806201550387598 0.003875968992248062 0.003875968992248062 0.1666666666666667 0.1666666666666667 0.1666666666666667 0.1666666666666667 0.1666666666666667 0.1666666666666667 0.00121654501216545 0.00121654501216545 0.00121654501216545 0.00121654501216545 0.00121654501216545 0.9939172749391727 0.5083333333333333 0.2583333333333334 0.2083333333333334 0.008333333333333333 0.008333333333333333 0.008333333333333333 0.00641025641025641 0.5833333333333334 0.1987179487179487 0.1987179487179487 0.00641025641025641 0.00641025641025641 0.004629629629629629 0.1435185185185185 0.2546296296296296 0.3657407407407407 0.03240740740740741 0.1990740740740741 0.002824858757062146 0.002824858757062146 0.08757062146892654 0.4265536723163841 0.3248587570621468 0.155367231638418 0.002688172043010752 0.002688172043010752 0.002688172043010752 0.09946236559139786 0.1317204301075269 0.760752688172043 0.9166666666666667 0.01666666666666667 0.01666666666666667 0.01666666666666667 0.01666666666666667 0.01666666666666667 0.01282051282051282 0.9358974358974359 0.01282051282051282 0.01282051282051282 0.01282051282051282 0.01282051282051282 0.02380952380952381 0.02380952380952381 0.02380952380952381 0.02380952380952381 0.02380952380952381 0.8809523809523809 0.005208333333333333 0.005208333333333333 0.005208333333333333 0.7864583333333334 0.005208333333333333 0.1927083333333333 0.006172839506172839 0.006172839506172839 0.006172839506172839 0.006172839506172839 0.006172839506172839 0.9691358024691358 0.1666666666666667 0.1666666666666667 0.1666666666666667 0.1666666666666667 0.1666666666666667 0.1666666666666667 0.001572327044025157 0.001572327044025157 0.992138364779874 0.001572327044025157 0.001572327044025157 0.001572327044025157 0.1666666666666667 0.1666666666666667 0.1666666666666667 0.1666666666666667 0.1666666666666667 0.1666666666666667 0.005208333333333333 0.005208333333333333 0.005208333333333333 0.9739583333333334 0.005208333333333333 0.005208333333333333 0.1666666666666667 0.1666666666666667 0.1666666666666667 0.1666666666666667 0.1666666666666667 0.1666666666666667 0.5104166666666667 0.3229166666666667 0.1354166666666667 0.01041666666666667 0.01041666666666667 0.01041666666666667 0.05555555555555556 0.5793650793650793 0.1984126984126984 0.1031746031746032 0.007936507936507936 0.05555555555555556 0.009803921568627451 0.1862745098039215 0.303921568627451 0.303921568627451 0.009803921568627451 0.1862745098039215 0.006944444444444445 0.006944444444444445 0.1319444444444444 0.3819444444444445 0.3819444444444445 0.09027777777777778 0.003875968992248062 0.003875968992248062 0.02713178294573643 0.1666666666666667 0.07364341085271317 0.7248062015503877 0.4743589743589744 0.01282051282051282 0.4743589743589744 0.01282051282051282 0.01282051282051282 0.01282051282051282 0.1666666666666667 0.1666666666666667 0.1666666666666667 0.1666666666666667 0.1666666666666667 0.1666666666666667 0.02380952380952381 0.8809523809523809 0.02380952380952381 0.02380952380952381 0.02380952380952381 0.02380952380952381 0.005208333333333333 0.005208333333333333 0.005208333333333333 0.2864583333333333 0.1927083333333333 0.5052083333333334 0.007246376811594202 0.007246376811594202 0.007246376811594202 0.007246376811594202 0.007246376811594202 0.963768115942029 0.1666666666666667 0.1666666666666667 0.1666666666666667 0.1666666666666667 0.1666666666666667 0.1666666666666667 0.1666666666666667 0.1666666666666667 0.1666666666666667 0.1666666666666667 0.1666666666666667 0.1666666666666667 0.003875968992248062 0.9806201550387598 0.003875968992248062 0.003875968992248062 0.003875968992248062 0.003875968992248062 0.1666666666666667 0.1666666666666667 0.1666666666666667 0.1666666666666667 0.1666666666666667 0.1666666666666667 0.1666666666666667 0.1666666666666667 0.1666666666666667 0.1666666666666667 0.1666666666666667 0.1666666666666667 0.3518518518518518 0.5740740740740741 0.01851851851851852 0.01851851851851852 0.01851851851851852 0.01851851851851852 0.009803921568627451 0.8333333333333333 0.009803921568627451 0.1274509803921569 0.009803921568627451 0.009803921568627451 0.1944444444444444 0.361111111111111 0.361111111111111 0.02777777777777778 0.02777777777777778 0.02777777777777778 0.01388888888888889 0.01388888888888889 0.09722222222222222 0.1805555555555555 0.4305555555555556 0.2638888888888888 0.01515151515151515 0.01515151515151515 0.01515151515151515 0.2878787878787879 0.196969696969697 0.4696969696969697 0.1666666666666667 0.1666666666666667 0.1666666666666667 0.1666666666666667 0.1666666666666667 0.1666666666666667 0.02380952380952381 0.02380952380952381 0.8809523809523809 0.02380952380952381 0.02380952380952381 0.02380952380952381 0.1666666666666667 0.1666666666666667 0.1666666666666667 0.1666666666666667 0.1666666666666667 0.1666666666666667 0.1666666666666667 0.1666666666666667 0.1666666666666667 0.1666666666666667 0.1666666666666667 0.1666666666666667 0.01515151515151515 0.01515151515151515 0.01515151515151515 0.01515151515151515 0.01515151515151515 0.9242424242424242 0.1666666666666667 0.1666666666666667 0.1666666666666667 0.1666666666666667 0.1666666666666667 0.1666666666666667 0.1666666666666667 0.1666666666666667 0.1666666666666667 0.1666666666666667 0.1666666666666667 0.1666666666666667 0.1666666666666667 0.1666666666666667 0.1666666666666667 0.1666666666666667 0.1666666666666667 0.1666666666666667 0.1666666666666667 0.1666666666666667 0.1666666666666667 0.1666666666666667 0.1666666666666667 0.1666666666666667 0.1666666666666667 0.1666666666666667 0.1666666666666667 0.1666666666666667 0.1666666666666667 0.1666666666666667 0.5416666666666667 0.04166666666666667 0.2916666666666667 0.04166666666666667 0.04166666666666667 0.04166666666666667 0.02083333333333333 0.7708333333333331 0.1458333333333333 0.02083333333333333 0.02083333333333333 0.02083333333333333 0.02777777777777777 0.6944444444444443 0.02777777777777777 0.1944444444444444 0.02777777777777777 0.02777777777777777 0.01515151515151515 0.01515151515151515 0.01515151515151515 0.196969696969697 0.5606060606060607 0.196969696969697 0.01111111111111111 0.01111111111111111 0.01111111111111111 0.2111111111111111 0.2111111111111111 0.5444444444444444 0.1666666666666667 0.1666666666666667 0.1666666666666667 0.1666666666666667 0.1666666666666667 0.1666666666666667 0.02380952380952381 0.8809523809523809 0.02380952380952381 0.02380952380952381 0.02380952380952381 0.02380952380952381 0.01515151515151515 0.9242424242424243 0.01515151515151515 0.01515151515151515 0.01515151515151515 0.01515151515151515 0.1666666666666667 0.1666666666666667 0.1666666666666667 0.1666666666666667 0.1666666666666667 0.1666666666666667 0.1666666666666667 0.1666666666666667 0.1666666666666667 0.1666666666666667 0.1666666666666667 0.1666666666666667 0.1666666666666667 0.1666666666666667 0.1666666666666667 0.1666666666666667 0.1666666666666667 0.1666666666666667 0.1666666666666667 0.1666666666666667 0.1666666666666667 0.1666666666666667 0.1666666666666667 0.1666666666666667 0.1666666666666667 0.1666666666666667 0.1666666666666667 0.1666666666666667 0.1666666666666667 0.1666666666666667 0.1666666666666667 0.1666666666666667 0.1666666666666667 0.1666666666666667 0.1666666666666667 0.1666666666666667 0.1666666666666667 0.1666666666666667 0.1666666666666667 0.1666666666666667 0.1666666666666667 0.1666666666666667 0.7380952380952379 0.1666666666666666 0.0238095238095238 0.0238095238095238 0.0238095238095238 0.0238095238095238 0.04166666666666666 0.2916666666666666 0.04166666666666666 0.2916666666666666 0.2916666666666666 0.04166666666666666 0.0119047619047619 0.08333333333333333 0.2261904761904762 0.4404761904761905 0.08333333333333333 0.1547619047619047 0.009803921568627451 0.009803921568627451 0.009803921568627451 0.1862745098039215 0.4215686274509804 0.3627450980392157 0.009259259259259259 0.009259259259259259 0.009259259259259259 0.5648148148148148 0.009259259259259259 0.3981481481481481 0.1666666666666667 0.1666666666666667 0.1666666666666667 0.1666666666666667 0.1666666666666667 0.1666666666666667 0.02380952380952381 0.8809523809523809 0.02380952380952381 0.02380952380952381 0.02380952380952381 0.02380952380952381 0.1666666666666667 0.1666666666666667 0.1666666666666667 0.1666666666666667 0.1666666666666667 0.1666666666666667 0.01666666666666667 0.01666666666666667 0.01666666666666667 0.01666666666666667 0.9166666666666667 0.01666666666666667 0.02380952380952381 0.02380952380952381 0.02380952380952381 0.02380952380952381 0.02380952380952381 0.8809523809523809 0.1666666666666667 0.1666666666666667 0.1666666666666667 0.1666666666666667 0.1666666666666667 0.1666666666666667 0.1666666666666667 0.1666666666666667 0.1666666666666667 0.1666666666666667 0.1666666666666667 0.1666666666666667 0.1666666666666667 0.1666666666666667 0.1666666666666667 0.1666666666666667 0.1666666666666667 0.1666666666666667 0.1666666666666667 0.1666666666666667 0.1666666666666667 0.1666666666666667 0.1666666666666667 0.1666666666666667 0.1666666666666667 0.1666666666666667 0.1666666666666667 0.1666666666666667 0.1666666666666667 0.1666666666666667 0.462962962962963 0.3518518518518518 0.1296296296296296 0.01851851851851852 0.01851851851851852 0.01851851851851852 0.07291666666666667 0.2604166666666667 0.3229166666666667 0.1979166666666667 0.1354166666666667 0.01041666666666667 0.01388888888888889 0.09722222222222222 0.5138888888888888 0.01388888888888889 0.09722222222222222 0.2638888888888888 0.006944444444444444 0.006944444444444444 0.006944444444444444 0.423611111111111 0.2986111111111111 0.2569444444444444 0.008333333333333333 0.008333333333333333 0.008333333333333333 0.1083333333333333 0.05833333333333334 0.8083333333333335 0.9358974358974359 0.01282051282051282 0.01282051282051282 0.01282051282051282 0.01282051282051282 0.01282051282051282 0.009259259259259257 0.9537037037037036 0.009259259259259257 0.009259259259259257 0.009259259259259257 0.009259259259259257 0.02380952380952381 0.8809523809523809 0.02380952380952381 0.02380952380952381 0.02380952380952381 0.02380952380952381 0.02380952380952381 0.02380952380952381 0.02380952380952381 0.8809523809523809 0.02380952380952381 0.02380952380952381 0.007246376811594202 0.007246376811594202 0.007246376811594202 0.4420289855072463 0.2681159420289855 0.2681159420289855 0.1666666666666667 0.1666666666666667 0.1666666666666667 0.1666666666666667 0.1666666666666667 0.1666666666666667 0.1666666666666667 0.1666666666666667 0.1666666666666667 0.1666666666666667 0.1666666666666667 0.1666666666666667 0.1666666666666667 0.1666666666666667 0.1666666666666667 0.1666666666666667 0.1666666666666667 0.1666666666666667 0.1666666666666667 0.1666666666666667 0.1666666666666667 0.1666666666666667 0.1666666666666667 0.1666666666666667 0.1666666666666667 0.1666666666666667 0.1666666666666667 0.1666666666666667 0.1666666666666667 0.1666666666666667 0.3888888888888889 0.3888888888888889 0.05555555555555555 0.05555555555555555 0.05555555555555555 0.05555555555555555 0.09722222222222222 0.5138888888888888 0.2638888888888888 0.09722222222222222 0.01388888888888889 0.01388888888888889 0.02777777777777777 0.8611111111111109 0.02777777777777777 0.02777777777777777 0.02777777777777777 0.02777777777777777 0.01666666666666667 0.1166666666666667 0.01666666666666667 0.3166666666666667 0.2166666666666667 0.3166666666666667 0.01851851851851852 0.01851851851851852 0.01851851851851852 0.5740740740740741 0.1296296296296296 0.2407407407407407 0.1666666666666667 0.1666666666666667 0.1666666666666667 0.1666666666666667 0.1666666666666667 0.1666666666666667 0.01282051282051282 0.4743589743589744 0.4743589743589744 0.01282051282051282 0.01282051282051282 0.01282051282051282 0.1666666666666667 0.1666666666666667 0.1666666666666667 0.1666666666666667 0.1666666666666667 0.1666666666666667 0.02380952380952381 0.02380952380952381 0.02380952380952381 0.02380952380952381 0.8809523809523809 0.02380952380952381 0.009803921568627451 0.009803921568627451 0.009803921568627451 0.009803921568627451 0.5980392156862745 0.3627450980392157 0.9731182795698925 0.005376344086021505 0.005376344086021505 0.005376344086021505 0.005376344086021505 0.005376344086021505 0.1666666666666667 0.1666666666666667 0.1666666666666667 0.1666666666666667 0.1666666666666667 0.1666666666666667 0.1666666666666667 0.1666666666666667 0.1666666666666667 0.1666666666666667 0.1666666666666667 0.1666666666666667 0.1666666666666667 0.1666666666666667 0.1666666666666667 0.1666666666666667 0.1666666666666667 0.1666666666666667 0.1666666666666667 0.1666666666666667 0.1666666666666667 0.1666666666666667 0.1666666666666667 0.1666666666666667 0.4216666666666666 0.4216666666666666 0.1216666666666667 0.01166666666666667 0.001666666666666667 0.02166666666666666 0.6298449612403101 0.1065891472868217 0.1531007751937984 0.04844961240310078 0.01356589147286822 0.04844961240310078 0.01741293532338309 0.06218905472636816 0.5845771144278606 0.2412935323383085 0.07711442786069653 0.01741293532338309 0.004273504273504274 0.004273504273504274 0.3632478632478633 0.2094017094017094 0.3632478632478633 0.05555555555555557 0.004761904761904761 0.004761904761904761 0.004761904761904761 0.004761904761904761 0.6047619047619047 0.3761904761904762 0.515015015015015 0.478978978978979 0.001501501501501501 0.001501501501501501 0.001501501501501501 0.001501501501501501 0.8040293040293041 0.1336996336996337 0.05677655677655678 0.001831501831501831 0.001831501831501831 0.001831501831501831 0.003205128205128205 0.003205128205128205 0.2916666666666667 0.5801282051282052 0.1185897435897436 0.003205128205128205 0.004504504504504504 0.004504504504504504 0.1666666666666667 0.8153153153153154 0.004504504504504504 0.004504504504504504 0.006172839506172839 0.006172839506172839 0.006172839506172839 0.006172839506172839 0.3765432098765432 0.5987654320987654 0.9810606060606062 0.003787878787878788 0.003787878787878788 0.003787878787878788 0.003787878787878788 0.003787878787878788 0.6106128550074739 0.1935724962630792 0.1935724962630792 0.0007473841554559045 0.0007473841554559045 0.0007473841554559045 0.1666666666666667 0.1666666666666667 0.1666666666666667 0.1666666666666667 0.1666666666666667 0.1666666666666667 0.1666666666666667 0.1666666666666667 0.1666666666666667 0.1666666666666667 0.1666666666666667 0.1666666666666667 0.0007974481658692184 0.0007974481658692184 0.0007974481658692184 0.0007974481658692184 0.1443381180223285 0.8524720893141945 0.4527777777777778 0.3861111111111111 0.08611111111111111 0.01944444444444444 0.002777777777777777 0.05277777777777778 0.5643274853801171 0.1959064327485381 0.1608187134502924 0.02046783625730995 0.03801169590643276 0.02046783625730995 0.003968253968253968 0.02777777777777778 0.4801587301587302 0.4325396825396826 0.05158730158730158 0.003968253968253968 0.003875968992248062 0.003875968992248062 0.2131782945736434 0.2364341085271318 0.4224806201550388 0.1201550387596899 0.005555555555555555 0.005555555555555555 0.005555555555555555 0.005555555555555555 0.5722222222222223 0.4055555555555555 0.5484496124031008 0.2577519379844961 0.187984496124031 0.001937984496124031 0.001937984496124031 0.001937984496124031 0.5488888888888889 0.08222222222222224 0.1222222222222222 0.1622222222222222 0.08222222222222224 0.002222222222222222 0.00308641975308642 0.00308641975308642 0.4104938271604938 0.4660493827160494 0.1141975308641975 0.00308641975308642 0.007246376811594202 0.007246376811594202 0.007246376811594202 0.4420289855072463 0.5289855072463767 0.007246376811594202 0.005747126436781607 0.005747126436781607 0.005747126436781607 0.005747126436781607 0.7643678160919539 0.2126436781609195 0.005208333333333333 0.9739583333333334 0.005208333333333333 0.005208333333333333 0.005208333333333333 0.005208333333333333 0.1666666666666667 0.1666666666666667 0.1666666666666667 0.1666666666666667 0.1666666666666667 0.1666666666666667 0.001937984496124031 0.001937984496124031 0.9903100775193797 0.001937984496124031 0.001937984496124031 0.001937984496124031 0.005376344086021505 0.005376344086021505 0.9731182795698925 0.005376344086021505 0.005376344086021505 0.005376344086021505 0.1666666666666667 0.1666666666666667 0.1666666666666667 0.1666666666666667 0.1666666666666667 0.1666666666666667 0.4818840579710145 0.3949275362318841 0.06884057971014493 0.02536231884057971 0.02536231884057971 0.003623188405797101 0.562015503875969 0.189922480620155 0.07364341085271317 0.07364341085271317 0.003875968992248062 0.09689922480620156 0.01715686274509804 0.002450980392156863 0.3995098039215687 0.3406862745098039 0.1642156862745098 0.07598039215686275 0.003333333333333334 0.02333333333333334 0.2233333333333334 0.2433333333333334 0.2633333333333334 0.2433333333333334 0.003333333333333333 0.003333333333333333 0.003333333333333333 0.04333333333333333 0.4633333333333334 0.4833333333333334 0.1572769953051643 0.5375586854460094 0.2981220657276996 0.002347417840375587 0.002347417840375587 0.002347417840375587 0.4820261437908496 0.2075163398692811 0.1879084967320261 0.06045751633986928 0.06045751633986928 0.001633986928104575 0.00303030303030303 0.00303030303030303 0.4757575757575758 0.403030303030303 0.00303030303030303 0.1121212121212121 0.172316384180791 0.002824858757062147 0.3587570621468927 0.2062146892655367 0.1553672316384181 0.1045197740112994 0.003205128205128205 0.003205128205128205 0.003205128205128205 0.003205128205128205 0.5032051282051283 0.483974358974359 0.1666666666666667 0.1666666666666667 0.1666666666666667 0.1666666666666667 0.1666666666666667 0.1666666666666667 0.9810606060606062 0.003787878787878788 0.003787878787878788 0.003787878787878788 0.003787878787878788 0.003787878787878788 0.001618122977346278 0.001618122977346278 0.4093851132686084 0.2928802588996763 0.2928802588996763 0.001618122977346278 0.1666666666666667 0.1666666666666667 0.1666666666666667 0.1666666666666667 0.1666666666666667 0.1666666666666667 0.001572327044025157 0.001572327044025157 0.001572327044025157 0.001572327044025157 0.992138364779874 0.001572327044025157 0.5121212121212121 0.3121212121212121 0.1303030303030303 0.03939393939393939 0.00303030303030303 0.00303030303030303 0.4925925925925926 0.1148148148148148 0.1592592592592593 0.07037037037037037 0.07037037037037037 0.0925925925925926 0.004166666666666667 0.02916666666666667 0.6041666666666667 0.2291666666666667 0.07916666666666666 0.05416666666666667 0.00326797385620915 0.00326797385620915 0.1209150326797386 0.1797385620915032 0.5326797385620915 0.1601307189542484 0.002564102564102564 0.002564102564102564 0.002564102564102564 0.002564102564102564 0.3717948717948718 0.617948717948718 0.7404371584699455 0.2486338797814208 0.00273224043715847 0.00273224043715847 0.00273224043715847 0.00273224043715847 0.4145299145299146 0.4145299145299146 0.004273504273504273 0.004273504273504273 0.004273504273504273 0.1581196581196581 0.003875968992248063 0.003875968992248063 0.7480620155038761 0.2364341085271318 0.003875968992248063 0.003875968992248063 0.003546099290780142 0.003546099290780142 0.1312056737588653 0.2588652482269504 0.4716312056737589 0.1312056737588653 0.003472222222222222 0.003472222222222222 0.003472222222222222 0.003472222222222222 0.3993055555555556 0.5868055555555556 0.1666666666666667 0.1666666666666667 0.1666666666666667 0.1666666666666667 0.1666666666666667 0.1666666666666667 0.1666666666666667 0.1666666666666667 0.1666666666666667 0.1666666666666667 0.1666666666666667 0.1666666666666667 0.003787878787878788 0.003787878787878788 0.9810606060606062 0.003787878787878788 0.003787878787878788 0.003787878787878788 0.003875968992248062 0.003875968992248062 0.003875968992248062 0.9806201550387598 0.003875968992248062 0.003875968992248062 0.002222222222222222 0.002222222222222222 0.4155555555555556 0.002222222222222222 0.002222222222222222 0.5755555555555556 0.4866666666666666 0.4466666666666667 0.04666666666666667 0.006666666666666666 0.006666666666666666 0.006666666666666666 0.4365079365079365 0.246031746031746 0.1507936507936508 0.007936507936507936 0.1031746031746032 0.05555555555555556 0.008333333333333333 0.05833333333333334 0.4083333333333333 0.2083333333333334 0.1583333333333333 0.1583333333333333 0.005747126436781607 0.005747126436781607 0.1436781609195402 0.1781609195402299 0.5229885057471263 0.1436781609195402 0.02991452991452992 0.004273504273504273 0.004273504273504273 0.004273504273504273 0.3888888888888888 0.5683760683760684 0.9818840579710145 0.003623188405797102 0.003623188405797102 0.003623188405797102 0.003623188405797102 0.003623188405797102 0.9731182795698925 0.005376344086021505 0.005376344086021505 0.005376344086021505 0.005376344086021505 0.005376344086021505 0.005376344086021505 0.005376344086021505 0.5860215053763441 0.3924731182795699 0.005376344086021505 0.005376344086021505 0.003787878787878788 0.003787878787878788 0.1401515151515152 0.2083333333333333 0.2765151515151515 0.3674242424242425 0.001915708812260536 0.001915708812260536 0.001915708812260536 0.001915708812260536 0.4386973180076628 0.553639846743295 0.6613475177304964 0.001773049645390071 0.001773049645390071 0.3315602836879433 0.001773049645390071 0.001773049645390071 0.1666666666666667 0.1666666666666667 0.1666666666666667 0.1666666666666667 0.1666666666666667 0.1666666666666667 0.005208333333333333 0.005208333333333333 0.005208333333333333 0.005208333333333333 0.005208333333333333 0.9739583333333334 0.0004930966469428007 0.0004930966469428007 0.2519723865877712 0.0004930966469428007 0.7460552268244576 0.0004930966469428007 0.002222222222222222 0.002222222222222222 0.002222222222222222 0.002222222222222222 0.5755555555555556 0.4155555555555556 0.3616352201257862 0.4371069182389937 0.1918238993710692 0.003144654088050314 0.003144654088050314 0.003144654088050314 0.2909604519774012 0.46045197740113 0.08757062146892655 0.1045197740112994 0.05367231638418079 0.002824858757062147 0.003205128205128205 0.02243589743589744 0.4070512820512821 0.4070512820512821 0.08012820512820513 0.08012820512820513 0.003787878787878788 0.003787878787878788 0.1628787878787879 0.4810606060606061 0.2992424242424243 0.04924242424242424 0.005208333333333333 0.005208333333333333 0.03645833333333334 0.03645833333333334 0.6302083333333334 0.2864583333333333 0.3095238095238095 0.4931972789115646 0.1870748299319728 0.003401360544217687 0.003401360544217687 0.003401360544217687 0.7266666666666665 0.2466666666666666 0.006666666666666664 0.006666666666666664 0.006666666666666664 0.006666666666666664 0.004385964912280702 0.004385964912280702 0.5833333333333334 0.3991228070175438 0.004385964912280702 0.004385964912280702 0.02380952380952381 0.02380952380952381 0.02380952380952381 0.8809523809523809 0.02380952380952381 0.02380952380952381 0.008771929824561403 0.008771929824561403 0.008771929824561403 0.008771929824561403 0.3245614035087719 0.6403508771929823 0.003787878787878788 0.9810606060606062 0.003787878787878788 0.003787878787878788 0.003787878787878788 0.003787878787878788 0.1666666666666667 0.1666666666666667 0.1666666666666667 0.1666666666666667 0.1666666666666667 0.1666666666666667 0.1666666666666667 0.1666666666666667 0.1666666666666667 0.1666666666666667 0.1666666666666667 0.1666666666666667 0.00228310502283105 0.00228310502283105 0.4132420091324201 0.00228310502283105 0.5776255707762556 0.00228310502283105 0.1666666666666667 0.1666666666666667 0.1666666666666667 0.1666666666666667 0.1666666666666667 0.1666666666666667 0.2047619047619048 0.4904761904761905 0.2333333333333333 0.0619047619047619 0.004761904761904761 0.004761904761904761 0.2107843137254903 0.3872549019607844 0.1813725490196079 0.1813725490196079 0.004901960784313726 0.03431372549019609 0.004901960784313724 0.06372549019607841 0.2107843137254901 0.534313725490196 0.004901960784313724 0.1813725490196078 0.003875968992248062 0.003875968992248062 0.189922480620155 0.3294573643410853 0.2131782945736434 0.2596899224806202 0.004166666666666667 0.004166666666666667 0.004166666666666667 0.05416666666666667 0.5291666666666667 0.4041666666666667 0.9637681159420288 0.007246376811594201 0.007246376811594201 0.007246376811594201 0.007246376811594201 0.007246376811594201 0.2803030303030303 0.6893939393939393 0.007575757575757576 0.007575757575757576 0.007575757575757576 0.007575757575757576 0.007936507936507936 0.007936507936507936 0.7222222222222221 0.246031746031746 0.007936507936507936 0.007936507936507936 0.0072463768115942 0.0072463768115942 0.2681159420289854 0.7028985507246375 0.0072463768115942 0.0072463768115942 0.009803921568627451 0.009803921568627451 0.009803921568627451 0.009803921568627451 0.5980392156862745 0.3627450980392157 0.185515873015873 0.185515873015873 0.6259920634920635 0.000992063492063492 0.000992063492063492 0.000992063492063492 0.005208333333333333 0.9739583333333334 0.005208333333333333 0.005208333333333333 0.005208333333333333 0.005208333333333333 0.003787878787878788 0.003787878787878788 0.9810606060606062 0.003787878787878788 0.003787878787878788 0.003787878787878788 0.1666666666666667 0.1666666666666667 0.1666666666666667 0.1666666666666667 0.1666666666666667 0.1666666666666667 0.1666666666666667 0.1666666666666667 0.1666666666666667 0.1666666666666667 0.1666666666666667 0.1666666666666667 0.2388888888888889 0.4722222222222222 0.1722222222222222 0.03888888888888889 0.07222222222222222 0.005555555555555555 0.1747967479674797 0.5650406504065041 0.07723577235772358 0.05284552845528455 0.05284552845528455 0.07723577235772358 0.02991452991452992 0.004273504273504273 0.3632478632478632 0.4145299145299146 0.1068376068376068 0.08119658119658119 0.004901960784313725 0.004901960784313725 0.2696078431372549 0.446078431372549 0.1813725490196078 0.09313725490196077 0.004166666666666667 0.004166666666666667 0.004166666666666667 0.004166666666666667 0.3291666666666667 0.6541666666666668 0.670940170940171 0.3119658119658119 0.004273504273504273 0.004273504273504273 0.004273504273504273 0.004273504273504273 0.4145299145299146 0.3119658119658119 0.2606837606837606 0.004273504273504273 0.004273504273504273 0.004273504273504273 0.003787878787878788 0.003787878787878788 0.1401515151515152 0.7083333333333334 0.1401515151515152 0.003787878787878788 0.006666666666666664 0.006666666666666664 0.2466666666666666 0.7266666666666665 0.006666666666666664 0.006666666666666664 0.01282051282051282 0.01282051282051282 0.01282051282051282 0.4743589743589744 0.4743589743589744 0.01282051282051282 0.1666666666666667 0.1666666666666667 0.1666666666666667 0.1666666666666667 0.1666666666666667 0.1666666666666667 0.005208333333333333 0.005208333333333333 0.9739583333333334 0.005208333333333333 0.005208333333333333 0.005208333333333333 0.1666666666666667 0.1666666666666667 0.1666666666666667 0.1666666666666667 0.1666666666666667 0.1666666666666667 0.003787878787878788 0.003787878787878788 0.003787878787878788 0.9810606060606062 0.003787878787878788 0.003787878787878788 0.1666666666666667 0.1666666666666667 0.1666666666666667 0.1666666666666667 0.1666666666666667 0.1666666666666667 0.4114583333333333 0.4739583333333333 0.06770833333333333 0.005208333333333333 0.03645833333333334 0.005208333333333333 0.2239583333333333 0.4739583333333333 0.2239583333333333 0.03645833333333334 0.03645833333333334 0.005208333333333333 0.003968253968253969 0.09920634920634924 0.3134920634920635 0.3611111111111112 0.1230158730158731 0.09920634920634924 0.002976190476190476 0.002976190476190476 0.1994047619047619 0.3958333333333333 0.2708333333333333 0.1279761904761905 0.005376344086021505 0.005376344086021505 0.005376344086021505 0.005376344086021505 0.3602150537634408 0.6182795698924731 0.4945355191256831 0.3961748633879782 0.1010928961748634 0.00273224043715847 0.00273224043715847 0.00273224043715847 0.1540084388185654 0.6350210970464134 0.1286919831223629 0.002109704641350211 0.07805907172995781 0.002109704641350211 0.002824858757062147 0.1045197740112995 0.2570621468926554 0.6299435028248589 0.002824858757062147 0.002824858757062147 0.004761904761904761 0.004761904761904761 0.004761904761904761 0.6333333333333333 0.1761904761904762 0.1761904761904762 0.007246376811594202 0.007246376811594202 0.007246376811594202 0.007246376811594202 0.007246376811594202 0.963768115942029 0.4947089947089947 0.4947089947089947 0.002645502645502645 0.002645502645502645 0.002645502645502645 0.002645502645502645 0.9887387387387386 0.002252252252252252 0.002252252252252252 0.002252252252252252 0.002252252252252252 0.002252252252252252 0.1666666666666667 0.1666666666666667 0.1666666666666667 0.1666666666666667 0.1666666666666667 0.1666666666666667 0.002645502645502645 0.002645502645502645 0.002645502645502645 0.4947089947089947 0.002645502645502645 0.4947089947089947 0.1666666666666667 0.1666666666666667 0.1666666666666667 0.1666666666666667 0.1666666666666667 0.1666666666666667 0.654761904761905 0.2261904761904762 0.08333333333333337 0.01190476190476191 0.01190476190476191 0.01190476190476191 0.1140350877192982 0.6929824561403508 0.06140350877192983 0.1140350877192982 0.008771929824561403 0.008771929824561403 0.007246376811594202 0.05072463768115942 0.3985507246376811 0.3985507246376811 0.007246376811594202 0.1376811594202899 0.005952380952380952 0.04166666666666666 0.1845238095238095 0.5059523809523809 0.1845238095238095 0.07738095238095237 0.004273504273504273 0.004273504273504273 0.02991452991452992 0.02991452991452992 0.235042735042735 0.6965811965811965 0.8779761904761906 0.1101190476190476 0.002976190476190476 0.002976190476190476 0.002976190476190476 0.002976190476190476 0.3541666666666667 0.2541666666666667 0.2291666666666667 0.1541666666666667 0.004166666666666667 0.004166666666666667 0.005747126436781607 0.005747126436781607 0.005747126436781607 0.6264367816091954 0.3505747126436781 0.005747126436781607 0.002252252252252252 0.002252252252252252 0.1373873873873874 0.4752252252252252 0.2995495495495496 0.08333333333333334 0.005747126436781609 0.005747126436781609 0.005747126436781609 0.005747126436781609 0.2126436781609196 0.764367816091954 0.7289029535864979 0.2668776371308016 0.001054852320675105 0.001054852320675105 0.001054852320675105 0.001054852320675105 0.1666666666666667 0.1666666666666667 0.1666666666666667 0.1666666666666667 0.1666666666666667 0.1666666666666667 0.005208333333333333 0.005208333333333333 0.005208333333333333 0.9739583333333334 0.005208333333333333 0.005208333333333333 0.002688172043010752 0.002688172043010752 0.002688172043010752 0.002688172043010752 0.002688172043010752 0.9865591397849461 0.1666666666666667 0.1666666666666667 0.1666666666666667 0.1666666666666667 0.1666666666666667 0.1666666666666667 0.5637254901960784 0.2696078431372549 0.09313725490196077 0.06372549019607843 0.004901960784313725 0.004901960784313725 0.004504504504504504 0.5180180180180181 0.3288288288288289 0.1396396396396397 0.004504504504504504 0.004504504504504504 0.004385964912280702 0.3464912280701755 0.3201754385964913 0.293859649122807 0.03070175438596492 0.004385964912280702 0.00574712643678161 0.00574712643678161 0.07471264367816093 0.3160919540229886 0.3850574712643678 0.2126436781609196 0.00641025641025641 0.00641025641025641 0.00641025641025641 0.1217948717948718 0.1602564102564103 0.6987179487179488 0.9166666666666667 0.01666666666666667 0.01666666666666667 0.01666666666666667 0.01666666666666667 0.01666666666666667 0.005747126436781607 0.7643678160919539 0.2126436781609195 0.005747126436781607 0.005747126436781607 0.005747126436781607 0.003875968992248062 0.4922480620155039 0.003875968992248062 0.3527131782945736 0.1434108527131783 0.003875968992248062 0.02380952380952381 0.02380952380952381 0.02380952380952381 0.02380952380952381 0.8809523809523809 0.02380952380952381 0.02380952380952381 0.02380952380952381 0.02380952380952381 0.02380952380952381 0.02380952380952381 0.8809523809523809 0.1666666666666667 0.1666666666666667 0.1666666666666667 0.1666666666666667 0.1666666666666667 0.1666666666666667 0.1666666666666667 0.1666666666666667 0.1666666666666667 0.1666666666666667 0.1666666666666667 0.1666666666666667 0.1666666666666667 0.1666666666666667 0.1666666666666667 0.1666666666666667 0.1666666666666667 0.1666666666666667 0.1666666666666667 0.1666666666666667 0.1666666666666667 0.1666666666666667 0.1666666666666667 0.1666666666666667 0.1666666666666667 0.1666666666666667 0.1666666666666667 0.1666666666666667 0.1666666666666667 0.1666666666666667 0.4841269841269841 0.246031746031746 0.1984126984126984 0.007936507936507936 0.05555555555555556 0.007936507936507936 0.008771929824561403 0.587719298245614 0.1666666666666667 0.2192982456140351 0.008771929824561403 0.008771929824561403 0.03240740740740741 0.337962962962963 0.2546296296296297 0.2824074074074074 0.08796296296296298 0.00462962962962963 0.008333333333333331 0.008333333333333331 0.05833333333333333 0.3583333333333333 0.4083333333333332 0.1583333333333333 0.007936507936507936 0.007936507936507936 0.007936507936507936 0.05555555555555556 0.1507936507936508 0.7698412698412699 0.4743589743589744 0.4743589743589744 0.01282051282051282 0.01282051282051282 0.01282051282051282 0.01282051282051282 0.009259259259259259 0.6759259259259258 0.009259259259259259 0.287037037037037 0.009259259259259259 0.009259259259259259 0.01041666666666667 0.5729166666666667 0.3854166666666668 0.01041666666666667 0.01041666666666667 0.01041666666666667 0.00303030303030303 0.00303030303030303 0.00303030303030303 0.5121212121212121 0.1121212121212121 0.3666666666666667 0.005208333333333333 0.005208333333333333 0.005208333333333333 0.005208333333333333 0.2864583333333333 0.6927083333333334 0.1666666666666667 0.1666666666666667 0.1666666666666667 0.1666666666666667 0.1666666666666667 0.1666666666666667 0.1666666666666667 0.1666666666666667 0.1666666666666667 0.1666666666666667 0.1666666666666667 0.1666666666666667 0.005208333333333333 0.005208333333333333 0.005208333333333333 0.9739583333333334 0.005208333333333333 0.005208333333333333 0.1666666666666667 0.1666666666666667 0.1666666666666667 0.1666666666666667 0.1666666666666667 0.1666666666666667 0.1666666666666667 0.1666666666666667 0.1666666666666667 0.1666666666666667 0.1666666666666667 0.1666666666666667 0.5350877192982455 0.4298245614035087 0.008771929824561403 0.008771929824561403 0.008771929824561403 0.008771929824561403 0.06140350877192983 0.4824561403508771 0.2192982456140351 0.2192982456140351 0.008771929824561403 0.008771929824561403 0.04166666666666666 0.1488095238095238 0.2559523809523809 0.2559523809523809 0.1130952380952381 0.1845238095238095 0.004504504504504504 0.004504504504504504 0.1126126126126126 0.5450450450450451 0.2207207207207207 0.1126126126126126 0.003787878787878788 0.003787878787878788 0.003787878787878788 0.02651515151515152 0.231060606060606 0.7310606060606061 0.8809523809523809 0.02380952380952381 0.02380952380952381 0.02380952380952381 0.02380952380952381 0.02380952380952381 0.1666666666666667 0.6531531531531533 0.1666666666666667 0.004504504504504504 0.004504504504504504 0.004504504504504504 0.01282051282051282 0.01282051282051282 0.4743589743589744 0.4743589743589744 0.01282051282051282 0.01282051282051282 0.008771929824561403 0.008771929824561403 0.008771929824561403 0.6403508771929823 0.3245614035087719 0.008771929824561403 0.02380952380952381 0.02380952380952381 0.02380952380952381 0.02380952380952381 0.8809523809523809 0.02380952380952381 0.1666666666666667 0.1666666666666667 0.1666666666666667 0.1666666666666667 0.1666666666666667 0.1666666666666667 0.1666666666666667 0.1666666666666667 0.1666666666666667 0.1666666666666667 0.1666666666666667 0.1666666666666667 0.1666666666666667 0.1666666666666667 0.1666666666666667 0.1666666666666667 0.1666666666666667 0.1666666666666667 0.005376344086021505 0.005376344086021505 0.005376344086021505 0.005376344086021505 0.9731182795698925 0.005376344086021505 0.1666666666666667 0.1666666666666667 0.1666666666666667 0.1666666666666667 0.1666666666666667 0.1666666666666667 0.6159420289855072 0.2246376811594203 0.1376811594202899 0.007246376811594202 0.007246376811594202 0.007246376811594202 0.01111111111111111 0.4111111111111111 0.3444444444444444 0.2111111111111111 0.01111111111111111 0.01111111111111111 0.00641025641025641 0.1987179487179487 0.3141025641025641 0.1217948717948718 0.1987179487179487 0.1602564102564103 0.005208333333333332 0.005208333333333332 0.1614583333333333 0.5052083333333333 0.2239583333333333 0.0989583333333333 0.02845528455284553 0.004065040650406504 0.004065040650406504 0.02845528455284553 0.1991869918699187 0.7357723577235773 0.4212962962962963 0.1712962962962963 0.2546296296296297 0.1435185185185185 0.00462962962962963 0.00462962962962963 0.005952380952380952 0.9702380952380952 0.005952380952380952 0.005952380952380952 0.005952380952380952 0.005952380952380952 0.01282051282051282 0.4743589743589744 0.01282051282051282 0.4743589743589744 0.01282051282051282 0.01282051282051282 0.009803921568627451 0.009803921568627451 0.009803921568627451 0.5980392156862745 0.3627450980392157 0.009803921568627451 0.005555555555555555 0.005555555555555555 0.005555555555555555 0.2055555555555556 0.2055555555555556 0.5722222222222223 0.1666666666666667 0.1666666666666667 0.1666666666666667 0.1666666666666667 0.1666666666666667 0.1666666666666667 0.005208333333333333 0.9739583333333334 0.005208333333333333 0.005208333333333333 0.005208333333333333 0.005208333333333333 0.1666666666666667 0.1666666666666667 0.1666666666666667 0.1666666666666667 0.1666666666666667 0.1666666666666667 0.1666666666666667 0.1666666666666667 0.1666666666666667 0.1666666666666667 0.1666666666666667 0.1666666666666667 0.1666666666666667 0.1666666666666667 0.1666666666666667 0.1666666666666667 0.1666666666666667 0.1666666666666667 0.3166666666666667 0.5166666666666667 0.1166666666666667 0.01666666666666667 0.01666666666666667 0.01666666666666667 0.009803921568627451 0.5980392156862745 0.2450980392156863 0.1274509803921569 0.009803921568627451 0.009803921568627451 0.02083333333333333 0.1458333333333333 0.2708333333333333 0.2708333333333333 0.02083333333333333 0.2708333333333333 0.01041666666666667 0.01041666666666667 0.2604166666666667 0.4479166666666667 0.1979166666666667 0.07291666666666667 0.008333333333333333 0.008333333333333333 0.008333333333333333 0.1083333333333333 0.05833333333333334 0.8083333333333335 0.9242424242424243 0.01515151515151515 0.01515151515151515 0.01515151515151515 0.01515151515151515 0.01515151515151515 0.007575757575757574 0.7348484848484849 0.007575757575757574 0.2348484848484848 0.007575757575757574 0.007575757575757574 0.008771929824561403 0.3245614035087719 0.6403508771929823 0.008771929824561403 0.008771929824561403 0.008771929824561403 0.01282051282051282 0.01282051282051282 0.01282051282051282 0.9358974358974359 0.01282051282051282 0.01282051282051282 0.003968253968253968 0.003968253968253968 0.003968253968253968 0.1468253968253968 0.003968253968253968 0.8373015873015872 0.1666666666666667 0.1666666666666667 0.1666666666666667 0.1666666666666667 0.1666666666666667 0.1666666666666667 0.1666666666666667 0.1666666666666667 0.1666666666666667 0.1666666666666667 0.1666666666666667 0.1666666666666667 0.001572327044025157 0.001572327044025157 0.001572327044025157 0.001572327044025157 0.992138364779874 0.001572327044025157 0.1666666666666667 0.1666666666666667 0.1666666666666667 0.1666666666666667 0.1666666666666667 0.1666666666666667 0.001572327044025157 0.001572327044025157 0.001572327044025157 0.001572327044025157 0.001572327044025157 0.9921383647798743 0.08333333333333333 0.5833333333333334 0.08333333333333333 0.08333333333333333 0.08333333333333333 0.08333333333333333 0.01388888888888889 0.6805555555555556 0.09722222222222224 0.1805555555555556 0.01388888888888889 0.01388888888888889 0.1296296296296296 0.2407407407407407 0.5740740740740741 0.01851851851851852 0.01851851851851852 0.01851851851851852 0.03333333333333333 0.03333333333333333 0.03333333333333333 0.6333333333333333 0.2333333333333334 0.03333333333333333 0.03333333333333333 0.03333333333333333 0.03333333333333333 0.03333333333333333 0.2333333333333334 0.6333333333333333 0.8809523809523809 0.02380952380952381 0.02380952380952381 0.02380952380952381 0.02380952380952381 0.02380952380952381 0.01111111111111111 0.6111111111111112 0.01111111111111111 0.3444444444444446 0.01111111111111111 0.01111111111111111 0.01282051282051282 0.01282051282051282 0.9358974358974359 0.01282051282051282 0.01282051282051282 0.01282051282051282 0.1666666666666667 0.1666666666666667 0.1666666666666667 0.1666666666666667 0.1666666666666667 0.1666666666666667 0.02380952380952381 0.02380952380952381 0.02380952380952381 0.02380952380952381 0.02380952380952381 0.8809523809523809 0.1666666666666667 0.1666666666666667 0.1666666666666667 0.1666666666666667 0.1666666666666667 0.1666666666666667 0.1666666666666667 0.1666666666666667 0.1666666666666667 0.1666666666666667 0.1666666666666667 0.1666666666666667 0.1666666666666667 0.1666666666666667 0.1666666666666667 0.1666666666666667 0.1666666666666667 0.1666666666666667 0.1666666666666667 0.1666666666666667 0.1666666666666667 0.1666666666666667 0.1666666666666667 0.1666666666666667 0.1666666666666667 0.1666666666666667 0.1666666666666667 0.1666666666666667 0.1666666666666667 0.1666666666666667 0.4333333333333333 0.4333333333333333 0.03333333333333333 0.03333333333333333 0.03333333333333333 0.03333333333333333 0.02083333333333333 0.6458333333333334 0.02083333333333333 0.2708333333333333 0.02083333333333333 0.02083333333333333 0.01388888888888889 0.4305555555555556 0.4305555555555556 0.01388888888888889 0.01388888888888889 0.09722222222222222 0.02777777777777777 0.02777777777777777 0.02777777777777777 0.02777777777777777 0.6944444444444443 0.1944444444444444 0.02083333333333333 0.02083333333333333 0.02083333333333333 0.2708333333333333 0.5208333333333334 0.1458333333333333 0.1666666666666667 0.1666666666666667 0.1666666666666667 0.1666666666666667 0.1666666666666667 0.1666666666666667 0.1666666666666667 0.1666666666666667 0.1666666666666667 0.1666666666666667 0.1666666666666667 0.1666666666666667 0.1666666666666667 0.1666666666666667 0.1666666666666667 0.1666666666666667 0.1666666666666667 0.1666666666666667 0.1666666666666667 0.1666666666666667 0.1666666666666667 0.1666666666666667 0.1666666666666667 0.1666666666666667 0.1666666666666667 0.1666666666666667 0.1666666666666667 0.1666666666666667 0.1666666666666667 0.1666666666666667 0.1666666666666667 0.1666666666666667 0.1666666666666667 0.1666666666666667 0.1666666666666667 0.1666666666666667 0.1666666666666667 0.1666666666666667 0.1666666666666667 0.1666666666666667 0.1666666666666667 0.1666666666666667 0.1666666666666667 0.1666666666666667 0.1666666666666667 0.1666666666666667 0.1666666666666667 0.1666666666666667 0.1666666666666667 0.1666666666666667 0.1666666666666667 0.1666666666666667 0.1666666666666667 0.1666666666666667 0.1666666666666667 0.1666666666666667 0.1666666666666667 0.1666666666666667 0.1666666666666667 0.1666666666666667 0.4333333333333333 0.4333333333333333 0.03333333333333333 0.03333333333333333 0.03333333333333333 0.03333333333333333 0.01851851851851852 0.6851851851851852 0.2407407407407407 0.01851851851851852 0.01851851851851852 0.01851851851851852 0.01851851851851851 0.1296296296296296 0.4629629629629629 0.1296296296296296 0.01851851851851851 0.2407407407407407 0.007936507936507936 0.007936507936507936 0.007936507936507936 0.4841269841269841 0.1984126984126984 0.2936507936507937 0.007936507936507936 0.007936507936507936 0.007936507936507936 0.3412698412698413 0.1031746031746032 0.5317460317460316 0.1666666666666667 0.1666666666666667 0.1666666666666667 0.1666666666666667 0.1666666666666667 0.1666666666666667 0.01041666666666667 0.3854166666666668 0.01041666666666667 0.01041666666666667 0.5729166666666667 0.01041666666666667 0.1666666666666667 0.1666666666666667 0.1666666666666667 0.1666666666666667 0.1666666666666667 0.1666666666666667 0.01388888888888889 0.01388888888888889 0.01388888888888889 0.01388888888888889 0.9305555555555556 0.01388888888888889 0.1666666666666667 0.1666666666666667 0.1666666666666667 0.1666666666666667 0.1666666666666667 0.1666666666666667 0.1666666666666667 0.1666666666666667 0.1666666666666667 0.1666666666666667 0.1666666666666667 0.1666666666666667 0.1666666666666667 0.1666666666666667 0.1666666666666667 0.1666666666666667 0.1666666666666667 0.1666666666666667 0.1666666666666667 0.1666666666666667 0.1666666666666667 0.1666666666666667 0.1666666666666667 0.1666666666666667 0.001587301587301587 0.001587301587301587 0.001587301587301587 0.992063492063492 0.001587301587301587 0.001587301587301587 0.1666666666666667 0.1666666666666667 0.1666666666666667 0.1666666666666667 0.1666666666666667 0.1666666666666667 0.2916666666666667 0.5416666666666667 0.04166666666666667 0.04166666666666667 0.04166666666666667 0.04166666666666667 0.1666666666666667 0.4523809523809523 0.1666666666666667 0.02380952380952381 0.02380952380952381 0.1666666666666667 0.1166666666666667 0.2166666666666667 0.2166666666666667 0.01666666666666667 0.1166666666666667 0.3166666666666667 0.02083333333333333 0.1458333333333333 0.02083333333333333 0.1458333333333333 0.5208333333333334 0.1458333333333333 0.01666666666666667 0.01666666666666667 0.01666666666666667 0.2166666666666667 0.1166666666666667 0.6166666666666667 0.02380952380952381 0.02380952380952381 0.8809523809523809 0.02380952380952381 0.02380952380952381 0.02380952380952381 0.02380952380952381 0.02380952380952381 0.8809523809523809 0.02380952380952381 0.02380952380952381 0.02380952380952381 0.1666666666666667 0.1666666666666667 0.1666666666666667 0.1666666666666667 0.1666666666666667 0.1666666666666667 0.02380952380952381 0.02380952380952381 0.02380952380952381 0.8809523809523809 0.02380952380952381 0.02380952380952381 0.1666666666666667 0.1666666666666667 0.1666666666666667 0.1666666666666667 0.1666666666666667 0.1666666666666667 0.1666666666666667 0.1666666666666667 0.1666666666666667 0.1666666666666667 0.1666666666666667 0.1666666666666667 0.001572327044025157 0.992138364779874 0.001572327044025157 0.001572327044025157 0.001572327044025157 0.001572327044025157 0.005208333333333333 0.9739583333333334 0.005208333333333333 0.005208333333333333 0.005208333333333333 0.005208333333333333 0.1666666666666667 0.1666666666666667 0.1666666666666667 0.1666666666666667 0.1666666666666667 0.1666666666666667 0.1666666666666667 0.1666666666666667 0.1666666666666667 0.1666666666666667 0.1666666666666667 0.1666666666666667 0.5416666666666667 0.2916666666666667 0.04166666666666667 0.04166666666666667 0.04166666666666667 0.04166666666666667 0.1666666666666666 0.5952380952380951 0.1666666666666666 0.0238095238095238 0.0238095238095238 0.0238095238095238 0.03333333333333333 0.03333333333333333 0.4333333333333333 0.03333333333333333 0.03333333333333333 0.4333333333333333 0.02777777777777778 0.02777777777777778 0.02777777777777778 0.1944444444444444 0.1944444444444444 0.5277777777777777 0.01666666666666667 0.01666666666666667 0.01666666666666667 0.3166666666666667 0.01666666666666667 0.6166666666666667 0.8809523809523809 0.02380952380952381 0.02380952380952381 0.02380952380952381 0.02380952380952381 0.02380952380952381 0.1666666666666667 0.1666666666666667 0.1666666666666667 0.1666666666666667 0.1666666666666667 0.1666666666666667 0.01041666666666667 0.3854166666666668 0.5729166666666667 0.01041666666666667 0.01041666666666667 0.01041666666666667 0.02380952380952381 0.02380952380952381 0.02380952380952381 0.8809523809523809 0.02380952380952381 0.02380952380952381 0.1666666666666667 0.1666666666666667 0.1666666666666667 0.1666666666666667 0.1666666666666667 0.1666666666666667 0.9739583333333334 0.005208333333333333 0.005208333333333333 0.005208333333333333 0.005208333333333333 0.005208333333333333 0.1666666666666667 0.1666666666666667 0.1666666666666667 0.1666666666666667 0.1666666666666667 0.1666666666666667 0.005208333333333333 0.005208333333333333 0.005208333333333333 0.005208333333333333 0.005208333333333333 0.9739583333333334 0.1666666666666667 0.1666666666666667 0.1666666666666667 0.1666666666666667 0.1666666666666667 0.1666666666666667 0.1666666666666667 0.1666666666666667 0.1666666666666667 0.1666666666666667 0.1666666666666667 0.1666666666666667 0.5814814814814815 0.3592592592592593 0.04814814814814815 0.003703703703703704 0.003703703703703704 0.003703703703703704 0.6408045977011495 0.1235632183908046 0.08908045977011496 0.08908045977011496 0.0545977011494253 0.002873563218390805 0.02777777777777778 0.003968253968253968 0.503968253968254 0.2658730158730158 0.1706349206349206 0.02777777777777778 0.008771929824561401 0.06140350877192981 0.2192982456140351 0.3245614035087719 0.3771929824561403 0.008771929824561401 0.008333333333333333 0.008333333333333333 0.008333333333333333 0.008333333333333333 0.7583333333333333 0.2083333333333334 0.6997549019607844 0.295343137254902 0.001225490196078431 0.001225490196078431 0.001225490196078431 0.001225490196078431 0.6081560283687942 0.1294326241134752 0.1294326241134752 0.06560283687943262 0.06560283687943262 0.001773049645390071 0.1581196581196581 0.004273504273504273 0.4145299145299146 0.4145299145299146 0.004273504273504273 0.004273504273504273 0.003968253968253968 0.003968253968253968 0.1468253968253968 0.503968253968254 0.3373015873015873 0.003968253968253968 0.009803921568627451 0.009803921568627451 0.009803921568627451 0.009803921568627451 0.009803921568627451 0.9509803921568628 0.2940251572327043 0.6996855345911949 0.001572327044025157 0.001572327044025157 0.001572327044025157 0.001572327044025157 0.1574074074074074 0.1523569023569024 0.1574074074074074 0.0008417508417508418 0.5311447811447813 0.0008417508417508418 0.00228310502283105 0.00228310502283105 0.5776255707762556 0.4132420091324201 0.00228310502283105 0.00228310502283105 0.001572327044025157 0.001572327044025157 0.001572327044025157 0.001572327044025157 0.992138364779874 0.001572327044025157 0.003787878787878788 0.003787878787878788 0.003787878787878788 0.003787878787878788 0.003787878787878788 0.9810606060606061 0.5046296296296297 0.2546296296296296 0.1712962962962963 0.004629629629629629 0.06018518518518517 0.004629629629629629 0.5808080808080809 0.2777777777777778 0.03535353535353536 0.03535353535353536 0.06565656565656565 0.00505050505050505 0.004166666666666667 0.02916666666666667 0.5041666666666668 0.3541666666666667 0.07916666666666666 0.02916666666666667 0.005555555555555555 0.005555555555555555 0.2055555555555556 0.3055555555555555 0.3055555555555555 0.1722222222222222 0.005376344086021505 0.005376344086021505 0.005376344086021505 0.005376344086021505 0.3924731182795699 0.5860215053763441 0.7146892655367233 0.2740112994350283 0.002824858757062147 0.002824858757062147 0.002824858757062147 0.002824858757062147 0.5484848484848485 0.2212121212121212 0.2212121212121212 0.00303030303030303 0.00303030303030303 0.00303030303030303 0.002450980392156862 0.0906862745098039 0.4583333333333333 0.355392156862745 0.0906862745098039 0.002450980392156862 0.005952380952380952 0.005952380952380952 0.005952380952380952 0.3273809523809523 0.4345238095238095 0.2202380952380952 0.002824858757062147 0.002824858757062147 0.002824858757062147 0.002824858757062147 0.4943502824858757 0.4943502824858757 0.005208333333333333 0.9739583333333334 0.005208333333333333 0.005208333333333333 0.005208333333333333 0.005208333333333333 0.002222222222222222 0.002222222222222222 0.9888888888888887 0.002222222222222222 0.002222222222222222 0.002222222222222222 0.005376344086021505 0.005376344086021505 0.9731182795698925 0.005376344086021505 0.005376344086021505 0.005376344086021505 0.005208333333333333 0.005208333333333333 0.9739583333333334 0.005208333333333333 0.005208333333333333 0.005208333333333333 0.003787878787878788 0.003787878787878788 0.003787878787878788 0.003787878787878788 0.9810606060606062 0.003787878787878788 0.5229885057471264 0.3160919540229885 0.1091954022988506 0.005747126436781609 0.005747126436781609 0.04022988505747126 0.5570175438596491 0.1359649122807018 0.1885964912280702 0.05701754385964911 0.05701754385964911 0.004385964912280702 0.004166666666666667 0.004166666666666667 0.6041666666666667 0.2291666666666667 0.05416666666666667 0.1041666666666667 0.00505050505050505 0.00505050505050505 0.3080808080808081 0.3686868686868687 0.1565656565656566 0.1565656565656566 0.005208333333333333 0.005208333333333333 0.005208333333333333 0.005208333333333333 0.4739583333333333 0.5052083333333334 0.7730923694779115 0.07429718875502006 0.07429718875502006 0.002008032128514056 0.07429718875502006 0.002008032128514056 0.6694444444444445 0.002777777777777778 0.1694444444444445 0.002777777777777778 0.1527777777777778 0.002777777777777778 0.003703703703703705 0.003703703703703705 0.714814814814815 0.2703703703703704 0.003703703703703705 0.003703703703703705 0.002415458937198067 0.002415458937198067 0.1473429951690821 0.4082125603864734 0.3502415458937198 0.08937198067632848 0.003401360544217687 0.003401360544217687 0.003401360544217687 0.003401360544217687 0.3707482993197279 0.6156462585034014 0.002252252252252252 0.9887387387387386 0.002252252252252252 0.002252252252252252 0.002252252252252252 0.002252252252252252 0.2849099099099099 0.001126126126126126 0.7105855855855857 0.001126126126126126 0.001126126126126126 0.001126126126126126 0.005208333333333333 0.005208333333333333 0.005208333333333333 0.9739583333333334 0.005208333333333333 0.005208333333333333 0.001412429378531073 0.001412429378531073 0.001412429378531073 0.365819209039548 0.001412429378531073 0.6285310734463277 0.00121654501216545 0.00121654501216545 0.00121654501216545 0.00121654501216545 0.00121654501216545 0.9939172749391727 0.303921568627451 0.4803921568627451 0.1274509803921569 0.009803921568627451 0.009803921568627451 0.06862745098039216 0.4777777777777778 0.07777777777777778 0.1444444444444444 0.2111111111111111 0.01111111111111111 0.07777777777777778 0.006944444444444444 0.04861111111111111 0.548611111111111 0.1319444444444444 0.2152777777777778 0.04861111111111111 0.005555555555555555 0.005555555555555555 0.2722222222222222 0.1722222222222222 0.4722222222222222 0.07222222222222222 0.006666666666666666 0.006666666666666666 0.006666666666666666 0.006666666666666666 0.2866666666666667 0.6866666666666668 0.5717299578059072 0.419831223628692 0.002109704641350211 0.002109704641350211 0.002109704641350211 0.002109704641350211 0.228395061728395 0.7469135802469135 0.006172839506172837 0.006172839506172837 0.006172839506172837 0.006172839506172837 0.003401360544217687 0.003401360544217687 0.4931972789115646 0.4931972789115646 0.003401360544217687 0.003401360544217687 0.001937984496124031 0.001937984496124031 0.1182170542635659 0.1065891472868217 0.6996124031007751 0.07170542635658915 0.02380952380952381 0.02380952380952381 0.02380952380952381 0.02380952380952381 0.8809523809523809 0.02380952380952381 0.1666666666666667 0.1666666666666667 0.1666666666666667 0.1666666666666667 0.1666666666666667 0.1666666666666667 0.9739583333333334 0.005208333333333333 0.005208333333333333 0.005208333333333333 0.005208333333333333 0.005208333333333333 0.001937984496124031 0.001937984496124031 0.501937984496124 0.001937984496124031 0.4903100775193798 0.001937984496124031 0.005208333333333333 0.005208333333333333 0.005208333333333333 0.9739583333333334 0.005208333333333333 0.005208333333333333 0.001572327044025157 0.001572327044025157 0.001572327044025157 0.001572327044025157 0.2940251572327044 0.699685534591195 0.6166666666666667 0.3166666666666667 0.01666666666666667 0.01666666666666667 0.01666666666666667 0.01666666666666667 0.361111111111111 0.02777777777777778 0.02777777777777778 0.02777777777777778 0.5277777777777777 0.02777777777777778 0.01111111111111111 0.01111111111111111 0.5444444444444445 0.3444444444444446 0.07777777777777779 0.01111111111111111 0.01041666666666667 0.01041666666666667 0.1979166666666667 0.1979166666666667 0.5104166666666667 0.07291666666666669 0.006172839506172839 0.006172839506172839 0.006172839506172839 0.006172839506172839 0.3024691358024691 0.6728395061728395 0.5694444444444445 0.3194444444444445 0.1027777777777778 0.002777777777777778 0.002777777777777778 0.002777777777777778 0.7679738562091504 0.1013071895424837 0.003267973856209151 0.003267973856209151 0.1209150326797386 0.003267973856209151 0.003205128205128205 0.1955128205128205 0.5608974358974359 0.1185897435897436 0.1185897435897436 0.003205128205128205 0.002976190476190476 0.002976190476190476 0.4494047619047619 0.1636904761904762 0.3779761904761905 0.002976190476190476 0.001754385964912281 0.001754385964912281 0.001754385964912281 0.001754385964912281 0.09649122807017543 0.8964912280701754 0.1640350877192983 0.6692982456140351 0.1640350877192983 0.0008771929824561403 0.0008771929824561403 0.0008771929824561403 0.9810606060606062 0.003787878787878788 0.003787878787878788 0.003787878787878788 0.003787878787878788 0.003787878787878788 0.003787878787878788 0.003787878787878788 0.9810606060606062 0.003787878787878788 0.003787878787878788 0.003787878787878788 0.005208333333333333 0.005208333333333333 0.005208333333333333 0.005208333333333333 0.9739583333333334 0.005208333333333333 0.0008012820512820513 0.0008012820512820513 0.0008012820512820513 0.2075320512820513 0.500801282051282 0.2892628205128205 0.3101851851851852 0.4768518518518519 0.1435185185185185 0.06018518518518517 0.004629629629629629 0.004629629629629629 0.3935185185185185 0.4490740740740741 0.03240740740740741 0.08796296296296295 0.03240740740740741 0.004629629629629629 0.005555555555555554 0.005555555555555554 0.5388888888888889 0.4055555555555554 0.005555555555555554 0.03888888888888888 0.00574712643678161 0.00574712643678161 0.07471264367816093 0.3160919540229886 0.5229885057471265 0.07471264367816093 0.006172839506172839 0.006172839506172839 0.006172839506172839 0.08024691358024691 0.6358024691358025 0.2654320987654321 0.4070512820512821 0.233974358974359 0.3493589743589744 0.003205128205128205 0.003205128205128205 0.003205128205128205 0.2210144927536232 0.5688405797101449 0.003623188405797101 0.003623188405797101 0.003623188405797101 0.1992753623188405 0.002450980392156862 0.002450980392156862 0.3848039215686274 0.4583333333333333 0.1495098039215686 0.002450980392156862 0.01111111111111111 0.01111111111111111 0.01111111111111111 0.9444444444444446 0.01111111111111111 0.01111111111111111 0.007575757575757576 0.007575757575757576 0.007575757575757576 0.007575757575757576 0.6893939393939393 0.2803030303030303 0.003787878787878788 0.9810606060606062 0.003787878787878788 0.003787878787878788 0.003787878787878788 0.003787878787878788 0.9731182795698925 0.005376344086021505 0.005376344086021505 0.005376344086021505 0.005376344086021505 0.005376344086021505 0.1666666666666667 0.1666666666666667 0.1666666666666667 0.1666666666666667 0.1666666666666667 0.1666666666666667 0.002252252252252252 0.002252252252252252 0.4211711711711712 0.5698198198198198 0.002252252252252252 0.002252252252252252 0.1666666666666667 0.1666666666666667 0.1666666666666667 0.1666666666666667 0.1666666666666667 0.1666666666666667 0.3425925925925926 0.5092592592592592 0.009259259259259259 0.1203703703703703 0.009259259259259259 0.009259259259259259 0.2246376811594203 0.5289855072463767 0.1376811594202899 0.09420289855072463 0.007246376811594202 0.007246376811594202 0.00505050505050505 0.1565656565656566 0.2474747474747475 0.398989898989899 0.1262626262626263 0.06565656565656565 0.005555555555555554 0.005555555555555554 0.1388888888888889 0.5388888888888889 0.1722222222222222 0.1388888888888889 0.007575757575757576 0.007575757575757576 0.007575757575757576 0.007575757575757576 0.4621212121212121 0.5075757575757576 0.6827956989247312 0.2956989247311828 0.005376344086021505 0.005376344086021505 0.005376344086021505 0.005376344086021505 0.1010928961748634 0.7896174863387978 0.00273224043715847 0.00273224043715847 0.1010928961748634 0.00273224043715847 0.007575757575757576 0.2803030303030303 0.2803030303030303 0.4166666666666666 0.007575757575757576 0.007575757575757576 0.003968253968253969 0.003968253968253969 0.003968253968253969 0.765873015873016 0.2182539682539683 0.003968253968253969 0.007246376811594202 0.007246376811594202 0.007246376811594202 0.007246376811594202 0.4420289855072463 0.5289855072463767 0.005208333333333333 0.9739583333333334 0.005208333333333333 0.005208333333333333 0.005208333333333333 0.005208333333333333 0.1666666666666667 0.1666666666666667 0.1666666666666667 0.1666666666666667 0.1666666666666667 0.1666666666666667 0.1666666666666667 0.1666666666666667 0.1666666666666667 0.1666666666666667 0.1666666666666667 0.1666666666666667 0.003787878787878788 0.003787878787878788 0.003787878787878788 0.9810606060606062 0.003787878787878788 0.003787878787878788 0.003787878787878788 0.003787878787878788 0.003787878787878788 0.003787878787878788 0.9810606060606062 0.003787878787878788 0.4583333333333333 0.4583333333333333 0.008333333333333333 0.008333333333333333 0.05833333333333334 0.008333333333333333 0.2569444444444444 0.5902777777777777 0.09027777777777776 0.006944444444444444 0.006944444444444444 0.04861111111111111 0.006666666666666666 0.08666666666666666 0.3266666666666667 0.4466666666666667 0.08666666666666666 0.04666666666666667 0.03153153153153154 0.004504504504504505 0.2477477477477478 0.2477477477477478 0.3288288288288289 0.1396396396396397 0.005555555555555555 0.005555555555555555 0.005555555555555555 0.07222222222222222 0.3722222222222222 0.538888888888889 0.2210144927536232 0.4166666666666667 0.2210144927536232 0.1340579710144928 0.003623188405797101 0.003623188405797101 0.2886904761904762 0.1636904761904762 0.3601190476190476 0.002976190476190476 0.181547619047619 0.002976190476190476 0.005208333333333333 0.005208333333333333 0.6614583333333334 0.005208333333333333 0.3177083333333333 0.005208333333333333 0.003875968992248062 0.003875968992248062 0.003875968992248062 0.1434108527131783 0.6085271317829457 0.2364341085271318 0.003787878787878788 0.003787878787878788 0.003787878787878788 0.003787878787878788 0.2765151515151515 0.7083333333333334 0.5755555555555556 0.4155555555555556 0.002222222222222222 0.002222222222222222 0.002222222222222222 0.002222222222222222 0.005208333333333333 0.9739583333333334 0.005208333333333333 0.005208333333333333 0.005208333333333333 0.005208333333333333 0.1666666666666667 0.1666666666666667 0.1666666666666667 0.1666666666666667 0.1666666666666667 0.1666666666666667 0.001118568232662193 0.001118568232662193 0.001118568232662193 0.001118568232662193 0.9944071588366892 0.001118568232662193 0.1666666666666667 0.1666666666666667 0.1666666666666667 0.1666666666666667 0.1666666666666667 0.1666666666666667 0.1060606060606061 0.4696969696969697 0.3787878787878788 0.01515151515151515 0.01515151515151515 0.01515151515151515 0.3257575757575757 0.3257575757575757 0.2803030303030303 0.007575757575757574 0.007575757575757574 0.05303030303030302 0.005747126436781609 0.04022988505747126 0.2816091954022988 0.4195402298850575 0.04022988505747126 0.2126436781609196 0.004761904761904761 0.004761904761904761 0.1761904761904762 0.5761904761904761 0.119047619047619 0.119047619047619 0.01041666666666667 0.01041666666666667 0.01041666666666667 0.07291666666666667 0.5104166666666666 0.3854166666666667 0.1761904761904762 0.5476190476190477 0.004761904761904761 0.2619047619047619 0.004761904761904761 0.004761904761904761 0.5243055555555556 0.3368055555555556 0.003472222222222222 0.003472222222222222 0.003472222222222222 0.1284722222222222 0.002976190476190476 0.002976190476190476 0.3244047619047619 0.3779761904761905 0.002976190476190476 0.2886904761904762 0.003030303030303031 0.003030303030303031 0.003030303030303031 0.7121212121212122 0.2757575757575758 0.003030303030303031 0.004761904761904761 0.004761904761904761 0.004761904761904761 0.004761904761904761 0.1761904761904762 0.8047619047619048 0.9739583333333334 0.005208333333333333 0.005208333333333333 0.005208333333333333 0.005208333333333333 0.005208333333333333 0.003875968992248062 0.003875968992248062 0.9806201550387598 0.003875968992248062 0.003875968992248062 0.003875968992248062 0.1666666666666667 0.1666666666666667 0.1666666666666667 0.1666666666666667 0.1666666666666667 0.1666666666666667 0.1666666666666667 0.1666666666666667 0.1666666666666667 0.1666666666666667 0.1666666666666667 0.1666666666666667 0.005208333333333333 0.005208333333333333 0.005208333333333333 0.005208333333333333 0.005208333333333333 0.9739583333333334 0.04166666666666667 0.5416666666666667 0.04166666666666667 0.2916666666666667 0.04166666666666667 0.04166666666666667 0.3166666666666667 0.5166666666666667 0.01666666666666667 0.01666666666666667 0.01666666666666667 0.1166666666666667 0.01851851851851852 0.01851851851851852 0.2407407407407407 0.6851851851851852 0.01851851851851852 0.01851851851851852 0.01041666666666667 0.01041666666666667 0.01041666666666667 0.5729166666666667 0.3854166666666668 0.01041666666666667 0.00641025641025641 0.00641025641025641 0.00641025641025641 0.04487179487179488 0.3141025641025641 0.6217948717948719 0.02380952380952381 0.8809523809523809 0.02380952380952381 0.02380952380952381 0.02380952380952381 0.02380952380952381 0.1882716049382717 0.6327160493827162 0.1697530864197531 0.00308641975308642 0.00308641975308642 0.00308641975308642 0.009803921568627451 0.3627450980392157 0.5980392156862745 0.009803921568627451 0.009803921568627451 0.009803921568627451 0.002976190476190476 0.002976190476190476 0.002976190476190476 0.5386904761904762 0.4494047619047619 0.002976190476190476 0.005208333333333333 0.005208333333333333 0.005208333333333333 0.005208333333333333 0.3177083333333333 0.6614583333333334 0.5825396825396826 0.4111111111111111 0.001587301587301587 0.001587301587301587 0.001587301587301587 0.001587301587301587 0.005208333333333333 0.9739583333333334 0.005208333333333333 0.005208333333333333 0.005208333333333333 0.005208333333333333 0.0009310986964618251 0.0009310986964618251 0.0009310986964618251 0.8277467411545625 0.1685288640595904 0.0009310986964618251 0.001412429378531073 0.001412429378531073 0.001412429378531073 0.3658192090395479 0.6285310734463276 0.001412429378531073 0.001048218029350105 0.001048218029350105 0.001048218029350105 0.001048218029350105 0.5356394129979036 0.460167714884696 0.5104166666666667 0.3229166666666667 0.1354166666666667 0.01041666666666667 0.01041666666666667 0.01041666666666667 0.05303030303030303 0.6439393939393939 0.1893939393939394 0.09848484848484848 0.007575757575757576 0.007575757575757576 0.007575757575757576 0.4621212121212121 0.143939393939394 0.2803030303030303 0.05303030303030303 0.05303030303030303 0.006666666666666666 0.006666666666666666 0.08666666666666666 0.5266666666666666 0.2466666666666667 0.1266666666666666 0.006944444444444444 0.006944444444444444 0.006944444444444444 0.1319444444444444 0.1736111111111111 0.6736111111111112 0.5729166666666667 0.01041666666666667 0.3854166666666668 0.01041666666666667 0.01041666666666667 0.01041666666666667 0.008771929824561403 0.4824561403508771 0.008771929824561403 0.4824561403508771 0.008771929824561403 0.008771929824561403 0.006666666666666666 0.4866666666666666 0.006666666666666666 0.2466666666666667 0.2466666666666667 0.006666666666666666 0.007575757575757576 0.007575757575757576 0.007575757575757576 0.4166666666666666 0.2803030303030303 0.2803030303030303 0.01111111111111111 0.01111111111111111 0.01111111111111111 0.01111111111111111 0.611111111111111 0.3444444444444444 0.1666666666666667 0.1666666666666667 0.1666666666666667 0.1666666666666667 0.1666666666666667 0.1666666666666667 0.005208333333333333 0.9739583333333334 0.005208333333333333 0.005208333333333333 0.005208333333333333 0.005208333333333333 0.003787878787878788 0.9810606060606062 0.003787878787878788 0.003787878787878788 0.003787878787878788 0.003787878787878788 0.005208333333333333 0.005208333333333333 0.005208333333333333 0.005208333333333333 0.9739583333333334 0.005208333333333333 0.1666666666666667 0.1666666666666667 0.1666666666666667 0.1666666666666667 0.1666666666666667 0.1666666666666667 0.3974358974358975 0.3205128205128205 0.08974358974358976 0.01282051282051282 0.1666666666666667 0.01282051282051282 0.01515151515151515 0.6515151515151516 0.01515151515151515 0.196969696969697 0.1060606060606061 0.01515151515151515 0.007936507936507936 0.1984126984126984 0.1507936507936508 0.3888888888888888 0.05555555555555556 0.1984126984126984 0.007936507936507936 0.007936507936507936 0.1031746031746032 0.4365079365079365 0.246031746031746 0.1984126984126984 0.007246376811594202 0.007246376811594202 0.007246376811594202 0.09420289855072463 0.3115942028985507 0.572463768115942 0.4866666666666666 0.006666666666666666 0.4866666666666666 0.006666666666666666 0.006666666666666666 0.006666666666666666 0.009803921568627451 0.3627450980392157 0.5980392156862745 0.009803921568627451 0.009803921568627451 0.009803921568627451 0.009259259259259257 0.287037037037037 0.009259259259259257 0.3425925925925926 0.3425925925925926 0.009259259259259257 0.02380952380952381 0.02380952380952381 0.02380952380952381 0.8809523809523809 0.02380952380952381 0.02380952380952381 0.005747126436781609 0.005747126436781609 0.005747126436781609 0.005747126436781609 0.2126436781609196 0.764367816091954 0.1666666666666667 0.1666666666666667 0.1666666666666667 0.1666666666666667 0.1666666666666667 0.1666666666666667 0.1666666666666667 0.1666666666666667 0.1666666666666667 0.1666666666666667 0.1666666666666667 0.1666666666666667 0.1666666666666667 0.1666666666666667 0.1666666666666667 0.1666666666666667 0.1666666666666667 0.1666666666666667 0.1666666666666667 0.1666666666666667 0.1666666666666667 0.1666666666666667 0.1666666666666667 0.1666666666666667 0.1666666666666667 0.1666666666666667 0.1666666666666667 0.1666666666666667 0.1666666666666667 0.1666666666666667 0.4166666666666667 0.5166666666666667 0.01666666666666667 0.01666666666666667 0.01666666666666667 0.01666666666666667 0.01282051282051282 0.782051282051282 0.08974358974358976 0.08974358974358976 0.01282051282051282 0.01282051282051282 0.01041666666666666 0.1354166666666666 0.3854166666666666 0.01041666666666666 0.2604166666666666 0.1979166666666666 0.007936507936507934 0.007936507936507934 0.1984126984126984 0.246031746031746 0.4365079365079364 0.1031746031746031 0.004901960784313725 0.004901960784313725 0.004901960784313725 0.1519607843137255 0.1813725490196078 0.6519607843137255 0.9166666666666667 0.01666666666666667 0.01666666666666667 0.01666666666666667 0.01666666666666667 0.01666666666666667 0.01282051282051282 0.4743589743589744 0.01282051282051282 0.4743589743589744 0.01282051282051282 0.01282051282051282 0.009803921568627451 0.5980392156862745 0.009803921568627451 0.3627450980392157 0.009803921568627451 0.009803921568627451 0.007575757575757574 0.007575757575757574 0.007575757575757574 0.962121212121212 0.007575757575757574 0.007575757575757574 0.007246376811594202 0.007246376811594202 0.007246376811594202 0.007246376811594202 0.5289855072463767 0.4420289855072463 0.1666666666666667 0.1666666666666667 0.1666666666666667 0.1666666666666667 0.1666666666666667 0.1666666666666667 0.005208333333333333 0.9739583333333334 0.005208333333333333 0.005208333333333333 0.005208333333333333 0.005208333333333333 0.1666666666666667 0.1666666666666667 0.1666666666666667 0.1666666666666667 0.1666666666666667 0.1666666666666667 0.1666666666666667 0.1666666666666667 0.1666666666666667 0.1666666666666667 0.1666666666666667 0.1666666666666667 0.1666666666666667 0.1666666666666667 0.1666666666666667 0.1666666666666667 0.1666666666666667 0.1666666666666667 0.2708333333333333 0.5208333333333334 0.1458333333333333 0.02083333333333333 0.02083333333333333 0.02083333333333333 0.01282051282051282 0.4743589743589744 0.3205128205128205 0.08974358974358976 0.08974358974358976 0.01282051282051282 0.009259259259259257 0.287037037037037 0.1759259259259259 0.2314814814814815 0.2314814814814815 0.06481481481481481 0.008333333333333333 0.008333333333333333 0.1083333333333333 0.2083333333333334 0.3583333333333334 0.3083333333333333 0.005747126436781609 0.005747126436781609 0.005747126436781609 0.005747126436781609 0.1781609195402299 0.7988505747126438 0.4743589743589744 0.4743589743589744 0.01282051282051282 0.01282051282051282 0.01282051282051282 0.01282051282051282 0.005208333333333333 0.6614583333333334 0.3177083333333333 0.005208333333333333 0.005208333333333333 0.005208333333333333 0.02380952380952381 0.02380952380952381 0.8809523809523809 0.02380952380952381 0.02380952380952381 0.02380952380952381 0.007575757575757576 0.007575757575757576 0.2803030303030303 0.6893939393939393 0.007575757575757576 0.007575757575757576 0.002380952380952381 0.002380952380952381 0.002380952380952381 0.0880952380952381 0.0880952380952381 0.8166666666666667 0.9810606060606062 0.003787878787878788 0.003787878787878788 0.003787878787878788 0.003787878787878788 0.003787878787878788 0.001572327044025157 0.992138364779874 0.001572327044025157 0.001572327044025157 0.001572327044025157 0.001572327044025157 0.002688172043010752 0.4865591397849462 0.002688172043010752 0.002688172043010752 0.5026881720430108 0.002688172043010752 0.1666666666666667 0.1666666666666667 0.1666666666666667 0.1666666666666667 0.1666666666666667 0.1666666666666667 0.003875968992248062 0.003875968992248062 0.003875968992248062 0.003875968992248062 0.003875968992248062 0.9806201550387597 0.7222222222222222 0.05555555555555556 0.05555555555555556 0.05555555555555556 0.05555555555555556 0.05555555555555556 0.02083333333333333 0.6458333333333334 0.2708333333333333 0.02083333333333333 0.02083333333333333 0.02083333333333333 0.01515151515151515 0.106060606060606 0.4696969696969697 0.106060606060606 0.01515151515151515 0.2878787878787878 0.01041666666666667 0.01041666666666667 0.2604166666666667 0.6354166666666667 0.07291666666666669 0.01041666666666667 0.009259259259259259 0.009259259259259259 0.009259259259259259 0.06481481481481481 0.06481481481481481 0.8425925925925926 0.1666666666666667 0.1666666666666667 0.1666666666666667 0.1666666666666667 0.1666666666666667 0.1666666666666667 0.005952380952380952 0.9702380952380952 0.005952380952380952 0.005952380952380952 0.005952380952380952 0.005952380952380952 0.007246376811594202 0.2681159420289855 0.4420289855072463 0.007246376811594202 0.2681159420289855 0.007246376811594202 0.002976190476190476 0.002976190476190476 0.002976190476190476 0.4315476190476191 0.2172619047619047 0.3422619047619048 0.007575757575757576 0.007575757575757576 0.007575757575757576 0.007575757575757576 0.007575757575757576 0.9621212121212122 0.1666666666666667 0.1666666666666667 0.1666666666666667 0.1666666666666667 0.1666666666666667 0.1666666666666667 0.1666666666666667 0.1666666666666667 0.1666666666666667 0.1666666666666667 0.1666666666666667 0.1666666666666667 0.002222222222222222 0.4155555555555556 0.5755555555555556 0.002222222222222222 0.002222222222222222 0.002222222222222222 0.0009259259259259261 0.0009259259259259261 0.0009259259259259261 0.7564814814814815 0.0009259259259259261 0.2398148148148148 0.002252252252252252 0.002252252252252252 0.002252252252252252 0.002252252252252252 0.002252252252252252 0.9887387387387389 0.5833333333333334 