<?xml version="1.0" encoding="ISO-8859-1"?>
<!-- This network was created in GeNIe Academic, which can be used for educational and research purposes only -->
<smile version="1.0" id="Unnamed" numsamples="10000" discsamples="10000">
	<nodes>
		<cpt id="VE_PDOF_TR">
			<state id="Front" />
			<state id="Left" />
			<state id="Rear" />
			<state id="Right" />
			<probabilities>0.6259819843637875 0.1811997205121426 0.06496676360614874 0.1278515315179212</probabilities>
		</cpt>
		<cpt id="GV_WGTCDTR">
			<state id="SPassenger_Car" />
			<state id="STruck____10000_lbs__" />
			<state id="STruck____6000_lbs__" />
			<parents>VE_PDOF_TR</parents>
			<probabilities>0.6289883053284664 0.111476464850624 0.2595352298209097 0.7513894678338197 0.06662498263165208 0.1819855495345283 0.7022183473796376 0.08495592366560106 0.2128257289547612 0.6738049524934772 0.07965342391571902 0.2465416235908039</probabilities>
		</cpt>
		<cpt id="GV_CURBWGT">
			<state id="s1_below_1220" />
			<state id="s2_1220_1410" />
			<state id="s3_1410_1520" />
			<state id="s4_1520_1630" />
			<state id="s5_1630_1900" />
			<state id="s6_1900_up" />
			<parents>GV_WGTCDTR</parents>
			<probabilities>0.2440185697841453 0.2296345976388215 0.1933607313755149 0.2090289867480998 0.1128789824671557 0.01107813198626293 0.0004194089559943218 0.0002258355916892502 0.0008065556846044652 3.22622273841786e-05 0.03197186733772099 0.9665440702026068 0.01138472799518992 0.06557655608710428 0.1503542205840065 0.1146707447781873 0.3697095652628552 0.2883041852926568</probabilities>
		</cpt>
		<cpt id="OA_MAIS">
			<state id="s1" />
			<state id="s2" />
			<state id="s3" />
			<probabilities>0.2863491583890421 0.2854993642280722 0.4281514773828858</probabilities>
		</cpt>
		<cpt id="GV_ENERGY">
			<state id="s1_below_210" />
			<state id="s2_210_466" />
			<state id="s3_466_1138" />
			<state id="s4_1138_up" />
			<parents>OA_MAIS</parents>
			<probabilities>0.4110557900290161 0.3075870482722237 0.2168458190451069 0.06451134265365339 0.186602949930551 0.2747040148157947 0.3161088696342351 0.2225841656194193 0.1793873770564107 0.1986614034313942 0.2294910245666652 0.39246019494553</probabilities>
		</cpt>
		<cpt id="GV_DVLAT">
			<state id="s1_below_n10" />
			<state id="s2_n10_0" />
			<state id="s3_0_3" />
			<state id="s4_3_14" />
			<state id="s5_14_up" />
			<parents>GV_ENERGY VE_PDOF_TR</parents>
			<probabilities>0.0300174520069808 0.2524214659685864 0.4476657940663176 0.2596204188481675 0.01027486910994764 0.0001068376068376069 0.0001068376068376069 0.005982905982905983 0.504380341880342 0.489423076923077 0.004298874104401228 0.2038894575230296 0.6112589559877174 0.1742067553735926 0.006345957011258955 0.5371841155234657 0.4613718411552346 0.0001805054151624548 0.001083032490974729 0.0001805054151624548 0.07516429014259146 0.1960570365778054 0.3685306881587105 0.3186856788592685 0.04156230626162431 6.932409012131716e-05 6.932409012131716e-05 6.932409012131716e-05 0.1092547660311958 0.8905372616984402 0.01348713398402839 0.1536823425022182 0.6337178349600709 0.1944986690328305 0.004614019520851818 0.9448717948717947 0.05464743589743589 0.0001602564102564102 0.0001602564102564102 0.0001602564102564102 0.154418372441338 0.1463055416874688 0.304318522216675 0.3099350973539691 0.08502246630054919 6.734006734006735e-05 6.734006734006735e-05 6.734006734006735e-05 0.009494949494949495 0.9903030303030302 0.03475409836065574 0.1773770491803279 0.6380327868852459 0.1298360655737705 0.02 0.9989298454221165 0.0007134363852556479 0.0001189060642092747 0.0001189060642092747 0.0001189060642092747 0.2572657139243709 0.04833691665612749 0.3215125837865183 0.1823953458960415 0.190489439736942 0.0001068376068376069 0.0001068376068376069 0.0001068376068376069 0.0001068376068376069 0.9995726495726497 0.1043835616438356 0.1536986301369863 0.6632876712328767 0.0715068493150685 0.007123287671232877 0.9997076023391813 7.309941520467838e-05 7.309941520467838e-05 7.309941520467838e-05 7.309941520467838e-05</probabilities>
		</cpt>
		<cpt id="GV_SPLIMIT">
			<state id="s1_below_35" />
			<state id="s2_35_40" />
			<state id="s3_40_45" />
			<state id="s4_45_55" />
			<state id="s5_55_up" />
			<probabilities>0.1727197190013975 0.1875627903463384 0.1283604637987688 0.2560184310911357 0.2553385957623598</probabilities>
		</cpt>
		<cpt id="GV_DVLONG">
			<state id="s1_below_n34" />
			<state id="s2_n34_n22" />
			<state id="s3_n22_n15" />
			<state id="s4_n15_n7" />
			<state id="s5_n7_up" />
			<parents>GV_CURBWGT GV_ENERGY GV_SPLIMIT OA_MAIS VE_PDOF_TR</parents>
			<probabilities>0.001162790697674419 0.08255813953488371 0.2918604651162791 0.6058139534883721 0.0186046511627907 0.004444444444444444 0.004444444444444444 0.02666666666666667 0.2266666666666667 0.7377777777777779 0.009523809523809525 0.009523809523809525 0.009523809523809525 0.009523809523809525 0.9619047619047618 0.005000000000000001 0.005000000000000001 0.03 0.155 0.8050000000000002 0.004761904761904762 0.1476190476190476 0.4095238095238095 0.4333333333333333 0.004761904761904762 0.004166666666666667 0.004166666666666667 0.1916666666666667 0.2125 0.5874999999999999 0.2 0.2 0.2 0.2 0.2 0.02857142857142857 0.02857142857142857 0.02857142857142857 0.02857142857142857 0.8857142857142857 0.003278688524590164 0.003278688524590164 0.4950819672131148 0.4950819672131148 0.003278688524590164 0.002702702702702702 0.002702702702702702 0.408108108108108 0.5837837837837837 0.002702702702702702 0.2 0.2 0.2 0.2 0.2 0.2 0.2 0.2 0.2 0.2 0.01176470588235294 0.09197860962566844 0.3700534759358289 0.493048128342246 0.03315508021390375 0.008695652173913044 0.008695652173913044 0.008695652173913044 0.1826086956521739 0.7913043478260869 0.007692307692307693 0.007692307692307693 0.007692307692307693 0.007692307692307693 0.9692307692307692 0.005882352941176471 0.005882352941176471 0.005882352941176471 0.388235294117647 0.5941176470588235 0.1641025641025641 0.3179487179487179 0.2581196581196581 0.2581196581196581 0.001709401709401709 0.007142857142857143 0.007142857142857143 0.007142857142857143 0.2214285714285714 0.7571428571428571 0.02857142857142857 0.02857142857142857 0.02857142857142857 0.02857142857142857 0.8857142857142857 0.2 0.2 0.2 0.2 0.2 0.001190476190476191 0.001190476190476191 0.001190476190476191 0.9952380952380954 0.001190476190476191 0.2 0.2 0.2 0.2 0.2 0.2 0.2 0.2 0.2 0.2 0.2 0.2 0.2 0.2 0.2 0.002083333333333333 0.10625 0.3979166666666666 0.4916666666666666 0.002083333333333333 0.03333333333333333 0.03333333333333333 0.03333333333333333 0.2 0.7 0.02222222222222222 0.02222222222222222 0.02222222222222222 0.02222222222222222 0.911111111111111 0.02 0.02 0.02 0.42 0.52 0.01111111111111111 0.01111111111111111 0.6777777777777779 0.288888888888889 0.01111111111111111 0.02857142857142857 0.02857142857142857 0.8857142857142857 0.02857142857142857 0.02857142857142857 0.01666666666666667 0.01666666666666667 0.01666666666666667 0.01666666666666667 0.9333333333333332 0.2 0.2 0.2 0.2 0.2 0.004545454545454545 0.9818181818181818 0.004545454545454545 0.004545454545454545 0.004545454545454545 0.2 0.2 0.2 0.2 0.2 0.2 0.2 0.2 0.2 0.2 0.2 0.2 0.2 0.2 0.2 0.001298701298701299 0.1051948051948052 0.4753246753246754 0.3844155844155844 0.03376623376623377 0.01333333333333333 0.01333333333333333 0.01333333333333333 0.1466666666666667 0.8133333333333332 0.008 0.008 0.008 0.008 0.968 0.008 0.008 0.048 0.288 0.648 0.003773584905660377 0.230188679245283 0.3433962264150943 0.4188679245283018 0.003773584905660377 0.02 0.02 0.02 0.02 0.9199999999999999 0.2 0.2 0.2 0.2 0.2 0.03333333333333333 0.03333333333333333 0.03333333333333333 0.8666666666666665 0.03333333333333333 0.004545454545454546 0.004545454545454546 0.004545454545454546 0.004545454545454546 0.9818181818181819 0.2 0.2 0.2 0.2 0.2 0.2 0.2 0.2 0.2 0.2 0.2 0.2 0.2 0.2 0.2 0.01111111111111111 0.1314814814814815 0.4462962962962963 0.362962962962963 0.04814814814814815 0.01538461538461539 0.01538461538461539 0.09230769230769231 0.1692307692307692 0.7076923076923077 0.01111111111111111 0.01111111111111111 0.01111111111111111 0.01111111111111111 0.9555555555555555 0.02857142857142857 0.02857142857142857 0.02857142857142857 0.02857142857142857 0.8857142857142857 0.004545454545454546 0.3681818181818182 0.3681818181818182 0.2545454545454545 0.004545454545454546 0.02857142857142857 0.02857142857142857 0.02857142857142857 0.02857142857142857 0.8857142857142857 0.2 0.2 0.2 0.2 0.2 0.2 0.2 0.2 0.2 0.2 0.002666666666666666 0.4159999999999999 0.576 0.002666666666666666 0.002666666666666666 0.00145985401459854 0.00145985401459854 0.00145985401459854 0.7678832116788321 0.2277372262773723 0.2 0.2 0.2 0.2 0.2 0.2 0.2 0.2 0.2 0.2 0.0247191011235955 0.4292134831460674 0.4741573033707865 0.0696629213483146 0.002247191011235955 0.006666666666666667 0.04 0.04 0.24 0.6733333333333333 0.02 0.02 0.02 0.02 0.9199999999999999 0.00625 0.00625 0.0375 0.38125 0.56875 0.1626666666666666 0.4026666666666666 0.4293333333333333 0.002666666666666666 0.002666666666666666 0.002666666666666667 0.002666666666666667 0.1226666666666667 0.3493333333333333 0.5226666666666667 0.02857142857142857 0.02857142857142857 0.02857142857142857 0.02857142857142857 0.8857142857142857 0.005882352941176471 0.005882352941176471 0.2705882352941176 0.2705882352941176 0.4470588235294117 0.2 0.2 0.2 0.2 0.2 0.001724137931034483 0.001724137931034483 0.001724137931034483 0.3637931034482759 0.6310344827586207 0.2 0.2 0.2 0.2 0.2 0.2 0.2 0.2 0.2 0.2 0.06545454545454546 0.4836363636363636 0.3836363636363637 0.06545454545454546 0.001818181818181818 0.006250000000000002 0.006250000000000002 0.1 0.4125000000000001 0.4750000000000001 0.0125 0.0125 0.0125 0.0125 0.95 0.008695652173913045 0.008695652173913045 0.05217391304347826 0.6608695652173914 0.2695652173913044 0.001869158878504673 0.5158878504672897 0.4224299065420561 0.05794392523364485 0.001869158878504673 0.003448275862068965 0.003448275862068965 0.1758620689655172 0.4517241379310344 0.3655172413793104 0.2 0.2 0.2 0.2 0.2 0.01538461538461539 0.01538461538461539 0.01538461538461539 0.9384615384615385 0.01538461538461539 0.002666666666666666 0.4159999999999999 0.576 0.002666666666666666 0.002666666666666666 0.003225806451612903 0.003225806451612903 0.003225806451612903 0.5032258064516129 0.4870967741935484 0.2 0.2 0.2 0.2 0.2 0.00625 0.00625 0.00625 0.00625 0.975 0.065625 0.565625 0.315625 0.05 0.003125 0.04000000000000001 0.04000000000000001 0.04000000000000001 0.4400000000000001 0.4400000000000001 0.01818181818181818 0.01818181818181818 0.01818181818181818 0.01818181818181818 0.9272727272727272 0.03333333333333333 0.03333333333333333 0.03333333333333333 0.3666666666666667 0.5333333333333333 0.1178294573643411 0.4511627906976745 0.2883720930232558 0.1410852713178294 0.001550387596899225 0.007692307692307693 0.3923076923076923 0.007692307692307693 0.2384615384615385 0.3538461538461539 0.01818181818181818 0.01818181818181818 0.01818181818181818 0.01818181818181818 0.9272727272727272 0.02857142857142857 0.02857142857142857 0.8857142857142857 0.02857142857142857 0.02857142857142857 0.2 0.2 0.2 0.2 0.2 0.002666666666666667 0.002666666666666667 0.002666666666666667 0.002666666666666667 0.9893333333333334 0.2 0.2 0.2 0.2 0.2 0.004545454545454545 0.9818181818181818 0.004545454545454545 0.004545454545454545 0.004545454545454545 0.06526315789473683 0.4757894736842105 0.3389473684210526 0.1073684210526316 0.01263157894736842 0.01052631578947368 0.01052631578947368 0.01052631578947368 0.3789473684210526 0.5894736842105263 0.01111111111111111 0.01111111111111111 0.01111111111111111 0.01111111111111111 0.9555555555555555 0.01111111111111111 0.01111111111111111 0.1777777777777778 0.4 0.4 0.1606060606060606 0.6378787878787879 0.1984848484848485 0.001515151515151515 0.001515151515151515 0.004347826086956522 0.004347826086956522 0.2652173913043478 0.3304347826086956 0.3956521739130435 0.2 0.2 0.2 0.2 0.2 0.006451612903225808 0.2 0.2 0.3935483870967743 0.2 0.4952380952380952 0.003174603174603175 0.003174603174603175 0.4952380952380952 0.003174603174603175 0.004545454545454545 0.004545454545454545 0.004545454545454545 0.9818181818181818 0.004545454545454545 0.2 0.2 0.2 0.2 0.2 0.2 0.2 0.2 0.2 0.2 0.04776119402985074 0.5999999999999999 0.2417910447761193 0.0925373134328358 0.01791044776119402 0.02 0.02 0.12 0.3200000000000001 0.52 0.0125 0.0125 0.0125 0.0125 0.95 0.01428571428571429 0.01428571428571429 0.01428571428571429 0.7285714285714284 0.2285714285714286 0.1781512605042017 0.7663865546218487 0.05210084033613446 0.001680672268907563 0.001680672268907563 0.009090909090909092 0.009090909090909092 0.009090909090909092 0.9636363636363637 0.009090909090909092 0.009090909090909092 0.009090909090909092 0.009090909090909092 0.009090909090909092 0.9636363636363636 0.01176470588235294 0.01176470588235294 0.01176470588235294 0.6 0.3647058823529412 0.2294117647058823 0.7661764705882353 0.001470588235294118 0.001470588235294118 0.001470588235294118 0.001886792452830189 0.001886792452830189 0.001886792452830189 0.001886792452830189 0.9924528301886792 0.001342281879194631 0.001342281879194631 0.001342281879194631 0.001342281879194631 0.9946308724832214 0.2 0.2 0.2 0.2 0.2 0.3056603773584906 0.5509433962264151 0.1358490566037736 0.003773584905660377 0.003773584905660377 0.09230769230769231 0.09230769230769231 0.1692307692307692 0.5538461538461539 0.09230769230769231 0.025 0.025 0.025 0.025 0.9 0.01666666666666667 0.09999999999999999 0.1833333333333333 0.5166666666666666 0.1833333333333333 0.6149253731343283 0.3761194029850745 0.002985074626865671 0.002985074626865671 0.002985074626865671 0.009090909090909092 0.009090909090909092 0.4181818181818182 0.2818181818181819 0.2818181818181819 0.2 0.2 0.2 0.2 0.2 0.006451612903225806 0.006451612903225806 0.006451612903225806 0.2967741935483871 0.6838709677419355 0.2 0.2 0.2 0.2 0.2 0.001886792452830188 0.001886792452830188 0.2943396226415094 0.6999999999999998 0.001886792452830188 0.2 0.2 0.2 0.2 0.2 0.002298850574712643 0.002298850574712643 0.496551724137931 0.496551724137931 0.002298850574712643 0.3433962264150943 0.4943396226415094 0.1547169811320755 0.003773584905660377 0.003773584905660377 0.01111111111111111 0.01111111111111111 0.1777777777777778 0.2888888888888889 0.5111111111111111 0.01111111111111111 0.01111111111111111 0.01111111111111111 0.01111111111111111 0.9555555555555555 0.01538461538461539 0.01538461538461539 0.1692307692307692 0.2461538461538462 0.5538461538461539 0.4169491525423728 0.4508474576271186 0.1288135593220339 0.001694915254237288 0.001694915254237288 0.003846153846153846 0.003846153846153846 0.1769230769230769 0.4461538461538462 0.3692307692307693 0.2 0.2 0.2 0.2 0.2 0.009523809523809526 0.009523809523809526 0.009523809523809526 0.9619047619047622 0.009523809523809526 0.2 0.2 0.2 0.2 0.2 0.2 0.2 0.2 0.2 0.2 0.2 0.2 0.2 0.2 0.2 0.003174603174603175 0.003174603174603175 0.4952380952380952 0.003174603174603175 0.4952380952380952 0.388235294117647 0.4470588235294117 0.1235294117647059 0.03529411764705882 0.005882352941176471 0.06666666666666665 0.06666666666666665 0.7333333333333333 0.06666666666666665 0.06666666666666665 0.01428571428571429 0.01428571428571429 0.01428571428571429 0.01428571428571429 0.9428571428571427 0.03999999999999999 0.03999999999999999 0.4399999999999999 0.4399999999999999 0.03999999999999999 0.448780487804878 0.497560975609756 0.05040650406504064 0.001626016260162602 0.001626016260162602 0.02857142857142857 0.02857142857142857 0.02857142857142857 0.02857142857142857 0.8857142857142857 0.2 0.2 0.2 0.2 0.2 0.02857142857142857 0.02857142857142857 0.02857142857142857 0.8857142857142857 0.02857142857142857 0.9891891891891891 0.002702702702702702 0.002702702702702702 0.002702702702702702 0.002702702702702702 0.2 0.2 0.2 0.2 0.2 0.2 0.2 0.2 0.2 0.2 0.004651162790697673 0.004651162790697673 0.9813953488372092 0.004651162790697673 0.004651162790697673 0.5470588235294117 0.3558823529411764 0.09117647058823528 0.002941176470588235 0.002941176470588235 0.03999999999999999 0.03999999999999999 0.2399999999999999 0.6399999999999999 0.03999999999999999 0.0125 0.0125 0.0125 0.0125 0.95 0.01666666666666667 0.1833333333333333 0.1833333333333333 0.35 0.2666666666666667 0.5528301886792453 0.3971698113207547 0.04811320754716981 0.0009433962264150943 0.0009433962264150943 0.004761904761904762 0.004761904761904762 0.6238095238095237 0.3619047619047618 0.004761904761904762 0.02857142857142857 0.02857142857142857 0.02857142857142857 0.02857142857142857 0.8857142857142857 0.005405405405405406 0.3297297297297297 0.1675675675675676 0.4918918918918919 0.005405405405405406 0.6942307692307692 0.2999999999999999 0.001923076923076923 0.001923076923076923 0.001923076923076923 0.001904761904761905 0.4114285714285714 0.2876190476190476 0.2971428571428571 0.001904761904761905 0.2 0.2 0.2 0.2 0.2 0.2 0.2 0.2 0.2 0.2 0.4909090909090909 0.4606060606060606 0.03636363636363636 0.006060606060606061 0.006060606060606061 0.06666666666666665 0.06666666666666665 0.06666666666666665 0.7333333333333333 0.06666666666666665 0.009090909090909092 0.009090909090909092 0.009090909090909092 0.009090909090909092 0.9636363636363636 0.03333333333333333 0.03333333333333333 0.03333333333333333 0.6999999999999998 0.2 0.5241379310344828 0.3574712643678161 0.1160919540229885 0.001149425287356322 0.001149425287356322 0.005263157894736842 0.1368421052631579 0.2684210526315789 0.1631578947368421 0.4263157894736841 0.01818181818181818 0.01818181818181818 0.01818181818181818 0.01818181818181818 0.9272727272727272 0.01818181818181818 0.01818181818181818 0.9272727272727274 0.01818181818181818 0.01818181818181818 0.9750000000000002 0.006250000000000002 0.006250000000000002 0.006250000000000002 0.006250000000000002 0.001351351351351351 0.001351351351351351 0.2918918918918919 0.2040540540540541 0.5013513513513514 0.2 0.2 0.2 0.2 0.2 0.002666666666666667 0.002666666666666667 0.002666666666666667 0.002666666666666667 0.9893333333333334 0.9 0.025 0.025 0.025 0.025 0.02857142857142857 0.1714285714285714 0.02857142857142857 0.4571428571428571 0.3142857142857143 0.03333333333333333 0.03333333333333333 0.03333333333333333 0.03333333333333333 0.8666666666666667 0.6000000000000001 0.1 0.1 0.1 0.1 0.9757575757575756 0.00606060606060606 0.00606060606060606 0.00606060606060606 0.00606060606060606 0.005555555555555556 0.5333333333333333 0.2833333333333333 0.1722222222222222 0.005555555555555556 0.2 0.2 0.2 0.2 0.2 0.02 0.02 0.9200000000000002 0.02 0.02 0.9890410958904108 0.00273972602739726 0.00273972602739726 0.00273972602739726 0.00273972602739726 0.00111731843575419 0.9955307262569834 0.00111731843575419 0.00111731843575419 0.00111731843575419 0.2 0.2 0.2 0.2 0.2 0.001904761904761905 0.001904761904761905 0.001904761904761905 0.001904761904761905 0.9923809523809525 0.9200000000000002 0.02 0.02 0.02 0.02 0.2 0.2 0.2 0.2 0.2 0.2 0.2 0.2 0.2 0.2 0.1 0.1 0.1 0.1 0.6 0.826470588235294 0.1647058823529411 0.002941176470588235 0.002941176470588235 0.002941176470588235 0.3090909090909091 0.006060606060606061 0.006060606060606061 0.4909090909090909 0.1878787878787879 0.01176470588235294 0.01176470588235294 0.01176470588235294 0.01176470588235294 0.9529411764705882 0.9200000000000002 0.02 0.02 0.02 0.02 0.992452830188679 0.001886792452830188 0.001886792452830188 0.001886792452830188 0.001886792452830188 0.003278688524590164 0.4950819672131148 0.003278688524590164 0.4950819672131148 0.003278688524590164 0.00625 0.00625 0.00625 0.00625 0.975 0.001886792452830188 0.001886792452830188 0.2943396226415094 0.4075471698113207 0.2943396226415094 0.6399999999999999 0.2399999999999999 0.03999999999999999 0.03999999999999999 0.03999999999999999 0.06666666666666665 0.06666666666666665 0.7333333333333333 0.06666666666666665 0.06666666666666665 0.05 0.05 0.05 0.05 0.8 0.03999999999999999 0.4399999999999999 0.03999999999999999 0.4399999999999999 0.03999999999999999 0.9829787234042552 0.004255319148936169 0.004255319148936169 0.004255319148936169 0.004255319148936169 0.2 0.2 0.2 0.2 0.2 0.2 0.2 0.2 0.2 0.2 0.0125 0.3875000000000001 0.5750000000000001 0.0125 0.0125 0.9818181818181818 0.004545454545454545 0.004545454545454545 0.004545454545454545 0.004545454545454545 0.2 0.2 0.2 0.2 0.2 0.2 0.2 0.2 0.2 0.2 0.001470588235294118 0.9941176470588237 0.001470588235294118 0.001470588235294118 0.001470588235294118 0.7200000000000001 0.22 0.02 0.02 0.02 0.06666666666666665 0.06666666666666665 0.06666666666666665 0.7333333333333333 0.06666666666666665 0.01818181818181818 0.01818181818181818 0.01818181818181818 0.01818181818181818 0.9272727272727272 0.03333333333333333 0.2 0.03333333333333333 0.3666666666666667 0.3666666666666667 0.8682926829268293 0.124390243902439 0.002439024390243902 0.002439024390243902 0.002439024390243902 0.2 0.2 0.2 0.2 0.2 0.2 0.2 0.2 0.2 0.2 0.01818181818181818 0.01818181818181818 0.01818181818181818 0.9272727272727274 0.01818181818181818 0.9935999999999998 0.0016 0.0016 0.0016 0.0016 0.006451612903225806 0.006451612903225806 0.006451612903225806 0.006451612903225806 0.9741935483870967 0.2 0.2 0.2 0.2 0.2 0.992452830188679 0.001886792452830188 0.001886792452830188 0.001886792452830188 0.001886792452830188 0.8 0.05 0.05 0.05 0.05 0.04000000000000001 0.04000000000000001 0.04000000000000001 0.04000000000000001 0.8400000000000001 0.025 0.025 0.025 0.025 0.9 0.05 0.05 0.3 0.05 0.55 0.8162162162162162 0.1675675675675676 0.005405405405405406 0.005405405405405406 0.005405405405405406 0.01818181818181818 0.01818181818181818 0.9272727272727274 0.01818181818181818 0.01818181818181818 0.0125 0.0125 0.0125 0.0125 0.95 0.01176470588235294 0.01176470588235294 0.3647058823529412 0.01176470588235294 0.6 0.583464566929134 0.4141732283464568 0.0007874015748031498 0.0007874015748031498 0.0007874015748031498 0.004545454545454545 0.004545454545454545 0.004545454545454545 0.9818181818181818 0.004545454545454545 0.002325581395348837 0.002325581395348837 0.002325581395348837 0.002325581395348837 0.9906976744186047 0.4950819672131148 0.4950819672131148 0.003278688524590164 0.003278688524590164 0.003278688524590164 0.001162790697674419 0.05930232558139534 0.2918604651162791 0.5709302325581396 0.07674418604651162 0.00392156862745098 0.00392156862745098 0.02352941176470588 0.1803921568627451 0.7882352941176471 0.01428571428571429 0.01428571428571429 0.01428571428571429 0.01428571428571429 0.9428571428571427 0.006896551724137931 0.006896551724137931 0.006896551724137931 0.3172413793103448 0.6620689655172414 0.001724137931034483 0.1310344827586206 0.1568965517241379 0.7086206896551723 0.001724137931034483 0.01818181818181818 0.01818181818181818 0.01818181818181818 0.9272727272727274 0.01818181818181818 0.02857142857142857 0.02857142857142857 0.02857142857142857 0.02857142857142857 0.8857142857142857 0.02857142857142857 0.02857142857142857 0.02857142857142857 0.8857142857142857 0.02857142857142857 0.006250000000000002 0.006250000000000002 0.006250000000000002 0.9750000000000002 0.006250000000000002 0.2 0.2 0.2 0.2 0.2 0.2 0.2 0.2 0.2 0.2 0.2 0.2 0.2 0.2 0.2 0.001081081081081081 0.05513513513513513 0.2497297297297298 0.6389189189189189 0.05513513513513513 0.00625 0.00625 0.00625 0.19375 0.7875 0.01333333333333333 0.01333333333333333 0.01333333333333333 0.01333333333333333 0.9466666666666667 0.006060606060606061 0.006060606060606061 0.006060606060606061 0.4909090909090909 0.4909090909090909 0.001904761904761905 0.001904761904761905 0.5161904761904762 0.420952380952381 0.05904761904761904 0.02857142857142857 0.02857142857142857 0.02857142857142857 0.02857142857142857 0.8857142857142857 0.02857142857142857 0.02857142857142857 0.02857142857142857 0.02857142857142857 0.8857142857142857 0.008 0.008 0.008 0.488 0.488 0.0009478672985781992 0.0009478672985781992 0.9962085308056873 0.0009478672985781992 0.0009478672985781992 0.001886792452830188 0.001886792452830188 0.001886792452830188 0.992452830188679 0.001886792452830188 0.2 0.2 0.2 0.2 0.2 0.2 0.2 0.2 0.2 0.2 0.002040816326530612 0.05306122448979592 0.3081632653061224 0.573469387755102 0.06326530612244897 0.02222222222222222 0.02222222222222222 0.1333333333333333 0.2444444444444445 0.5777777777777777 0.01666666666666667 0.01666666666666667 0.01666666666666667 0.01666666666666667 0.9333333333333332 0.009523809523809525 0.009523809523809525 0.009523809523809525 0.2952380952380952 0.6761904761904761 0.004545454545454546 0.6409090909090909 0.1409090909090909 0.2090909090909091 0.004545454545454546 0.01538461538461539 0.01538461538461539 0.01538461538461539 0.4769230769230769 0.4769230769230769 0.2 0.2 0.2 0.2 0.2 0.2 0.2 0.2 0.2 0.2 0.004651162790697673 0.004651162790697673 0.9813953488372092 0.004651162790697673 0.004651162790697673 0.2 0.2 0.2 0.2 0.2 0.2 0.2 0.2 0.2 0.2 0.2 0.2 0.2 0.2 0.2 0.001183431952662722 0.06627218934911241 0.3325443786982248 0.557396449704142 0.04260355029585799 0.02857142857142857 0.02857142857142857 0.1714285714285714 0.02857142857142857 0.7428571428571429 0.006896551724137931 0.006896551724137931 0.006896551724137931 0.006896551724137931 0.9724137931034482 0.009090909090909092 0.009090909090909092 0.009090909090909092 0.3272727272727273 0.6454545454545454 0.003174603174603175 0.1619047619047619 0.2888888888888889 0.5428571428571429 0.003174603174603175 0.2 0.2 0.2 0.2 0.2 0.02857142857142857 0.02857142857142857 0.02857142857142857 0.02857142857142857 0.8857142857142857 0.02857142857142857 0.02857142857142857 0.02857142857142857 0.02857142857142857 0.8857142857142857 0.004545454545454545 0.9818181818181818 0.004545454545454545 0.004545454545454545 0.004545454545454545 0.00625 0.00625 0.00625 0.00625 0.975 0.2 0.2 0.2 0.2 0.2 0.00625 0.00625 0.00625 0.00625 0.975 0.04827586206896551 0.08275862068965516 0.3816091954022988 0.4505747126436781 0.03678160919540229 0.01666666666666667 0.01666666666666667 0.01666666666666667 0.01666666666666667 0.9333333333333332 0.009523809523809525 0.009523809523809525 0.009523809523809525 0.009523809523809525 0.9619047619047618 0.02857142857142857 0.02857142857142857 0.02857142857142857 0.1714285714285714 0.7428571428571429 0.002702702702702702 0.2189189189189189 0.1513513513513513 0.6243243243243243 0.002702702702702702 0.009090909090909092 0.009090909090909092 0.009090909090909092 0.2818181818181819 0.6909090909090909 0.01052631578947368 0.01052631578947368 0.01052631578947368 0.01052631578947368 0.9578947368421051 0.01176470588235294 0.01176470588235294 0.01176470588235294 0.9529411764705884 0.01176470588235294 0.003225806451612903 0.003225806451612903 0.4870967741935484 0.5032258064516129 0.003225806451612903 0.2 0.2 0.2 0.2 0.2 0.004651162790697674 0.004651162790697674 0.004651162790697674 0.004651162790697674 0.9813953488372094 0.00625 0.00625 0.00625 0.00625 0.975 0.06666666666666667 0.323076923076923 0.3871794871794871 0.2205128205128205 0.002564102564102564 0.005000000000000001 0.005000000000000001 0.08000000000000002 0.405 0.505 0.01428571428571429 0.01428571428571429 0.01428571428571429 0.01428571428571429 0.9428571428571427 0.007692307692307693 0.007692307692307693 0.04615384615384616 0.6615384615384615 0.2769230769230769 0.124 0.624 0.244 0.004 0.004 0.003389830508474577 0.003389830508474577 0.003389830508474577 0.5627118644067797 0.4271186440677966 0.2 0.2 0.2 0.2 0.2 0.006896551724137933 0.2137931034482759 0.006896551724137933 0.7655172413793104 0.006896551724137933 0.004545454545454545 0.004545454545454545 0.9818181818181818 0.004545454545454545 0.004545454545454545 0.002298850574712644 0.002298850574712644 0.002298850574712644 0.002298850574712644 0.9908045977011495 0.00625 0.00625 0.00625 0.00625 0.975 0.2 0.2 0.2 0.2 0.2 0.0110091743119266 0.4146788990825688 0.4513761467889908 0.1211009174311926 0.001834862385321101 0.006666666666666668 0.006666666666666668 0.04000000000000001 0.5066666666666667 0.4400000000000001 0.007407407407407408 0.007407407407407408 0.007407407407407408 0.007407407407407408 0.9703703703703703 0.007142857142857144 0.007142857142857144 0.1142857142857143 0.6857142857142858 0.1857142857142857 0.001923076923076923 0.3192307692307692 0.5019230769230769 0.175 0.001923076923076923 0.0125 0.0125 0.0125 0.3875 0.575 0.2 0.2 0.2 0.2 0.2 0.009523809523809526 0.009523809523809526 0.4380952380952381 0.5333333333333334 0.009523809523809526 0.2 0.2 0.2 0.2 0.2 0.002298850574712644 0.002298850574712644 0.002298850574712644 0.4965517241379311 0.4965517241379311 0.2 0.2 0.2 0.2 0.2 0.2 0.2 0.2 0.2 0.2 0.09393939393939395 0.4272727272727272 0.3212121212121212 0.1545454545454545 0.003030303030303031 0.02857142857142857 0.02857142857142857 0.02857142857142857 0.1714285714285714 0.7428571428571429 0.01818181818181818 0.01818181818181818 0.01818181818181818 0.01818181818181818 0.9272727272727272 0.02857142857142857 0.02857142857142857 0.02857142857142857 0.6 0.3142857142857143 0.1214285714285714 0.6214285714285713 0.1809523809523809 0.0738095238095238 0.002380952380952381 0.006451612903225808 0.006451612903225808 0.2967741935483871 0.4903225806451614 0.2 0.2 0.2 0.2 0.2 0.2 0.2 0.2 0.2 0.2 0.2 0.002702702702702702 0.4216216216216215 0.5702702702702702 0.002702702702702702 0.002702702702702702 0.2 0.2 0.2 0.2 0.2 0.2 0.2 0.2 0.2 0.2 0.004545454545454546 0.004545454545454546 0.004545454545454546 0.004545454545454546 0.9818181818181819 0.08159999999999998 0.3056 0.4735999999999999 0.1216 0.0176 0.0125 0.0125 0.075 0.2625 0.6375 0.0125 0.0125 0.0125 0.0125 0.95 0.01111111111111111 0.01111111111111111 0.1222222222222222 0.5666666666666665 0.2888888888888889 0.2 0.004347826086956522 0.5260869565217391 0.2652173913043478 0.004347826086956522 0.007692307692307693 0.3538461538461539 0.007692307692307693 0.2384615384615385 0.3923076923076923 0.009090909090909092 0.009090909090909092 0.009090909090909092 0.009090909090909092 0.9636363636363636 0.009090909090909092 0.009090909090909092 0.2818181818181819 0.690909090909091 0.009090909090909092 0.00111731843575419 0.4089385474860335 0.587709497206704 0.00111731843575419 0.00111731843575419 0.003225806451612903 0.4870967741935484 0.003225806451612903 0.5032258064516129 0.003225806451612903 0.2 0.2 0.2 0.2 0.2 0.004651162790697673 0.004651162790697673 0.004651162790697673 0.9813953488372092 0.004651162790697673 0.1016393442622951 0.4950819672131148 0.3311475409836065 0.06885245901639345 0.003278688524590164 0.01818181818181818 0.1090909090909091 0.01818181818181818 0.1090909090909091 0.7454545454545454 0.006896551724137931 0.006896551724137931 0.006896551724137931 0.006896551724137931 0.9724137931034482 0.01666666666666667 0.09999999999999999 0.01666666666666667 0.4333333333333333 0.4333333333333333 0.3511627906976744 0.3627906976744186 0.2813953488372093 0.002325581395348837 0.002325581395348837 0.00392156862745098 0.00392156862745098 0.00392156862745098 0.4941176470588235 0.4941176470588235 0.01538461538461539 0.01538461538461539 0.01538461538461539 0.01538461538461539 0.9384615384615385 0.2 0.2 0.2 0.2 0.2 0.006250000000000002 0.006250000000000002 0.006250000000000002 0.9750000000000002 0.006250000000000002 0.002702702702702703 0.002702702702702703 0.5837837837837838 0.002702702702702703 0.4081081081081081 0.2 0.2 0.2 0.2 0.2 0.2 0.2 0.2 0.2 0.2 0.2081632653061224 0.5959183673469387 0.1265306122448979 0.06530612244897958 0.004081632653061224 0.01176470588235294 0.01176470588235294 0.3647058823529412 0.3647058823529412 0.2470588235294118 0.01666666666666667 0.01666666666666667 0.01666666666666667 0.01666666666666667 0.9333333333333332 0.009090909090909092 0.1 0.1 0.3727272727272727 0.4181818181818182 0.5162790697674419 0.4697674418604651 0.004651162790697674 0.004651162790697674 0.004651162790697674 0.003773584905660377 0.003773584905660377 0.5132075471698113 0.4754716981132075 0.003773584905660377 0.2 0.2 0.2 0.2 0.2 0.01052631578947368 0.01052631578947368 0.3263157894736842 0.3263157894736842 0.3263157894736842 0.2277372262773723 0.7678832116788321 0.00145985401459854 0.00145985401459854 0.00145985401459854 0.004545454545454545 0.004545454545454545 0.004545454545454545 0.9818181818181818 0.004545454545454545 0.2 0.2 0.2 0.2 0.2 0.2 0.2 0.2 0.2 0.2 0.2399999999999999 0.5774999999999999 0.165 0.015 0.0025 0.01666666666666667 0.01666666666666667 0.2666666666666667 0.5166666666666666 0.1833333333333333 0.01538461538461539 0.01538461538461539 0.01538461538461539 0.01538461538461539 0.9384615384615385 0.01 0.06000000000000001 0.21 0.6100000000000001 0.11 0.4649999999999999 0.5275 0.0025 0.0025 0.0025 0.006250000000000002 0.006250000000000002 0.006250000000000002 0.9750000000000002 0.006250000000000002 0.02857142857142857 0.02857142857142857 0.02857142857142857 0.02857142857142857 0.8857142857142857 0.005128205128205128 0.005128205128205128 0.3128205128205128 0.6717948717948717 0.005128205128205128 0.2237037037037037 0.7718518518518519 0.001481481481481482 0.001481481481481482 0.001481481481481482 0.001351351351351351 0.001351351351351351 0.2040540540540541 0.5013513513513514 0.2918918918918919 0.2 0.2 0.2 0.2 0.2 0.006250000000000002 0.006250000000000002 0.006250000000000002 0.9750000000000002 0.006250000000000002 0.23 0.53 0.23 0.005000000000000001 0.005000000000000001 0.02857142857142857 0.02857142857142857 0.1714285714285714 0.7428571428571429 0.02857142857142857 0.025 0.025 0.025 0.025 0.9 0.01666666666666667 0.01666666666666667 0.09999999999999999 0.5166666666666666 0.35 0.2757575757575757 0.7151515151515151 0.00303030303030303 0.00303030303030303 0.00303030303030303 0.2 0.2 0.2 0.2 0.2 0.2 0.2 0.2 0.2 0.2 0.2 0.2 0.2 0.2 0.2 0.2 0.2 0.2 0.2 0.2 0.002702702702702702 0.002702702702702702 0.4216216216216215 0.5702702702702702 0.002702702702702702 0.00625 0.00625 0.00625 0.00625 0.975 0.006250000000000002 0.006250000000000002 0.9750000000000002 0.006250000000000002 0.006250000000000002 0.3184210526315789 0.4105263157894736 0.2657894736842105 0.002631578947368421 0.002631578947368421 0.025 0.025 0.15 0.65 0.15 0.008695652173913044 0.008695652173913044 0.008695652173913044 0.008695652173913044 0.9652173913043478 0.01666666666666667 0.01666666666666667 0.1 0.7666666666666667 0.1 0.4815789473684211 0.5144736842105263 0.00131578947368421 0.00131578947368421 0.00131578947368421 0.1405405405405405 0.005405405405405406 0.3297297297297297 0.005405405405405406 0.5189189189189189 0.02 0.02 0.02 0.02 0.9199999999999999 0.006896551724137933 0.3172413793103449 0.3172413793103449 0.3517241379310345 0.006896551724137933 0.7706806282722515 0.2261780104712043 0.001047120418848168 0.001047120418848168 0.001047120418848168 0.003174603174603175 0.003174603174603175 0.003174603174603175 0.4952380952380952 0.4952380952380952 0.2 0.2 0.2 0.2 0.2 0.001886792452830188 0.001886792452830188 0.992452830188679 0.001886792452830188 0.001886792452830188 0.5377777777777778 0.2711111111111111 0.16 0.02666666666666667 0.004444444444444444 0.025 0.025 0.4 0.025 0.525 0.01538461538461539 0.01538461538461539 0.01538461538461539 0.01538461538461539 0.9384615384615385 0.05 0.05 0.3 0.3 0.3 0.4382978723404255 0.5553191489361702 0.002127659574468085 0.002127659574468085 0.002127659574468085 0.009090909090909092 0.009090909090909092 0.2818181818181819 0.4181818181818182 0.2818181818181819 0.02857142857142857 0.02857142857142857 0.02857142857142857 0.02857142857142857 0.8857142857142857 0.2 0.2 0.2 0.2 0.2 0.9813953488372092 0.004651162790697673 0.004651162790697673 0.004651162790697673 0.004651162790697673 0.2 0.2 0.2 0.2 0.2 0.2 0.2 0.2 0.2 0.2 0.00625 0.00625 0.00625 0.00625 0.975 0.7428571428571429 0.1714285714285714 0.02857142857142857 0.02857142857142857 0.02857142857142857 0.04000000000000001 0.04000000000000001 0.24 0.24 0.4400000000000001 0.2 0.2 0.2 0.2 0.2 0.02222222222222222 0.3555555555555556 0.1333333333333333 0.02222222222222222 0.4666666666666667 0.811111111111111 0.1722222222222222 0.005555555555555556 0.005555555555555556 0.005555555555555556 0.008 0.008 0.008 0.408 0.5679999999999999 0.2 0.2 0.2 0.2 0.2 0.01818181818181818 0.01818181818181818 0.01818181818181818 0.9272727272727274 0.01818181818181818 0.992452830188679 0.001886792452830188 0.001886792452830188 0.001886792452830188 0.001886792452830188 0.00273972602739726 0.00273972602739726 0.00273972602739726 0.5780821917808219 0.4136986301369863 0.001886792452830189 0.001886792452830189 0.001886792452830189 0.001886792452830189 0.9924528301886792 0.00170940170940171 0.00170940170940171 0.3692307692307693 0.00170940170940171 0.6256410256410257 0.8000000000000002 0.1157894736842106 0.06315789473684212 0.01052631578947369 0.01052631578947369 0.3 0.05 0.3 0.05 0.3 0.05 0.05 0.05 0.05 0.8 0.3 0.05 0.05 0.3 0.3 0.8911111111111111 0.1022222222222222 0.002222222222222222 0.002222222222222222 0.002222222222222222 0.008695652173913044 0.5304347826086956 0.008695652173913044 0.008695652173913044 0.4434782608695652 0.02857142857142857 0.02857142857142857 0.02857142857142857 0.02857142857142857 0.8857142857142857 0.0125 0.0125 0.575 0.0125 0.3875 0.994160583941606 0.00145985401459854 0.00145985401459854 0.00145985401459854 0.00145985401459854 0.2 0.2 0.2 0.2 0.2 0.2 0.2 0.2 0.2 0.2 0.006250000000000002 0.006250000000000002 0.006250000000000002 0.9750000000000002 0.006250000000000002 0.7200000000000001 0.22 0.02 0.02 0.02 0.1 0.6000000000000001 0.1 0.1 0.1 0.1 0.1 0.1 0.1 0.6 0.05 0.05 0.8 0.05 0.05 0.9652173913043479 0.008695652173913045 0.008695652173913045 0.008695652173913045 0.008695652173913045 0.2 0.2 0.2 0.2 0.2 0.2 0.2 0.2 0.2 0.2 0.01538461538461539 0.01538461538461539 0.4769230769230769 0.01538461538461539 0.4769230769230769 0.8967532467532469 0.1012987012987013 0.0006493506493506496 0.0006493506493506496 0.0006493506493506496 0.5032258064516129 0.003225806451612903 0.003225806451612903 0.003225806451612903 0.4870967741935484 0.2 0.2 0.2 0.2 0.2 0.001886792452830189 0.001886792452830189 0.001886792452830189 0.001886792452830189 0.9924528301886792 0.5750000000000001 0.3875000000000001 0.0125 0.0125 0.0125 0.1 0.1 0.6000000000000001 0.1 0.1 0.05 0.05 0.05 0.05 0.8 0.2 0.2 0.2 0.2 0.2 0.8579710144927535 0.1333333333333333 0.002898550724637681 0.002898550724637681 0.002898550724637681 0.4857142857142858 0.4857142857142858 0.009523809523809526 0.009523809523809526 0.009523809523809526 0.02857142857142857 0.02857142857142857 0.02857142857142857 0.02857142857142857 0.8857142857142857 0.007692307692307693 0.6230769230769231 0.3538461538461539 0.007692307692307693 0.007692307692307693 0.9945945945945946 0.001351351351351352 0.001351351351351352 0.001351351351351352 0.001351351351351352 0.006451612903225808 0.9741935483870969 0.006451612903225808 0.006451612903225808 0.006451612903225808 0.004545454545454546 0.004545454545454546 0.004545454545454546 0.004545454545454546 0.9818181818181819 0.001015228426395939 0.1532994923857868 0.001015228426395939 0.6862944162436548 0.1583756345177665 0.7076923076923077 0.2461538461538462 0.01538461538461539 0.01538461538461539 0.01538461538461539 0.4 0.06666666666666667 0.06666666666666667 0.06666666666666667 0.4 0.025 0.025 0.025 0.025 0.9 0.1 0.1 0.1 0.1 0.6 0.9899999999999998 0.0025 0.0025 0.0025 0.0025 0.02857142857142857 0.02857142857142857 0.02857142857142857 0.8857142857142857 0.02857142857142857 0.008 0.008 0.008 0.008 0.968 0.2 0.2 0.2 0.2 0.2 0.874308300395257 0.1233201581027668 0.0007905138339920951 0.0007905138339920951 0.0007905138339920951 0.002666666666666667 0.002666666666666667 0.002666666666666667 0.416 0.5760000000000001 0.004545454545454546 0.004545454545454546 0.004545454545454546 0.004545454545454546 0.9818181818181819 0.006250000000000002 0.9750000000000002 0.006250000000000002 0.006250000000000002 0.006250000000000002 0.001098901098901099 0.06153846153846154 0.2428571428571429 0.621978021978022 0.07252747252747253 0.004545454545454546 0.004545454545454546 0.004545454545454546 0.1863636363636363 0.8 0.01333333333333333 0.01333333333333333 0.01333333333333333 0.01333333333333333 0.9466666666666667 0.005128205128205128 0.005128205128205128 0.08205128205128205 0.2358974358974359 0.6717948717948717 0.002702702702702702 0.1648648648648648 0.2864864864864864 0.5432432432432431 0.002702702702702702 0.02857142857142857 0.02857142857142857 0.02857142857142857 0.02857142857142857 0.8857142857142857 0.2 0.2 0.2 0.2 0.2 0.2 0.2 0.2 0.2 0.2 0.2 0.2 0.2 0.2 0.2 0.006451612903225806 0.006451612903225806 0.006451612903225806 0.006451612903225806 0.9741935483870967 0.2 0.2 0.2 0.2 0.2 0.2 0.2 0.2 0.2 0.2 0.001052631578947368 0.1063157894736842 0.3221052631578947 0.511578947368421 0.05894736842105262 0.008695652173913044 0.008695652173913044 0.008695652173913044 0.3565217391304347 0.6173913043478261 0.009090909090909092 0.009090909090909092 0.009090909090909092 0.009090909090909092 0.9636363636363636 0.01052631578947368 0.01052631578947368 0.01052631578947368 0.5368421052631578 0.431578947368421 0.009090909090909092 0.009090909090909092 0.2818181818181819 0.690909090909091 0.009090909090909092 0.007142857142857143 0.007142857142857143 0.007142857142857143 0.007142857142857143 0.9714285714285713 0.2 0.2 0.2 0.2 0.2 0.007142857142857143 0.007142857142857143 0.007142857142857143 0.4357142857142857 0.5428571428571428 0.2 0.2 0.2 0.2 0.2 0.2 0.2 0.2 0.2 0.2 0.2 0.2 0.2 0.2 0.2 0.002298850574712644 0.002298850574712644 0.002298850574712644 0.002298850574712644 0.9908045977011495 0.002564102564102564 0.05384615384615384 0.323076923076923 0.6051282051282051 0.01538461538461538 0.1090909090909091 0.01818181818181818 0.01818181818181818 0.1090909090909091 0.7454545454545454 0.01052631578947368 0.01052631578947368 0.01052631578947368 0.01052631578947368 0.9578947368421051 0.01538461538461539 0.01538461538461539 0.01538461538461539 0.2461538461538462 0.7076923076923077 0.2125 0.004166666666666667 0.3166666666666667 0.3375 0.1291666666666667 0.2 0.2 0.2 0.2 0.2 0.2 0.2 0.2 0.2 0.2 0.02857142857142857 0.02857142857142857 0.02857142857142857 0.02857142857142857 0.8857142857142857 0.002666666666666666 0.002666666666666666 0.576 0.4159999999999999 0.002666666666666666 0.2 0.2 0.2 0.2 0.2 0.2 0.2 0.2 0.2 0.2 0.2 0.2 0.2 0.2 0.2 0.00106951871657754 0.07593582887700534 0.2310160427807487 0.6 0.09197860962566844 0.008695652173913044 0.008695652173913044 0.008695652173913044 0.1826086956521739 0.7913043478260869 0.006666666666666667 0.006666666666666667 0.006666666666666667 0.006666666666666667 0.9733333333333333 0.008695652173913044 0.008695652173913044 0.008695652173913044 0.2695652173913043 0.7043478260869565 0.002352941176470588 0.2141176470588235 0.108235294117647 0.6729411764705882 0.002352941176470588 0.01538461538461539 0.01538461538461539 0.01538461538461539 0.4769230769230769 0.4769230769230769 0.2 0.2 0.2 0.2 0.2 0.02857142857142857 0.02857142857142857 0.02857142857142857 0.02857142857142857 0.8857142857142857 0.002666666666666666 0.002666666666666666 0.002666666666666666 0.9893333333333332 0.002666666666666666 0.002702702702702703 0.002702702702702703 0.002702702702702703 0.002702702702702703 0.9891891891891893 0.2 0.2 0.2 0.2 0.2 0.2 0.2 0.2 0.2 0.2 0.001834862385321101 0.05688073394495412 0.3137614678899082 0.5522935779816514 0.07522935779816513 0.02222222222222222 0.02222222222222222 0.02222222222222222 0.2444444444444445 0.6888888888888889 0.007692307692307693 0.007692307692307693 0.007692307692307693 0.007692307692307693 0.9692307692307692 0.02 0.02 0.02 0.12 0.82 0.09272727272727271 0.001818181818181818 0.4018181818181819 0.5018181818181818 0.001818181818181818 0.2 0.2 0.2 0.2 0.2 0.2 0.2 0.2 0.2 0.2 0.2 0.2 0.2 0.2 0.2 0.000904977375565611 0.1909502262443439 0.8063348416289593 0.000904977375565611 0.000904977375565611 0.00625 0.00625 0.00625 0.00625 0.975 0.003174603174603175 0.003174603174603175 0.003174603174603175 0.003174603174603175 0.9873015873015873 0.2 0.2 0.2 0.2 0.2 0.03368421052631578 0.3073684210526315 0.4336842105263157 0.2126315789473684 0.01263157894736842 0.008 0.008 0.048 0.488 0.448 0.01 0.01 0.01 0.01 0.96 0.008333333333333333 0.008333333333333333 0.008333333333333333 0.4666666666666666 0.5083333333333333 0.002222222222222222 0.28 0.5466666666666666 0.06888888888888889 0.1022222222222222 0.006666666666666668 0.006666666666666668 0.2066666666666667 0.4066666666666667 0.3733333333333334 0.02857142857142857 0.02857142857142857 0.02857142857142857 0.02857142857142857 0.8857142857142857 0.01538461538461539 0.01538461538461539 0.01538461538461539 0.01538461538461539 0.9384615384615385 0.2 0.2 0.2 0.2 0.2 0.2 0.2 0.2 0.2 0.2 0.2 0.2 0.2 0.2 0.2 0.2 0.2 0.2 0.2 0.2 0.0336 0.3855999999999999 0.4096 0.1696 0.0016 0.0125 0.0125 0.2 0.575 0.2 0.009523809523809525 0.009523809523809525 0.009523809523809525 0.009523809523809525 0.9619047619047618 0.01 0.01 0.16 0.36 0.46 0.2114285714285714 0.3923809523809524 0.3923809523809524 0.001904761904761905 0.001904761904761905 0.005882352941176471 0.005882352941176471 0.3 0.1823529411764706 0.5058823529411764 0.01538461538461539 0.01538461538461539 0.01538461538461539 0.01538461538461539 0.9384615384615385 0.2 0.2 0.2 0.2 0.2 0.2 0.2 0.2 0.2 0.2 0.002702702702702703 0.002702702702702703 0.002702702702702703 0.002702702702702703 0.9891891891891893 0.2 0.2 0.2 0.2 0.2 0.2 0.2 0.2 0.2 0.2 0.05185185185185184 0.2864197530864197 0.4098765432098765 0.237037037037037 0.01481481481481481 0.02857142857142857 0.02857142857142857 0.02857142857142857 0.4571428571428571 0.4571428571428571 0.01428571428571429 0.01428571428571429 0.01428571428571429 0.01428571428571429 0.9428571428571427 0.01428571428571429 0.01428571428571429 0.01428571428571429 0.5857142857142856 0.3714285714285714 0.06888888888888889 0.6244444444444444 0.1688888888888889 0.06888888888888889 0.06888888888888889 0.01052631578947368 0.01052631578947368 0.3263157894736842 0.3263157894736842 0.3263157894736842 0.2 0.2 0.2 0.2 0.2 0.02857142857142857 0.02857142857142857 0.02857142857142857 0.02857142857142857 0.8857142857142857 0.006250000000000002 0.9750000000000002 0.006250000000000002 0.006250000000000002 0.006250000000000002 0.2 0.2 0.2 0.2 0.2 0.2 0.2 0.2 0.2 0.2 0.003174603174603175 0.003174603174603175 0.003174603174603175 0.4952380952380952 0.4952380952380952 0.06029411764705882 0.3544117647058824 0.4205882352941177 0.1411764705882353 0.02352941176470588 0.01 0.01 0.06 0.46 0.46 0.005555555555555556 0.005555555555555556 0.005555555555555556 0.005555555555555556 0.9777777777777779 0.008333333333333333 0.008333333333333333 0.008333333333333333 0.4249999999999999 0.5499999999999999 0.02587064676616915 0.3393034825870647 0.573134328358209 0.06069651741293532 0.0009950248756218905 0.004878048780487806 0.004878048780487806 0.004878048780487806 0.5902439024390244 0.3951219512195122 0.2 0.2 0.2 0.2 0.2 0.01052631578947368 0.01052631578947368 0.3263157894736842 0.01052631578947368 0.6421052631578946 0.004545454545454545 0.9818181818181818 0.004545454545454545 0.004545454545454545 0.004545454545454545 0.2 0.2 0.2 0.2 0.2 0.001904761904761905 0.001904761904761905 0.001904761904761905 0.001904761904761905 0.9923809523809525 0.006451612903225806 0.006451612903225806 0.006451612903225806 0.006451612903225806 0.9741935483870967 0.1028571428571429 0.36 0.4028571428571429 0.1314285714285714 0.002857142857142857 0.01818181818181818 0.01818181818181818 0.01818181818181818 0.290909090909091 0.6545454545454545 0.007692307692307693 0.007692307692307693 0.007692307692307693 0.007692307692307693 0.9692307692307692 0.02 0.22 0.12 0.12 0.52 0.2747474747474747 0.4464646464646465 0.2141414141414141 0.06262626262626263 0.00202020202020202 0.02 0.02 0.9200000000000002 0.02 0.02 0.01666666666666667 0.01666666666666667 0.01666666666666667 0.01666666666666667 0.9333333333333332 0.01176470588235294 0.01176470588235294 0.01176470588235294 0.6 0.3647058823529412 0.00111731843575419 0.1743016759776537 0.8223463687150839 0.00111731843575419 0.00111731843575419 0.004545454545454546 0.004545454545454546 0.004545454545454546 0.004545454545454546 0.9818181818181819 0.2 0.2 0.2 0.2 0.2 0.2 0.2 0.2 0.2 0.2 0.1789473684210526 0.4947368421052631 0.2491228070175438 0.07368421052631578 0.003508771929824561 0.006451612903225808 0.1032258064516129 0.135483870967742 0.4258064516129033 0.3290322580645162 0.03333333333333333 0.03333333333333333 0.03333333333333333 0.03333333333333333 0.8666666666666667 0.01 0.01 0.16 0.46 0.36 0.3137931034482758 0.6758620689655171 0.003448275862068965 0.003448275862068965 0.003448275862068965 0.0025 0.0025 0.115 0.5775 0.3025 0.2 0.2 0.2 0.2 0.2 0.01176470588235294 0.01176470588235294 0.6000000000000001 0.3647058823529413 0.01176470588235294 0.006250000000000002 0.9750000000000002 0.006250000000000002 0.006250000000000002 0.006250000000000002 0.006451612903225808 0.9741935483870969 0.006451612903225808 0.006451612903225808 0.006451612903225808 0.2 0.2 0.2 0.2 0.2 0.2 0.2 0.2 0.2 0.2 0.2141176470588235 0.4847058823529412 0.2376470588235294 0.06117647058823528 0.002352941176470588 0.07058823529411765 0.01176470588235294 0.07058823529411765 0.4823529411764705 0.3647058823529412 0.025 0.025 0.025 0.025 0.9 0.0125 0.0125 0.3250000000000001 0.6375000000000001 0.0125 0.2169230769230769 0.6092307692307692 0.1707692307692308 0.001538461538461539 0.001538461538461539 0.009523809523809526 0.4857142857142858 0.009523809523809526 0.4857142857142858 0.009523809523809526 0.2 0.2 0.2 0.2 0.2 0.01052631578947369 0.01052631578947369 0.9578947368421055 0.01052631578947369 0.01052631578947369 0.6454976303317536 0.3516587677725119 0.0009478672985781992 0.0009478672985781992 0.0009478672985781992 0.004651162790697673 0.004651162790697673 0.9813953488372092 0.004651162790697673 0.004651162790697673 0.2 0.2 0.2 0.2 0.2 0.002298850574712644 0.002298850574712644 0.4965517241379311 0.002298850574712644 0.4965517241379311 0.09767441860465116 0.6790697674418604 0.213953488372093 0.004651162790697674 0.004651162790697674 0.02 0.22 0.22 0.42 0.12 0.04000000000000001 0.04000000000000001 0.04000000000000001 0.04000000000000001 0.8400000000000001 0.03333333333333333 0.03333333333333333 0.2 0.3666666666666667 0.3666666666666667 0.3964912280701754 0.4929824561403509 0.1070175438596491 0.001754385964912281 0.001754385964912281 0.02857142857142857 0.02857142857142857 0.02857142857142857 0.8857142857142857 0.02857142857142857 0.02857142857142857 0.02857142857142857 0.02857142857142857 0.02857142857142857 0.8857142857142857 0.02857142857142857 0.02857142857142857 0.02857142857142857 0.02857142857142857 0.8857142857142857 0.1868263473053892 0.1808383233532934 0.6299401197604791 0.001197604790419162 0.001197604790419162 0.2 0.2 0.2 0.2 0.2 0.2 0.2 0.2 0.2 0.2 0.006250000000000002 0.006250000000000002 0.006250000000000002 0.9750000000000002 0.006250000000000002 0.2951219512195122 0.5024390243902439 0.1853658536585366 0.01463414634146341 0.002439024390243902 0.01818181818181818 0.1090909090909091 0.2 0.3818181818181818 0.290909090909091 0.009090909090909092 0.009090909090909092 0.009090909090909092 0.009090909090909092 0.9636363636363636 0.01111111111111111 0.01111111111111111 0.2333333333333333 0.5111111111111111 0.2333333333333333 0.4150537634408603 0.4849462365591398 0.0978494623655914 0.001075268817204301 0.001075268817204301 0.003448275862068965 0.1586206896551724 0.3137931034482758 0.3137931034482758 0.2103448275862069 0.02857142857142857 0.02857142857142857 0.02857142857142857 0.02857142857142857 0.8857142857142857 0.0125 0.0125 0.9500000000000002 0.0125 0.0125 0.576 0.4159999999999999 0.002666666666666666 0.002666666666666666 0.002666666666666666 0.004545454545454545 0.004545454545454545 0.004545454545454545 0.9818181818181818 0.004545454545454545 0.2 0.2 0.2 0.2 0.2 0.004651162790697673 0.004651162790697673 0.004651162790697673 0.9813953488372092 0.004651162790697673 0.3490909090909091 0.4218181818181818 0.2218181818181818 0.003636363636363636 0.003636363636363636 0.025 0.025 0.15 0.4 0.4 0.009090909090909092 0.009090909090909092 0.009090909090909092 0.009090909090909092 0.9636363636363636 0.06666666666666667 0.06666666666666667 0.06666666666666667 0.4 0.4 0.6909090909090908 0.2233766233766233 0.0805194805194805 0.002597402597402597 0.002597402597402597 0.01176470588235294 0.01176470588235294 0.01176470588235294 0.6 0.3647058823529412 0.01052631578947368 0.01052631578947368 0.01052631578947368 0.01052631578947368 0.9578947368421051 0.01176470588235294 0.01176470588235294 0.6000000000000001 0.3647058823529413 0.01176470588235294 0.5867924528301885 0.4075471698113207 0.001886792452830188 0.001886792452830188 0.001886792452830188 0.0007194244604316548 0.0007194244604316548 0.3100719424460432 0.0007194244604316548 0.6877697841726619 0.2 0.2 0.2 0.2 0.2 0.2 0.2 0.2 0.2 0.2 0.7714285714285716 0.2000000000000001 0.009523809523809526 0.009523809523809526 0.009523809523809526 0.12 0.02 0.42 0.3200000000000001 0.12 0.2 0.2 0.2 0.2 0.2 0.01818181818181818 0.2 0.290909090909091 0.2 0.290909090909091 0.9771428571428571 0.005714285714285713 0.005714285714285713 0.005714285714285713 0.005714285714285713 0.01176470588235294 0.01176470588235294 0.9529411764705884 0.01176470588235294 0.01176470588235294 0.2 0.2 0.2 0.2 0.2 0.0125 0.5750000000000001 0.0125 0.3875000000000001 0.0125 0.9813953488372092 0.004651162790697673 0.004651162790697673 0.004651162790697673 0.004651162790697673 0.006250000000000002 0.006250000000000002 0.006250000000000002 0.9750000000000002 0.006250000000000002 0.2 0.2 0.2 0.2 0.2 0.2 0.2 0.2 0.2 0.2 0.7000000000000001 0.2625000000000001 0.0125 0.0125 0.0125 0.04000000000000001 0.04000000000000001 0.24 0.4400000000000001 0.24 0.1 0.1 0.1 0.1 0.6 0.03333333333333333 0.3666666666666667 0.03333333333333333 0.2 0.3666666666666667 0.7529411764705881 0.238235294117647 0.002941176470588235 0.002941176470588235 0.002941176470588235 0.01818181818181818 0.01818181818181818 0.01818181818181818 0.9272727272727274 0.01818181818181818 0.02857142857142857 0.02857142857142857 0.02857142857142857 0.02857142857142857 0.8857142857142857 0.02857142857142857 0.02857142857142857 0.02857142857142857 0.8857142857142857 0.02857142857142857 0.4870967741935484 0.5032258064516129 0.003225806451612903 0.003225806451612903 0.003225806451612903 0.003225806451612903 0.003225806451612903 0.5032258064516129 0.003225806451612903 0.4870967741935484 0.2 0.2 0.2 0.2 0.2 0.2 0.2 0.2 0.2 0.2 0.4333333333333333 0.5166666666666666 0.01666666666666667 0.01666666666666667 0.01666666666666667 0.06666666666666667 0.4 0.4 0.06666666666666667 0.06666666666666667 0.02222222222222222 0.02222222222222222 0.02222222222222222 0.02222222222222222 0.911111111111111 0.2 0.2 0.2 0.2 0.2 0.4941176470588235 0.4941176470588235 0.00392156862745098 0.00392156862745098 0.00392156862745098 0.01818181818181818 0.01818181818181818 0.9272727272727274 0.01818181818181818 0.01818181818181818 0.2 0.2 0.2 0.2 0.2 0.2 0.2 0.2 0.2 0.2 0.9961904761904762 0.0009523809523809525 0.0009523809523809525 0.0009523809523809525 0.0009523809523809525 0.5023255813953488 0.002325581395348837 0.002325581395348837 0.4906976744186046 0.002325581395348837 0.2 0.2 0.2 0.2 0.2 0.00145985401459854 0.994160583941606 0.00145985401459854 0.00145985401459854 0.00145985401459854 0.7655172413793104 0.1793103448275863 0.04137931034482759 0.006896551724137933 0.006896551724137933 0.06666666666666667 0.4 0.06666666666666667 0.06666666666666667 0.4 0.025 0.025 0.025 0.025 0.9 0.02857142857142857 0.1714285714285714 0.1714285714285714 0.1714285714285714 0.4571428571428571 0.8406779661016948 0.1542372881355932 0.001694915254237288 0.001694915254237288 0.001694915254237288 0.01818181818181818 0.01818181818181818 0.01818181818181818 0.9272727272727274 0.01818181818181818 0.02857142857142857 0.02857142857142857 0.02857142857142857 0.02857142857142857 0.8857142857142857 0.01538461538461539 0.4769230769230769 0.4769230769230769 0.01538461538461539 0.01538461538461539 0.9813953488372092 0.004651162790697673 0.004651162790697673 0.004651162790697673 0.004651162790697673 0.004545454545454545 0.9818181818181818 0.004545454545454545 0.004545454545454545 0.004545454545454545 0.004545454545454546 0.004545454545454546 0.004545454545454546 0.004545454545454546 0.9818181818181819 0.002298850574712643 0.496551724137931 0.496551724137931 0.002298850574712643 0.002298850574712643 0.8133333333333335 0.08000000000000002 0.08000000000000002 0.01333333333333334 0.01333333333333334 0.05 0.3 0.3 0.05 0.3 0.01818181818181818 0.01818181818181818 0.01818181818181818 0.01818181818181818 0.9272727272727272 0.05 0.55 0.3 0.05 0.05 0.9937984496124033 0.001550387596899225 0.001550387596899225 0.001550387596899225 0.001550387596899225 0.02 0.02 0.02 0.9200000000000002 0.02 0.02 0.02 0.02 0.02 0.9199999999999999 0.01818181818181818 0.01818181818181818 0.01818181818181818 0.9272727272727274 0.01818181818181818 0.9976401179941004 0.0005899705014749264 0.0005899705014749264 0.0005899705014749264 0.0005899705014749264 0.2 0.2 0.2 0.2 0.2 0.006451612903225806 0.006451612903225806 0.006451612903225806 0.006451612903225806 0.9741935483870967 0.002298850574712644 0.002298850574712644 0.002298850574712644 0.002298850574712644 0.9908045977011495 0.001265822784810127 0.05189873417721518 0.2037974683544304 0.6215189873417721 0.1215189873417721 0.02222222222222222 0.003703703703703704 0.003703703703703704 0.2074074074074074 0.762962962962963 0.01538461538461539 0.01538461538461539 0.01538461538461539 0.01538461538461539 0.9384615384615385 0.004545454545454546 0.004545454545454546 0.004545454545454546 0.2318181818181818 0.7545454545454546 0.004347826086956522 0.2434782608695652 0.3521739130434782 0.3956521739130435 0.004347826086956522 0.008 0.008 0.008 0.008 0.968 0.2 0.2 0.2 0.2 0.2 0.03333333333333333 0.03333333333333333 0.03333333333333333 0.8666666666666665 0.03333333333333333 0.004545454545454545 0.004545454545454545 0.004545454545454545 0.9818181818181818 0.004545454545454545 0.2 0.2 0.2 0.2 0.2 0.2 0.2 0.2 0.2 0.2 0.2 0.2 0.2 0.2 0.2 0.006976744186046512 0.04186046511627907 0.1988372093023256 0.663953488372093 0.08837209302325581 0.005555555555555556 0.005555555555555556 0.005555555555555556 0.2277777777777777 0.7555555555555555 0.0125 0.0125 0.0125 0.0125 0.95 0.005405405405405406 0.005405405405405406 0.005405405405405406 0.3567567567567568 0.6270270270270271 0.002816901408450704 0.002816901408450704 0.7352112676056337 0.1718309859154929 0.08732394366197181 0.01538461538461539 0.01538461538461539 0.01538461538461539 0.4769230769230769 0.4769230769230769 0.2 0.2 0.2 0.2 0.2 0.02 0.02 0.02 0.02 0.9199999999999999 0.003174603174603175 0.003174603174603175 0.4952380952380952 0.4952380952380952 0.003174603174603175 0.2 0.2 0.2 0.2 0.2 0.2 0.2 0.2 0.2 0.2 0.2 0.2 0.2 0.2 0.2 0.02716049382716049 0.03950617283950617 0.1753086419753086 0.7061728395061727 0.05185185185185184 0.01176470588235294 0.01176470588235294 0.01176470588235294 0.4235294117647059 0.5411764705882353 0.01333333333333333 0.01333333333333333 0.01333333333333333 0.01333333333333333 0.9466666666666667 0.02 0.02 0.02 0.42 0.52 0.003278688524590163 0.1016393442622951 0.5934426229508196 0.2 0.1016393442622951 0.02857142857142857 0.02857142857142857 0.02857142857142857 0.8857142857142857 0.02857142857142857 0.2 0.2 0.2 0.2 0.2 0.01818181818181818 0.01818181818181818 0.01818181818181818 0.01818181818181818 0.9272727272727272 0.2 0.2 0.2 0.2 0.2 0.2 0.2 0.2 0.2 0.2 0.2 0.2 0.2 0.2 0.2 0.2 0.2 0.2 0.2 0.2 0.009756097560975608 0.1154471544715447 0.2130081300813008 0.5951219512195122 0.06666666666666665 0.01538461538461539 0.01538461538461539 0.01538461538461539 0.2461538461538462 0.7076923076923077 0.006896551724137931 0.006896551724137931 0.006896551724137931 0.006896551724137931 0.9724137931034482 0.01333333333333333 0.01333333333333333 0.08 0.2133333333333333 0.6799999999999999 0.003703703703703704 0.003703703703703704 0.1888888888888889 0.8 0.003703703703703704 0.02 0.02 0.02 0.02 0.9199999999999999 0.02857142857142857 0.02857142857142857 0.02857142857142857 0.02857142857142857 0.8857142857142857 0.02857142857142857 0.02857142857142857 0.8857142857142857 0.02857142857142857 0.02857142857142857 0.1289256198347107 0.0008264462809917356 0.0008264462809917356 0.868595041322314 0.0008264462809917356 0.006250000000000002 0.006250000000000002 0.006250000000000002 0.9750000000000002 0.006250000000000002 0.2 0.2 0.2 0.2 0.2 0.2 0.2 0.2 0.2 0.2 0.02222222222222222 0.07272727272727272 0.2444444444444444 0.5575757575757575 0.103030303030303 0.01818181818181818 0.01818181818181818 0.1090909090909091 0.01818181818181818 0.8363636363636363 0.008 0.008 0.008 0.008 0.968 0.01818181818181818 0.01818181818181818 0.1090909090909091 0.290909090909091 0.5636363636363637 0.002127659574468085 0.002127659574468085 0.4276595744680851 0.4595744680851063 0.1085106382978723 0.02 0.02 0.02 0.02 0.9199999999999999 0.007692307692307693 0.007692307692307693 0.007692307692307693 0.007692307692307693 0.9692307692307692 0.2 0.2 0.2 0.2 0.2 0.1868263473053892 0.001197604790419162 0.6299401197604791 0.1808383233532934 0.001197604790419162 0.004545454545454546 0.004545454545454546 0.004545454545454546 0.004545454545454546 0.9818181818181819 0.002666666666666667 0.002666666666666667 0.002666666666666667 0.002666666666666667 0.9893333333333334 0.2 0.2 0.2 0.2 0.2 0.02417582417582418 0.3208791208791208 0.3868131868131868 0.2549450549450549 0.01318681318681319 0.006060606060606061 0.006060606060606061 0.006060606060606061 0.3393939393939394 0.6424242424242425 0.01176470588235294 0.01176470588235294 0.01176470588235294 0.01176470588235294 0.9529411764705882 0.01111111111111111 0.01111111111111111 0.01111111111111111 0.2888888888888889 0.6777777777777777 0.003703703703703704 0.2814814814814814 0.5962962962962963 0.1148148148148148 0.003703703703703704 0.008000000000000002 0.008000000000000002 0.2480000000000001 0.7280000000000001 0.008000000000000002 0.2 0.2 0.2 0.2 0.2 0.01176470588235294 0.3647058823529413 0.01176470588235294 0.6000000000000001 0.01176470588235294 0.006250000000000002 0.006250000000000002 0.006250000000000002 0.9750000000000002 0.006250000000000002 0.00273972602739726 0.00273972602739726 0.00273972602739726 0.4136986301369863 0.5780821917808219 0.2 0.2 0.2 0.2 0.2 0.2 0.2 0.2 0.2 0.2 0.02291666666666667 0.2833333333333333 0.45 0.2312499999999999 0.0125 0.05714285714285713 0.009523809523809525 0.009523809523809525 0.4857142857142857 0.438095238095238 0.009523809523809525 0.009523809523809525 0.009523809523809525 0.009523809523809525 0.9619047619047618 0.01111111111111111 0.01111111111111111 0.1222222222222222 0.5666666666666665 0.2888888888888889 0.08157894736842106 0.2394736842105263 0.4105263157894736 0.2657894736842105 0.002631578947368421 0.01666666666666667 0.01666666666666667 0.01666666666666667 0.4333333333333333 0.5166666666666666 0.2 0.2 0.2 0.2 0.2 0.2 0.2 0.2 0.2 0.2 0.006451612903225808 0.9741935483870969 0.006451612903225808 0.006451612903225808 0.006451612903225808 0.001342281879194631 0.001342281879194631 0.001342281879194631 0.2899328859060403 0.7060402684563758 0.2 0.2 0.2 0.2 0.2 0.2 0.2 0.2 0.2 0.2 0.05161290322580645 0.3258064516129032 0.3419354838709677 0.2774193548387097 0.003225806451612903 0.02857142857142857 0.02857142857142857 0.02857142857142857 0.4571428571428571 0.4571428571428571 0.04000000000000001 0.04000000000000001 0.04000000000000001 0.04000000000000001 0.8400000000000001 0.01428571428571429 0.01428571428571429 0.1571428571428571 0.4428571428571428 0.3714285714285714 0.002564102564102564 0.5538461538461538 0.07948717948717948 0.3615384615384615 0.002564102564102564 0.01818181818181818 0.01818181818181818 0.9272727272727274 0.01818181818181818 0.01818181818181818 0.2 0.2 0.2 0.2 0.2 0.2 0.2 0.2 0.2 0.2 0.004545454545454545 0.9818181818181818 0.004545454545454545 0.004545454545454545 0.004545454545454545 0.2 0.2 0.2 0.2 0.2 0.2 0.2 0.2 0.2 0.2 0.2 0.2 0.2 0.2 0.2 0.04482758620689654 0.3982758620689655 0.389655172413793 0.1655172413793103 0.001724137931034483 0.01176470588235294 0.01176470588235294 0.01176470588235294 0.1882352941176471 0.776470588235294 0.007692307692307693 0.007692307692307693 0.007692307692307693 0.007692307692307693 0.9692307692307692 0.009523809523809525 0.009523809523809525 0.1047619047619048 0.438095238095238 0.438095238095238 0.1227272727272727 0.2666666666666667 0.3727272727272727 0.2363636363636364 0.001515151515151515 0.01538461538461539 0.01538461538461539 0.01538461538461539 0.4769230769230769 0.4769230769230769 0.02857142857142857 0.02857142857142857 0.02857142857142857 0.02857142857142857 0.8857142857142857 0.008000000000000002 0.008000000000000002 0.2480000000000001 0.7280000000000001 0.008000000000000002 0.001886792452830188 0.4075471698113207 0.5867924528301885 0.001886792452830188 0.001886792452830188 0.001886792452830188 0.001886792452830188 0.001886792452830188 0.992452830188679 0.001886792452830188 0.2 0.2 0.2 0.2 0.2 0.004651162790697674 0.004651162790697674 0.004651162790697674 0.004651162790697674 0.9813953488372094 0.01967213114754099 0.4131147540983607 0.4786885245901639 0.08524590163934427 0.003278688524590164 0.025 0.025 0.025 0.275 0.65 0.008333333333333333 0.008333333333333333 0.008333333333333333 0.008333333333333333 0.9666666666666666 0.01333333333333333 0.01333333333333333 0.01333333333333333 0.4133333333333333 0.5466666666666666 0.2131578947368421 0.1605263157894737 0.3052631578947368 0.2 0.1210526315789474 0.2 0.2 0.2 0.2 0.2 0.01176470588235294 0.01176470588235294 0.01176470588235294 0.01176470588235294 0.9529411764705882 0.2 0.2 0.2 0.2 0.2 0.001470588235294118 0.2220588235294118 0.7735294117647059 0.001470588235294118 0.001470588235294118 0.2 0.2 0.2 0.2 0.2 0.006451612903225806 0.006451612903225806 0.006451612903225806 0.006451612903225806 0.9741935483870967 0.2 0.2 0.2 0.2 0.2 0.1782608695652174 0.4826086956521739 0.2652173913043478 0.06956521739130435 0.004347826086956522 0.01176470588235294 0.01176470588235294 0.1294117647058824 0.4235294117647059 0.4235294117647059 0.04000000000000001 0.04000000000000001 0.04000000000000001 0.04000000000000001 0.8400000000000001 0.01666666666666667 0.09999999999999999 0.1833333333333333 0.4333333333333333 0.2666666666666667 0.002469135802469135 0.8049382716049381 0.0765432098765432 0.1135802469135802 0.002469135802469135 0.007692307692307693 0.007692307692307693 0.007692307692307693 0.7384615384615385 0.2384615384615385 0.2 0.2 0.2 0.2 0.2 0.01538461538461539 0.01538461538461539 0.01538461538461539 0.01538461538461539 0.9384615384615385 0.003225806451612903 0.5032258064516129 0.4870967741935484 0.003225806451612903 0.003225806451612903 0.002173913043478261 0.3282608695652174 0.3391304347826087 0.3282608695652174 0.002173913043478261 0.2 0.2 0.2 0.2 0.2 0.00625 0.00625 0.00625 0.00625 0.975 0.232183908045977 0.4505747126436781 0.2896551724137931 0.02528735632183908 0.002298850574712643 0.01333333333333333 0.08 0.2133333333333333 0.48 0.2133333333333333 0.025 0.025 0.025 0.025 0.9 0.01538461538461539 0.01538461538461539 0.09230769230769231 0.5538461538461539 0.3230769230769231 0.2713043478260869 0.5669565217391304 0.1582608695652173 0.001739130434782609 0.001739130434782609 0.004878048780487806 0.004878048780487806 0.248780487804878 0.248780487804878 0.4926829268292683 0.2 0.2 0.2 0.2 0.2 0.2 0.2 0.2 0.2 0.2 0.001550387596899225 0.6604651162790698 0.3348837209302326 0.001550387596899225 0.001550387596899225 0.2 0.2 0.2 0.2 0.2 0.2 0.2 0.2 0.2 0.2 0.006250000000000002 0.006250000000000002 0.006250000000000002 0.9750000000000002 0.006250000000000002 0.3210526315789473 0.4 0.2684210526315789 0.005263157894736842 0.005263157894736842 0.05 0.05 0.05 0.55 0.3 0.02857142857142857 0.02857142857142857 0.02857142857142857 0.02857142857142857 0.8857142857142857 0.02857142857142857 0.02857142857142857 0.1714285714285714 0.6 0.1714285714285714 0.4434782608695653 0.5304347826086957 0.008695652173913045 0.008695652173913045 0.008695652173913045 0.007407407407407409 0.007407407407407409 0.3777777777777778 0.2296296296296297 0.3777777777777778 0.2 0.2 0.2 0.2 0.2 0.02 0.02 0.9200000000000002 0.02 0.02 0.2 0.2 0.2 0.2 0.2 0.004545454545454546 0.004545454545454546 0.004545454545454546 0.004545454545454546 0.9818181818181819 0.2 0.2 0.2 0.2 0.2 0.2 0.2 0.2 0.2 0.2 0.2141176470588235 0.5670588235294117 0.1905882352941176 0.02588235294117647 0.002352941176470588 0.01428571428571429 0.01428571428571429 0.5142857142857142 0.1571428571428571 0.3 0.01333333333333333 0.01333333333333333 0.01333333333333333 0.01333333333333333 0.9466666666666667 0.008333333333333335 0.008333333333333335 0.3 0.425 0.2583333333333334 0.3071038251366121 0.5092896174863388 0.1814207650273224 0.001092896174863388 0.001092896174863388 0.005714285714285714 0.2628571428571428 0.5485714285714285 0.005714285714285714 0.1771428571428571 0.02857142857142857 0.02857142857142857 0.02857142857142857 0.02857142857142857 0.8857142857142857 0.2 0.2 0.2 0.2 0.2 0.1696629213483146 0.5910112359550562 0.2370786516853933 0.001123595505617978 0.001123595505617978 0.002666666666666667 0.002666666666666667 0.002666666666666667 0.002666666666666667 0.9893333333333334 0.2 0.2 0.2 0.2 0.2 0.006250000000000002 0.006250000000000002 0.006250000000000002 0.9750000000000002 0.006250000000000002 0.3375 0.5249999999999999 0.1291666666666667 0.004166666666666667 0.004166666666666667 0.02 0.02 0.02 0.42 0.52 0.0125 0.0125 0.0125 0.0125 0.95 0.01818181818181818 0.01818181818181818 0.1090909090909091 0.4727272727272728 0.3818181818181818 0.5929577464788732 0.2971830985915493 0.1070422535211268 0.001408450704225352 0.001408450704225352 0.2 0.2 0.2 0.2 0.2 0.02857142857142857 0.02857142857142857 0.02857142857142857 0.02857142857142857 0.8857142857142857 0.005882352941176471 0.005882352941176471 0.1823529411764706 0.1823529411764706 0.6235294117647059 0.001047120418848168 0.9958115183246075 0.001047120418848168 0.001047120418848168 0.001047120418848168 0.001190476190476191 0.001190476190476191 0.6261904761904762 0.1857142857142857 0.1857142857142857 0.004545454545454546 0.004545454545454546 0.004545454545454546 0.004545454545454546 0.9818181818181819 0.2 0.2 0.2 0.2 0.2 0.5777777777777777 0.3555555555555556 0.02222222222222222 0.02222222222222222 0.02222222222222222 0.12 0.22 0.12 0.12 0.42 0.1 0.1 0.1 0.1 0.6 0.1333333333333333 0.02222222222222222 0.5777777777777777 0.2444444444444445 0.02222222222222222 0.3210526315789473 0.6631578947368421 0.005263157894736842 0.005263157894736842 0.005263157894736842 0.008 0.008 0.208 0.368 0.408 0.2 0.2 0.2 0.2 0.2 0.006060606060606061 0.1878787878787879 0.006060606060606061 0.2787878787878788 0.5212121212121212 0.9935999999999998 0.0016 0.0016 0.0016 0.0016 0.001694915254237288 0.001694915254237288 0.3661016949152542 0.6288135593220338 0.001694915254237288 0.2 0.2 0.2 0.2 0.2 0.002702702702702702 0.002702702702702702 0.5837837837837837 0.408108108108108 0.002702702702702702 0.5545454545454546 0.4181818181818182 0.009090909090909092 0.009090909090909092 0.009090909090909092 0.04000000000000001 0.04000000000000001 0.6400000000000001 0.04000000000000001 0.24 0.02857142857142857 0.02857142857142857 0.02857142857142857 0.02857142857142857 0.8857142857142857 0.2 0.2 0.2 0.2 0.2 0.8599999999999999 0.1314285714285714 0.002857142857142857 0.002857142857142857 0.002857142857142857 0.01538461538461539 0.4769230769230769 0.4769230769230769 0.01538461538461539 0.01538461538461539 0.2 0.2 0.2 0.2 0.2 0.02857142857142857 0.02857142857142857 0.8857142857142857 0.02857142857142857 0.02857142857142857 0.9818181818181818 0.004545454545454545 0.004545454545454545 0.004545454545454545 0.004545454545454545 0.2 0.2 0.2 0.2 0.2 0.006451612903225806 0.006451612903225806 0.006451612903225806 0.006451612903225806 0.9741935483870967 0.2 0.2 0.2 0.2 0.2 0.52 0.42 0.02 0.02 0.02 0.06666666666666665 0.06666666666666665 0.7333333333333333 0.06666666666666665 0.06666666666666665 0.03333333333333333 0.03333333333333333 0.03333333333333333 0.03333333333333333 0.8666666666666667 0.05 0.05 0.3 0.05 0.55 0.4600000000000001 0.51 0.01 0.01 0.01 0.2 0.2 0.2 0.2 0.2 0.02857142857142857 0.02857142857142857 0.02857142857142857 0.02857142857142857 0.8857142857142857 0.2 0.2 0.2 0.2 0.2 0.992452830188679 0.001886792452830188 0.001886792452830188 0.001886792452830188 0.001886792452830188 0.2 0.2 0.2 0.2 0.2 0.2 0.2 0.2 0.2 0.2 0.004651162790697673 0.004651162790697673 0.9813953488372092 0.004651162790697673 0.004651162790697673 0.5142857142857142 0.4428571428571428 0.01428571428571429 0.01428571428571429 0.01428571428571429 0.1 0.1 0.6000000000000001 0.1 0.1 0.02857142857142857 0.02857142857142857 0.02857142857142857 0.02857142857142857 0.8857142857142857 0.03333333333333333 0.03333333333333333 0.03333333333333333 0.5333333333333333 0.3666666666666667 0.9298969072164947 0.06391752577319587 0.002061855670103092 0.002061855670103092 0.002061855670103092 0.008695652173913044 0.008695652173913044 0.2695652173913043 0.008695652173913044 0.7043478260869565 0.01176470588235294 0.01176470588235294 0.01176470588235294 0.01176470588235294 0.9529411764705882 0.007407407407407409 0.1925925925925926 0.007407407407407409 0.562962962962963 0.2296296296296297 0.9980997624703088 0.0004750593824228029 0.0004750593824228029 0.0004750593824228029 0.0004750593824228029 0.2 0.2 0.2 0.2 0.2 0.2 0.2 0.2 0.2 0.2 0.001538461538461539 0.3323076923076924 0.3323076923076924 0.001538461538461539 0.3323076923076924 0.6173913043478262 0.3565217391304348 0.008695652173913045 0.008695652173913045 0.008695652173913045 0.06666666666666665 0.7333333333333333 0.06666666666666665 0.06666666666666665 0.06666666666666665 0.02 0.02 0.02 0.02 0.9199999999999999 0.1 0.1 0.1 0.6000000000000001 0.1 0.576595744680851 0.4170212765957446 0.002127659574468085 0.002127659574468085 0.002127659574468085 0.02 0.02 0.02 0.9200000000000002 0.02 0.02857142857142857 0.02857142857142857 0.02857142857142857 0.02857142857142857 0.8857142857142857 0.6000000000000001 0.01176470588235294 0.3647058823529413 0.01176470588235294 0.01176470588235294 0.947783251231527 0.05123152709359605 0.0003284072249589491 0.0003284072249589491 0.0003284072249589491 0.00111731843575419 0.00111731843575419 0.587709497206704 0.2413407821229051 0.1687150837988827 0.2 0.2 0.2 0.2 0.2 0.00625 0.00625 0.00625 0.00625 0.975 0.01215469613259668 0.02320441988950276 0.1779005524861879 0.6861878453038673 0.1005524861878453 0.00425531914893617 0.00425531914893617 0.02553191489361702 0.2595744680851064 0.7063829787234043 0.01538461538461539 0.01538461538461539 0.01538461538461539 0.01538461538461539 0.9384615384615385 0.007407407407407408 0.007407407407407408 0.007407407407407408 0.1925925925925926 0.7851851851851851 0.002298850574712643 0.07126436781609194 0.1862068965517241 0.6344827586206896 0.1057471264367816 0.01052631578947368 0.01052631578947368 0.01052631578947368 0.01052631578947368 0.9578947368421051 0.2 0.2 0.2 0.2 0.2 0.01052631578947368 0.01052631578947368 0.01052631578947368 0.3263157894736842 0.6421052631578946 0.004651162790697673 0.004651162790697673 0.004651162790697673 0.9813953488372092 0.004651162790697673 0.00625 0.00625 0.00625 0.00625 0.975 0.2 0.2 0.2 0.2 0.2 0.006451612903225806 0.006451612903225806 0.006451612903225806 0.006451612903225806 0.9741935483870967 0.00106951871657754 0.02245989304812835 0.1561497326203209 0.7176470588235294 0.1026737967914439 0.004651162790697674 0.004651162790697674 0.02790697674418605 0.2604651162790698 0.7023255813953488 0.009523809523809525 0.009523809523809525 0.009523809523809525 0.009523809523809525 0.9619047619047618 0.005000000000000001 0.005000000000000001 0.005000000000000001 0.155 0.8300000000000001 0.0025 0.0025 0.2774999999999999 0.7149999999999999 0.0025 0.009090909090909092 0.009090909090909092 0.2818181818181819 0.009090909090909092 0.6909090909090909 0.02857142857142857 0.02857142857142857 0.02857142857142857 0.02857142857142857 0.8857142857142857 0.02 0.02 0.02 0.02 0.9199999999999999 0.002702702702702702 0.002702702702702702 0.9891891891891891 0.002702702702702702 0.002702702702702702 0.2 0.2 0.2 0.2 0.2 0.2 0.2 0.2 0.2 0.2 0.2 0.2 0.2 0.2 0.2 0.002150537634408602 0.01290322580645161 0.2279569892473118 0.6365591397849463 0.1204301075268817 0.0125 0.0125 0.0125 0.325 0.6375 0.01052631578947368 0.01052631578947368 0.01052631578947368 0.01052631578947368 0.9578947368421051 0.02222222222222222 0.02222222222222222 0.02222222222222222 0.2444444444444445 0.6888888888888889 0.2421052631578947 0.005263157894736842 0.1631578947368421 0.5842105263157894 0.005263157894736842 0.2 0.2 0.2 0.2 0.2 0.2 0.2 0.2 0.2 0.2 0.02857142857142857 0.02857142857142857 0.02857142857142857 0.02857142857142857 0.8857142857142857 0.001470588235294118 0.2220588235294118 0.7735294117647059 0.001470588235294118 0.001470588235294118 0.2 0.2 0.2 0.2 0.2 0.2 0.2 0.2 0.2 0.2 0.2 0.2 0.2 0.2 0.2 0.01208791208791209 0.06153846153846154 0.2098901098901099 0.6164835164835165 0.1 0.006666666666666667 0.006666666666666667 0.006666666666666667 0.3066666666666666 0.6733333333333333 0.006896551724137931 0.006896551724137931 0.006896551724137931 0.006896551724137931 0.9724137931034482 0.006666666666666667 0.006666666666666667 0.04 0.4399999999999999 0.5066666666666666 0.002777777777777777 0.002777777777777777 0.475 0.5166666666666666 0.002777777777777777 0.008695652173913044 0.008695652173913044 0.008695652173913044 0.008695652173913044 0.9652173913043478 0.01818181818181818 0.01818181818181818 0.01818181818181818 0.01818181818181818 0.9272727272727272 0.02857142857142857 0.02857142857142857 0.02857142857142857 0.02857142857142857 0.8857142857142857 0.001351351351351351 0.001351351351351351 0.2851351351351352 0.7108108108108109 0.001351351351351351 0.00625 0.00625 0.00625 0.00625 0.975 0.2 0.2 0.2 0.2 0.2 0.006451612903225806 0.006451612903225806 0.006451612903225806 0.006451612903225806 0.9741935483870967 0.001680672268907563 0.06050420168067227 0.2453781512605042 0.5899159663865546 0.1025210084033613 0.01428571428571429 0.01428571428571429 0.01428571428571429 0.1571428571428571 0.7999999999999999 0.00425531914893617 0.00425531914893617 0.00425531914893617 0.00425531914893617 0.9829787234042554 0.01538461538461539 0.01538461538461539 0.09230769230769231 0.01538461538461539 0.8615384615384616 0.001886792452830188 0.1528301886792452 0.3415094339622641 0.5018867924528301 0.001886792452830188 0.005555555555555556 0.005555555555555556 0.005555555555555556 0.005555555555555556 0.9777777777777779 0.01052631578947368 0.01052631578947368 0.01052631578947368 0.01052631578947368 0.9578947368421051 0.2 0.2 0.2 0.2 0.2 0.0005319148936170214 0.4446808510638298 0.1122340425531915 0.4420212765957447 0.0005319148936170214 0.2 0.2 0.2 0.2 0.2 0.2 0.2 0.2 0.2 0.2 0.2 0.2 0.2 0.2 0.2 0.002127659574468085 0.2361702127659574 0.3531914893617021 0.3957446808510638 0.01276595744680851 0.006060606060606061 0.006060606060606061 0.006060606060606061 0.2787878787878788 0.703030303030303 0.025 0.025 0.025 0.025 0.9 0.008333333333333333 0.008333333333333333 0.05 0.3833333333333333 0.5499999999999999 0.002941176470588235 0.2235294117647058 0.6794117647058823 0.09117647058823528 0.002941176470588235 0.01052631578947368 0.01052631578947368 0.01052631578947368 0.6421052631578946 0.3263157894736842 0.2 0.2 0.2 0.2 0.2 0.01538461538461539 0.01538461538461539 0.4769230769230769 0.4769230769230769 0.01538461538461539 0.006250000000000002 0.006250000000000002 0.9750000000000002 0.006250000000000002 0.006250000000000002 0.004545454545454546 0.004545454545454546 0.004545454545454546 0.004545454545454546 0.9818181818181819 0.2 0.2 0.2 0.2 0.2 0.2 0.2 0.2 0.2 0.2 0.008163265306122448 0.1714285714285714 0.436734693877551 0.3551020408163265 0.02857142857142857 0.00625 0.00625 0.0375 0.38125 0.56875 0.01111111111111111 0.01111111111111111 0.01111111111111111 0.01111111111111111 0.9555555555555555 0.006666666666666668 0.006666666666666668 0.07333333333333335 0.4733333333333334 0.4400000000000001 0.001818181818181818 0.3654545454545455 0.52 0.1109090909090909 0.001818181818181818 0.009090909090909092 0.009090909090909092 0.009090909090909092 0.009090909090909092 0.9636363636363636 0.01176470588235294 0.01176470588235294 0.01176470588235294 0.01176470588235294 0.9529411764705882 0.02857142857142857 0.02857142857142857 0.02857142857142857 0.8857142857142857 0.02857142857142857 0.001694915254237288 0.3661016949152542 0.6288135593220338 0.001694915254237288 0.001694915254237288 0.006250000000000002 0.006250000000000002 0.006250000000000002 0.9750000000000002 0.006250000000000002 0.2 0.2 0.2 0.2 0.2 0.2 0.2 0.2 0.2 0.2 0.02307692307692308 0.2153846153846154 0.3884615384615385 0.3692307692307693 0.003846153846153846 0.01538461538461539 0.01538461538461539 0.01538461538461539 0.4 0.5538461538461539 0.01666666666666667 0.01666666666666667 0.01666666666666667 0.01666666666666667 0.9333333333333332 0.01111111111111111 0.01111111111111111 0.06666666666666667 0.6222222222222221 0.2888888888888889 0.006451612903225808 0.2 0.2 0.5870967741935484 0.006451612903225808 0.2 0.2 0.2 0.2 0.2 0.02857142857142857 0.02857142857142857 0.02857142857142857 0.02857142857142857 0.8857142857142857 0.2 0.2 0.2 0.2 0.2 0.002702702702702702 0.002702702702702702 0.5837837837837837 0.408108108108108 0.002702702702702702 0.00625 0.00625 0.00625 0.00625 0.975 0.2 0.2 0.2 0.2 0.2 0.2 0.2 0.2 0.2 0.2 0.02896551724137931 0.263448275862069 0.5048275862068966 0.1944827586206896 0.008275862068965517 0.008695652173913044 0.008695652173913044 0.008695652173913044 0.4434782608695652 0.5304347826086956 0.01 0.01 0.01 0.01 0.96 0.007142857142857143 0.007142857142857143 0.04285714285714285 0.5071428571428571 0.4357142857142857 0.001503759398496241 0.3097744360902256 0.5954887218045113 0.09172932330827066 0.001503759398496241 0.009090909090909092 0.009090909090909092 0.009090909090909092 0.9636363636363637 0.009090909090909092 0.01052631578947368 0.01052631578947368 0.01052631578947368 0.01052631578947368 0.9578947368421051 0.02857142857142857 0.02857142857142857 0.02857142857142857 0.8857142857142857 0.02857142857142857 0.001886792452830188 0.001886792452830188 0.992452830188679 0.001886792452830188 0.001886792452830188 0.001190476190476191 0.001190476190476191 0.001190476190476191 0.1857142857142857 0.8107142857142856 0.2 0.2 0.2 0.2 0.2 0.2 0.2 0.2 0.2 0.2 0.09473684210526316 0.2131578947368421 0.4105263157894736 0.2526315789473684 0.02894736842105263 0.025 0.025 0.025 0.275 0.65 0.007692307692307693 0.007692307692307693 0.007692307692307693 0.007692307692307693 0.9692307692307692 0.01333333333333333 0.01333333333333333 0.01333333333333333 0.48 0.48 0.002083333333333333 0.1583333333333333 0.4812499999999999 0.35625 0.002083333333333333 0.005000000000000001 0.005000000000000001 0.155 0.605 0.23 0.02857142857142857 0.02857142857142857 0.02857142857142857 0.02857142857142857 0.8857142857142857 0.01818181818181818 0.01818181818181818 0.01818181818181818 0.01818181818181818 0.9272727272727272 0.001041666666666667 0.9958333333333333 0.001041666666666667 0.001041666666666667 0.001041666666666667 0.006250000000000002 0.006250000000000002 0.006250000000000002 0.9750000000000002 0.006250000000000002 0.004545454545454546 0.004545454545454546 0.004545454545454546 0.004545454545454546 0.9818181818181819 0.2 0.2 0.2 0.2 0.2 0.0764705882352941 0.488235294117647 0.3705882352941176 0.06176470588235293 0.002941176470588235 0.006896551724137933 0.006896551724137933 0.006896551724137933 0.6275862068965519 0.3517241379310345 0.02222222222222222 0.02222222222222222 0.02222222222222222 0.02222222222222222 0.911111111111111 0.01176470588235294 0.01176470588235294 0.07058823529411765 0.4235294117647059 0.4823529411764705 0.3415094339622641 0.3886792452830188 0.2660377358490565 0.001886792452830188 0.001886792452830188 0.005000000000000001 0.005000000000000001 0.005000000000000001 0.755 0.23 0.2 0.2 0.2 0.2 0.2 0.2 0.2 0.2 0.2 0.2 0.2 0.2 0.2 0.2 0.2 0.003225806451612903 0.003225806451612903 0.003225806451612903 0.9870967741935484 0.003225806451612903 0.2 0.2 0.2 0.2 0.2 0.2 0.2 0.2 0.2 0.2 0.04999999999999999 0.4666666666666666 0.3714285714285713 0.1095238095238095 0.002380952380952381 0.01052631578947368 0.01052631578947368 0.06315789473684209 0.6421052631578946 0.2736842105263158 0.01333333333333333 0.01333333333333333 0.01333333333333333 0.01333333333333333 0.9466666666666667 0.01176470588235294 0.01176470588235294 0.3058823529411765 0.6 0.07058823529411765 0.1244897959183673 0.5938775510204082 0.1857142857142857 0.09387755102040815 0.002040816326530612 0.02857142857142857 0.02857142857142857 0.02857142857142857 0.8857142857142857 0.02857142857142857 0.2 0.2 0.2 0.2 0.2 0.0125 0.0125 0.0125 0.9500000000000002 0.0125 0.4159999999999999 0.002666666666666666 0.576 0.002666666666666666 0.002666666666666666 0.001886792452830188 0.001886792452830188 0.001886792452830188 0.6999999999999998 0.2943396226415094 0.2 0.2 0.2 0.2 0.2 0.2 0.2 0.2 0.2 0.2 0.09122807017543859 0.5298245614035088 0.3368421052631579 0.03859649122807018 0.003508771929824561 0.02857142857142857 0.1714285714285714 0.3142857142857143 0.3142857142857143 0.1714285714285714 0.02857142857142857 0.02857142857142857 0.02857142857142857 0.02857142857142857 0.8857142857142857 0.02 0.02 0.22 0.52 0.22 0.2799999999999999 0.6184615384615384 0.09538461538461537 0.003076923076923076 0.003076923076923076 0.02857142857142857 0.02857142857142857 0.8857142857142857 0.02857142857142857 0.02857142857142857 0.2 0.2 0.2 0.2 0.2 0.0125 0.0125 0.0125 0.9500000000000002 0.0125 0.004545454545454545 0.9818181818181818 0.004545454545454545 0.004545454545454545 0.004545454545454545 0.2 0.2 0.2 0.2 0.2 0.2 0.2 0.2 0.2 0.2 0.002702702702702702 0.5837837837837837 0.408108108108108 0.002702702702702702 0.002702702702702702 0.1592592592592592 0.5296296296296297 0.2981481481481482 0.01111111111111111 0.001851851851851852 0.01176470588235294 0.07058823529411765 0.07058823529411765 0.4235294117647059 0.4235294117647059 0.009090909090909092 0.009090909090909092 0.009090909090909092 0.009090909090909092 0.9636363636363636 0.008333333333333335 0.008333333333333335 0.2166666666666667 0.55 0.2166666666666667 0.2787878787878788 0.6272727272727273 0.06161616161616162 0.03131313131313131 0.00101010101010101 0.01818181818181818 0.01818181818181818 0.01818181818181818 0.01818181818181818 0.9272727272727272 0.2 0.2 0.2 0.2 0.2 0.006896551724137933 0.006896551724137933 0.4206896551724139 0.2137931034482759 0.3517241379310345 0.2 0.2 0.2 0.2 0.2 0.006250000000000002 0.006250000000000002 0.006250000000000002 0.9750000000000002 0.006250000000000002 0.2 0.2 0.2 0.2 0.2 0.006250000000000002 0.006250000000000002 0.006250000000000002 0.9750000000000002 0.006250000000000002 0.2693333333333333 0.5626666666666666 0.1226666666666666 0.04266666666666666 0.002666666666666666 0.025 0.025 0.15 0.275 0.525 0.01176470588235294 0.01176470588235294 0.01176470588235294 0.01176470588235294 0.9529411764705882 0.025 0.025 0.4 0.525 0.025 0.3701754385964912 0.3614035087719298 0.2649122807017544 0.001754385964912281 0.001754385964912281 0.004545454545454546 0.004545454545454546 0.4818181818181818 0.1409090909090909 0.3681818181818182 0.2 0.2 0.2 0.2 0.2 0.2 0.2 0.2 0.2 0.2 0.004651162790697673 0.9813953488372092 0.004651162790697673 0.004651162790697673 0.004651162790697673 0.002702702702702702 0.002702702702702702 0.002702702702702702 0.9891891891891891 0.002702702702702702 0.004651162790697674 0.004651162790697674 0.004651162790697674 0.004651162790697674 0.9813953488372094 0.2 0.2 0.2 0.2 0.2 0.6230769230769231 0.3538461538461539 0.007692307692307693 0.007692307692307693 0.007692307692307693 0.02857142857142857 0.1714285714285714 0.02857142857142857 0.3142857142857143 0.4571428571428571 0.2 0.2 0.2 0.2 0.2 0.03333333333333333 0.2 0.03333333333333333 0.3666666666666667 0.3666666666666667 0.8499999999999999 0.1416666666666666 0.002777777777777777 0.002777777777777777 0.002777777777777777 0.00425531914893617 0.3234042553191489 0.00425531914893617 0.5361702127659574 0.1319148936170213 0.2 0.2 0.2 0.2 0.2 0.01538461538461539 0.01538461538461539 0.4769230769230769 0.4769230769230769 0.01538461538461539 0.2435483870967742 0.7516129032258064 0.001612903225806452 0.001612903225806452 0.001612903225806452 0.001550387596899225 0.3271317829457365 0.3348837209302326 0.3348837209302326 0.001550387596899225 0.2 0.2 0.2 0.2 0.2 0.003174603174603175 0.003174603174603175 0.4952380952380952 0.4952380952380952 0.003174603174603175 0.4842105263157895 0.4842105263157895 0.01052631578947369 0.01052631578947369 0.01052631578947369 0.04000000000000001 0.24 0.24 0.04000000000000001 0.4400000000000001 0.03333333333333333 0.03333333333333333 0.03333333333333333 0.03333333333333333 0.8666666666666667 0.05 0.05 0.3 0.55 0.05 0.9783783783783783 0.005405405405405405 0.005405405405405405 0.005405405405405405 0.005405405405405405 0.009523809523809526 0.009523809523809526 0.9619047619047622 0.009523809523809526 0.009523809523809526 0.2 0.2 0.2 0.2 0.2 0.01176470588235294 0.01176470588235294 0.6 0.01176470588235294 0.3647058823529412 0.2 0.2 0.2 0.2 0.2 0.006250000000000002 0.006250000000000002 0.006250000000000002 0.9750000000000002 0.006250000000000002 0.2 0.2 0.2 0.2 0.2 0.2 0.2 0.2 0.2 0.2 0.5857142857142857 0.3714285714285715 0.01428571428571429 0.01428571428571429 0.01428571428571429 0.4 0.06666666666666667 0.06666666666666667 0.06666666666666667 0.4 0.04000000000000001 0.04000000000000001 0.04000000000000001 0.04000000000000001 0.8400000000000001 0.04000000000000001 0.04000000000000001 0.24 0.4400000000000001 0.24 0.7314285714285713 0.26 0.002857142857142857 0.002857142857142857 0.002857142857142857 0.2 0.2 0.2 0.2 0.2 0.2 0.2 0.2 0.2 0.2 0.4842105263157894 0.01052631578947368 0.01052631578947368 0.01052631578947368 0.4842105263157894 0.006250000000000002 0.9750000000000002 0.006250000000000002 0.006250000000000002 0.006250000000000002 0.2 0.2 0.2 0.2 0.2 0.2 0.2 0.2 0.2 0.2 0.2 0.2 0.2 0.2 0.2 0.6105263157894736 0.2947368421052631 0.08421052631578947 0.005263157894736842 0.005263157894736842 0.06666666666666667 0.06666666666666667 0.4 0.4 0.06666666666666667 0.06666666666666667 0.06666666666666667 0.06666666666666667 0.06666666666666667 0.7333333333333334 0.02222222222222222 0.4666666666666667 0.1333333333333333 0.1333333333333333 0.2444444444444445 0.8167597765363129 0.1240223463687151 0.0569832402234637 0.00111731843575419 0.00111731843575419 0.007692307692307693 0.007692307692307693 0.9692307692307692 0.007692307692307693 0.007692307692307693 0.2 0.2 0.2 0.2 0.2 0.009090909090909092 0.4181818181818182 0.009090909090909092 0.009090909090909092 0.5545454545454546 0.9952095808383234 0.001197604790419162 0.001197604790419162 0.001197604790419162 0.001197604790419162 0.2 0.2 0.2 0.2 0.2 0.2 0.2 0.2 0.2 0.2 0.001342281879194631 0.2899328859060403 0.7060402684563758 0.001342281879194631 0.001342281879194631 0.6761904761904763 0.2952380952380953 0.009523809523809526 0.009523809523809526 0.009523809523809526 0.1 0.1 0.1 0.1 0.6 0.04000000000000001 0.04000000000000001 0.04000000000000001 0.04000000000000001 0.8400000000000001 0.04000000000000001 0.04000000000000001 0.24 0.04000000000000001 0.6400000000000001 0.821311475409836 0.1737704918032787 0.001639344262295082 0.001639344262295082 0.001639344262295082 0.02857142857142857 0.02857142857142857 0.02857142857142857 0.8857142857142857 0.02857142857142857 0.01538461538461539 0.01538461538461539 0.01538461538461539 0.01538461538461539 0.9384615384615385 0.005405405405405406 0.005405405405405406 0.7081081081081081 0.005405405405405406 0.2756756756756757 0.8868217054263567 0.1116279069767442 0.0005167958656330751 0.0005167958656330751 0.0005167958656330751 0.2 0.2 0.2 0.2 0.2 0.2 0.2 0.2 0.2 0.2 0.00145985401459854 0.994160583941606 0.00145985401459854 0.00145985401459854 0.00145985401459854 0.00125 0.0325 0.11375 0.70125 0.15125 0.004651162790697674 0.004651162790697674 0.004651162790697674 0.2372093023255814 0.7488372093023257 0.02 0.02 0.02 0.02 0.9199999999999999 0.00625 0.00625 0.00625 0.1 0.88125 0.005714285714285714 0.005714285714285714 0.1771428571428571 0.8057142857142857 0.005714285714285714 0.01052631578947368 0.01052631578947368 0.01052631578947368 0.01052631578947368 0.9578947368421051 0.2 0.2 0.2 0.2 0.2 0.2 0.2 0.2 0.2 0.2 0.2 0.2 0.2 0.2 0.2 0.002666666666666667 0.002666666666666667 0.002666666666666667 0.416 0.5760000000000001 0.2 0.2 0.2 0.2 0.2 0.2 0.2 0.2 0.2 0.2 0.001058201058201058 0.01164021164021164 0.1068783068783069 0.6783068783068782 0.2021164021164021 0.007142857142857143 0.007142857142857143 0.007142857142857143 0.2214285714285714 0.7571428571428571 0.01111111111111111 0.01111111111111111 0.01111111111111111 0.01111111111111111 0.9555555555555555 0.006666666666666667 0.006666666666666667 0.006666666666666667 0.1733333333333333 0.8066666666666666 0.003508771929824561 0.003508771929824561 0.2140350877192982 0.6701754385964912 0.1087719298245614 0.00625 0.00625 0.00625 0.00625 0.975 0.2 0.2 0.2 0.2 0.2 0.02857142857142857 0.02857142857142857 0.02857142857142857 0.8857142857142857 0.02857142857142857 0.006250000000000002 0.006250000000000002 0.9750000000000002 0.006250000000000002 0.006250000000000002 0.2 0.2 0.2 0.2 0.2 0.2 0.2 0.2 0.2 0.2 0.2 0.2 0.2 0.2 0.2 0.001923076923076923 0.02115384615384615 0.1269230769230769 0.7134615384615384 0.1365384615384615 0.02 0.02 0.02 0.22 0.7200000000000001 0.02222222222222222 0.02222222222222222 0.02222222222222222 0.02222222222222222 0.911111111111111 0.01818181818181818 0.01818181818181818 0.01818181818181818 0.2 0.7454545454545454 0.002985074626865672 0.09253731343283582 0.182089552238806 0.5850746268656717 0.1373134328358209 0.2 0.2 0.2 0.2 0.2 0.009090909090909092 0.009090909090909092 0.009090909090909092 0.009090909090909092 0.9636363636363636 0.2 0.2 0.2 0.2 0.2 0.2 0.2 0.2 0.2 0.2 0.2 0.2 0.2 0.2 0.2 0.2 0.2 0.2 0.2 0.2 0.2 0.2 0.2 0.2 0.2 0.001129943502824859 0.09152542372881356 0.1480225988700565 0.6225988700564972 0.1367231638418079 0.005000000000000001 0.005000000000000001 0.005000000000000001 0.205 0.78 0.005882352941176471 0.005882352941176471 0.005882352941176471 0.005882352941176471 0.9764705882352942 0.006060606060606061 0.006060606060606061 0.006060606060606061 0.2181818181818182 0.7636363636363637 0.001801801801801802 0.001801801801801802 0.1729729729729729 0.6954954954954954 0.1279279279279279 0.007407407407407408 0.007407407407407408 0.007407407407407408 0.5259259259259259 0.4518518518518518 0.01052631578947368 0.01052631578947368 0.01052631578947368 0.01052631578947368 0.9578947368421051 0.02857142857142857 0.02857142857142857 0.02857142857142857 0.8857142857142857 0.02857142857142857 0.004545454545454545 0.004545454545454545 0.004545454545454545 0.9818181818181818 0.004545454545454545 0.2 0.2 0.2 0.2 0.2 0.004545454545454546 0.004545454545454546 0.004545454545454546 0.004545454545454546 0.9818181818181819 0.003225806451612903 0.003225806451612903 0.003225806451612903 0.003225806451612903 0.9870967741935484 0.01142857142857143 0.1066666666666666 0.1447619047619047 0.6114285714285714 0.1257142857142857 0.01818181818181818 0.01818181818181818 0.01818181818181818 0.01818181818181818 0.9272727272727272 0.007142857142857143 0.007142857142857143 0.007142857142857143 0.007142857142857143 0.9714285714285713 0.01818181818181818 0.01818181818181818 0.01818181818181818 0.1090909090909091 0.8363636363636363 0.002777777777777778 0.002777777777777778 0.3638888888888889 0.4611111111111111 0.1694444444444444 0.007692307692307693 0.007692307692307693 0.007692307692307693 0.007692307692307693 0.9692307692307692 0.2 0.2 0.2 0.2 0.2 0.2 0.2 0.2 0.2 0.2 0.0005586592178770951 0.0005586592178770951 0.6178770949720671 0.3804469273743017 0.0005586592178770951 0.00625 0.00625 0.00625 0.00625 0.975 0.2 0.2 0.2 0.2 0.2 0.2 0.2 0.2 0.2 0.2 0.00909090909090909 0.09242424242424242 0.3878787878787879 0.5015151515151516 0.00909090909090909 0.004081632653061224 0.004081632653061224 0.06530612244897958 0.2081632653061224 0.7183673469387755 0.02222222222222222 0.02222222222222222 0.02222222222222222 0.02222222222222222 0.911111111111111 0.005555555555555556 0.005555555555555556 0.005555555555555556 0.3388888888888889 0.6444444444444444 0.08493150684931507 0.3315068493150685 0.2493150684931507 0.3315068493150685 0.00273972602739726 0.02857142857142857 0.02857142857142857 0.02857142857142857 0.02857142857142857 0.8857142857142857 0.02857142857142857 0.02857142857142857 0.02857142857142857 0.02857142857142857 0.8857142857142857 0.01818181818181818 0.01818181818181818 0.01818181818181818 0.01818181818181818 0.9272727272727272 0.002702702702702702 0.5702702702702702 0.4216216216216215 0.002702702702702702 0.002702702702702702 0.2 0.2 0.2 0.2 0.2 0.2 0.2 0.2 0.2 0.2 0.2 0.2 0.2 0.2 0.2 0.00106951871657754 0.1133689839572192 0.3647058823529412 0.4770053475935829 0.04385026737967914 0.008333333333333333 0.008333333333333333 0.008333333333333333 0.3416666666666666 0.6333333333333333 0.01818181818181818 0.01818181818181818 0.01818181818181818 0.01818181818181818 0.9272727272727272 0.007407407407407408 0.007407407407407408 0.04444444444444444 0.4148148148148147 0.5259259259259259 0.002105263157894736 0.391578947368421 0.4757894736842105 0.06526315789473683 0.06526315789473683 0.008 0.008 0.008 0.608 0.368 0.02857142857142857 0.02857142857142857 0.02857142857142857 0.02857142857142857 0.8857142857142857 0.01818181818181818 0.01818181818181818 0.01818181818181818 0.9272727272727274 0.01818181818181818 0.2 0.2 0.2 0.2 0.2 0.2 0.2 0.2 0.2 0.2 0.2 0.2 0.2 0.2 0.2 0.2 0.2 0.2 0.2 0.2 0.001851851851851852 0.2148148148148148 0.3907407407407407 0.3722222222222222 0.02037037037037037 0.0125 0.0125 0.0125 0.325 0.6375 0.03333333333333333 0.03333333333333333 0.03333333333333333 0.03333333333333333 0.8666666666666667 0.01428571428571429 0.01428571428571429 0.0857142857142857 0.5142857142857142 0.3714285714285714 0.1016393442622951 0.1016393442622951 0.6918032786885245 0.1016393442622951 0.003278688524590163 0.008695652173913044 0.008695652173913044 0.008695652173913044 0.008695652173913044 0.9652173913043478 0.2 0.2 0.2 0.2 0.2 0.2 0.2 0.2 0.2 0.2 0.00145985401459854 0.00145985401459854 0.2277372262773723 0.7678832116788321 0.00145985401459854 0.2 0.2 0.2 0.2 0.2 0.2 0.2 0.2 0.2 0.2 0.2 0.2 0.2 0.2 0.2 0.02153846153846154 0.1497435897435897 0.3651282051282052 0.4317948717948718 0.0317948717948718 0.009090909090909092 0.009090909090909092 0.05454545454545454 0.2363636363636364 0.6909090909090909 0.01818181818181818 0.01818181818181818 0.01818181818181818 0.01818181818181818 0.9272727272727272 0.005882352941176471 0.005882352941176471 0.005882352941176471 0.388235294117647 0.5941176470588235 0.08905109489051094 0.235036496350365 0.2277372262773723 0.4467153284671533 0.00145985401459854 0.006060606060606061 0.006060606060606061 0.1878787878787879 0.4606060606060606 0.3393939393939394 0.007692307692307693 0.007692307692307693 0.007692307692307693 0.007692307692307693 0.9692307692307692 0.01538461538461539 0.01538461538461539 0.01538461538461539 0.4769230769230769 0.4769230769230769 0.2943396226415094 0.2943396226415094 0.4075471698113207 0.001886792452830188 0.001886792452830188 0.006451612903225808 0.006451612903225808 0.006451612903225808 0.9741935483870969 0.006451612903225808 0.2 0.2 0.2 0.2 0.2 0.2 0.2 0.2 0.2 0.2 0.01016949152542373 0.2389830508474576 0.4169491525423728 0.3322033898305085 0.001694915254237288 0.0125 0.075 0.075 0.1375 0.7 0.008 0.008 0.008 0.008 0.968 0.01 0.01 0.06 0.41 0.51 0.1652173913043478 0.1652173913043478 0.5021739130434782 0.06739130434782607 0.09999999999999998 0.005555555555555556 0.005555555555555556 0.005555555555555556 0.4222222222222222 0.561111111111111 0.2 0.2 0.2 0.2 0.2 0.008695652173913044 0.008695652173913044 0.2695652173913043 0.008695652173913044 0.7043478260869565 0.0009009009009009011 0.1900900900900901 0.1945945945945946 0.6135135135135136 0.0009009009009009011 0.006250000000000002 0.006250000000000002 0.006250000000000002 0.9750000000000002 0.006250000000000002 0.00273972602739726 0.00273972602739726 0.00273972602739726 0.00273972602739726 0.9890410958904109 0.006451612903225806 0.006451612903225806 0.006451612903225806 0.006451612903225806 0.9741935483870967 0.06792452830188678 0.3886792452830188 0.3792452830188678 0.1622641509433962 0.001886792452830188 