<?xml version="1.0" encoding="ISO-8859-1"?>
<!-- This network was created in GeNIe Academic, which can be used for educational and research purposes only -->
<smile version="1.0" id="Unnamed" numsamples="10000" discsamples="10000">
	<nodes>
		<cpt id="OA_MAIS">
			<state id="s1" />
			<state id="s2" />
			<state id="s3" />
			<probabilities>0.2863491583890421 0.2854993642280722 0.4281514773828858</probabilities>
		</cpt>
		<cpt id="GV_CURBWGT">
			<state id="s1_below_1220" />
			<state id="s2_1220_1410" />
			<state id="s3_1410_1520" />
			<state id="s4_1520_1630" />
			<state id="s5_1630_1900" />
			<state id="s6_1900_up" />
			<parents>OA_MAIS</parents>
			<probabilities>0.1419919985931593 0.1504989888332015 0.1642156862745098 0.1468719774905478 0.1785258946627979 0.2178954541457839 0.1783958374672046 0.1532619000374804 0.1694666754855921 0.1449280155213087 0.1709217981788919 0.1830257733095222 0.1696805304400241 0.1889545568150076 0.1607271497669769 0.1926594039900616 0.1562725120922095 0.1317058468957203</probabilities>
		</cpt>
		<cpt id="GV_MODELYR">
			<state id="s1_below_2002" />
			<state id="s2_2002_2004" />
			<state id="s3_2004_2007" />
			<state id="s4_2007_2009" />
			<state id="s5_2009_up" />
			<parents>GV_CURBWGT OA_MAIS</parents>
			<probabilities>0.5441968430826369 0.2052924791086351 0.1765088207985144 0.05951717734447539 0.01448467966573816 0.6023721275018532 0.1968865826538176 0.1587101556708673 0.02453669384729429 0.01749444032616753 0.5645010395010395 0.1572765072765073 0.1338877338877339 0.09776507276507276 0.04656964656964657 0.411826544021025 0.2046430135786246 0.2554533508541393 0.0955759964958388 0.03250109505037232 0.4172562553925798 0.2287316652286454 0.2451251078515962 0.07558239861949957 0.03330457290767903 0.4334189031505251 0.2224504084014003 0.2663243873978997 0.07052508751458576 0.007281213535589265 0.3200321156162184 0.2654355680449619 0.3027699718988359 0.08117221999197109 0.03059012444801285 0.3687865782286384 0.2712446351931331 0.2782676550916894 0.06601638704642997 0.01568474444010925 0.307599451303155 0.3487517146776407 0.2829080932784637 5.486968449931414e-05 0.06068587105624142 0.4175044883303412 0.2047576301615799 0.2487432675044884 0.1010771992818671 0.02791741472172352 0.4672445255474453 0.2208941605839416 0.2085766423357664 0.08813868613138685 0.01514598540145986 0.5104600595101855 0.2163424124513619 0.2154268711375601 0.04788281071183338 0.009887846189059284 0.4022156573116692 0.2112998522895126 0.253397341211226 0.09497784342688331 0.03810930576070901 0.494468085106383 0.1900193423597679 0.2302514506769826 0.06584139264990328 0.01941972920696325 0.5141647855530473 0.224097065462754 0.2181715575620767 0.01755079006772009 0.0260158013544018 0.3410590015128593 0.2654160363086233 0.2905295007564296 0.07540090771558244 0.02759455370650529 0.3953034682080925 0.2529624277456647 0.2851156069364162 0.06221098265895953 0.004407514450867052 0.4526950117174423 0.2960160696350854 0.2160026782725143 0.01446267157683294 0.02082356879812521</probabilities>
		</cpt>
		<cpt id="GV_LANES">
			<state id="State1" />
			<state id="State2" />
			<state id="State3" />
			<state id="State4" />
			<state id="State5" />
			<state id="State6" />
			<state id="State7" />
			<parents>GV_MODELYR OA_MAIS</parents>
			<probabilities>0.02066427627854312 0.3672626910737876 0.1811662577844876 0.2107237214568786 0.165314210228345 0.0340394414040385 0.02082940177391961 0.01487494334335984 0.4344019119040751 0.1677448596975565 0.1889447443240347 0.1363055750133916 0.03059458568544233 0.02713338003213977 0.01564593625228396 0.5450632740069027 0.2197198348785275 0.1270623265886175 0.07391216079041756 0.01858293293631996 1.353454693104148e-05 0.02305605786618445 0.36080059181325 0.1853115239191188 0.2212723984875883 0.1585566332401775 0.03168666776261713 0.01931612691106362 0.007326007326007324 0.4709040959040958 0.1719530469530469 0.1769064269064269 0.1317432567432567 0.03384115884115883 0.007326007326007324 0.02368290063136936 0.390636870922952 0.1846951874459668 0.2376935369783343 0.1069398234261612 0.02349951533886982 0.03285216525634644 0.02275213301246992 0.3744621891635674 0.1871217093269161 0.2052431998833224 0.1575147670094071 0.03245095894406767 0.0204550426602494 0.007362111276501588 0.4148529589250513 0.1822424266806131 0.1909723619101259 0.1467594641348513 0.04002896568371082 0.01778171138914592 0.01231283081887401 0.4432619094794645 0.1181182597865776 0.3140762546350024 0.06224348269127346 0.02915451895043732 0.02083274363837074 0.02354910714285714 0.3641741071428572 0.1821428571428572 0.1907366071428571 0.1751116071428571 0.04464285714285715 0.01964285714285714 0.01283600120809423 0.3521594684385382 0.2337662337662338 0.205225007550589 0.1344004832376925 0.04877680459075808 0.01283600120809423 0.0001438641922025608 0.3969213062868652 0.2116242267299669 0.08675010789814415 0.06157387426269602 0.1371025751690404 0.1058840454610847 0.02544031311154599 0.3336594911937377 0.2217873450750163 0.1898238747553816 0.162426614481409 0.03913894324853229 0.02772341813437704 0.02362637362637363 0.2620879120879121 0.1928571428571429 0.239010989010989 0.1736263736263736 0.1082417582417582 0.0005494505494505495 0.0002271178741766977 0.216443334090393 0.0002271178741766977 0.4024528730411084 0.380195321371792 0.0002271178741766977 0.0002271178741766977</probabilities>
		</cpt>
		<cpt id="GV_SPLIMIT">
			<state id="s1_below_35" />
			<state id="s2_35_40" />
			<state id="s3_40_45" />
			<state id="s4_45_55" />
			<state id="s5_55_up" />
			<parents>GV_LANES OA_MAIS</parents>
			<probabilities>0.4172619047619048 0.1613095238095238 0.07797619047619049 0.1613095238095238 0.1821428571428572 0.4404624277456647 0.1630057803468208 0.03583815028901734 0.1572254335260115 0.2034682080924856 0.415126050420168 0.0005602240896358544 0.0005602240896358544 0.1714285714285714 0.4123249299719888 0.3593378913278157 0.1954300107952501 0.0881971932349766 0.1965095358042461 0.1605253688377114 0.236536982930955 0.1541134860833462 0.09029678609872367 0.2399200369060434 0.2791327079809319 0.1835696178762558 0.1021688104403342 0.1077081964134823 0.2281663693549901 0.3783870059149375 0.1872370766488414 0.2264527629233512 0.139108734402852 0.2638859180035651 0.1833155080213904 0.161751497005988 0.1688622754491018 0.1363023952095808 0.2545658682634731 0.2785179640718563 0.09779820953302686 0.100701669489475 0.1536898136946528 0.3499153157512703 0.2978949915315751 0.1454831602140384 0.2663519043122443 0.1631098520616934 0.2632042807680202 0.1618508026440038 0.1301542776998597 0.2658485273492286 0.1368162692847125 0.2946002805049088 0.1725806451612903 0.1131521262604121 0.1806663743971942 0.1841736080666375 0.2003945637878124 0.3216133274879439 0.09703853955375252 0.3355780933062881 0.1298985801217039 0.3120486815415822 0.1254361054766734 0.05078909612625539 0.2722142515542803 0.1665231946437112 0.3602104256336681 0.1502630320420851 0.01577350859453994 0.3236602628918099 0.1366026289180991 0.2624873609706774 0.2614762386248736 0.06988416988416989 0.2185328185328186 0.1683397683397684 0.3691119691119691 0.1741312741312741 0.06091743119266056 0.1343119266055046 0.1801834862385321 0.4242201834862385 0.2003669724770642 0.0003289473684210526 0.3638157894736841 0.1203947368421053 0.1713815789473684 0.344078947368421 0.04565916398713827 0.4411575562700965 0.1742765273311897 0.2868167202572348 0.05209003215434084 0.0629757785467128 0.4193771626297578 0.170242214532872 0.2948096885813149 0.05259515570934256 0.2697435897435898 0.1107692307692308 0.2697435897435898 0.3492307692307692 0.0005128205128205129</probabilities>
		</cpt>
		<cpt id="VE_GAD1">
			<state id="Front" />
			<state id="Left" />
			<state id="Rear" />
			<state id="Right" />
			<state id="SN_A" />
			<parents>GV_SPLIMIT OA_MAIS</parents>
			<probabilities>0.5214411247803163 0.2156414762741652 0.04311657879320445 0.1629173989455185 0.05688342120679554 0.5422135922330098 0.3134757281553399 0.009398058252427184 0.1208543689320388 0.01405825242718447 0.1570253164556962 0.6310759493670887 0.04310126582278481 0.1687341772151899 6.329113924050633e-05 0.581021897810219 0.1381995133819951 0.07169505271695052 0.1503649635036496 0.05871857258718573 0.6221112221112222 0.2381618381618382 0.02970362970362971 0.1099567099567099 6.66000666000666e-05 0.3981441385709867 0.3978348283328179 0.01892978657593566 0.1850293844726261 6.186204763377668e-05 0.6061505832449628 0.1135737009544008 0.09183457051961823 0.1432661717921527 0.04517497348886532 0.7022246337493216 0.137927292457949 0.03266413456321215 0.1151383613673358 0.01204557786218122 0.5018560729404103 0.1876261803972648 0.01015955714750895 0.3002930641484859 6.512536633018561e-05 0.6066277836691411 0.1132555673382821 0.1029162248144221 0.1373806998939555 0.03981972428419937 0.6818769451759638 0.1626047402441944 0.0385922911180273 0.1130476418482164 0.003878381613598277 0.5232935305649618 0.1950098021743005 0.04156121903404028 0.240099803956514 3.5644270183568e-05 0.5849812265331664 0.1022945348352107 0.1715477680433876 0.1031289111389237 0.03804755944931164 0.686581560283688 0.1600567375886525 0.07381560283687945 0.07778723404255321 0.001758865248226951 0.557379636937648 0.2540384109444883 0.0900026308866088 0.09855301236516707 2.630886608787162e-05</probabilities>
		</cpt>
		<cpt id="GV_DVLAT">
			<state id="s1_below_n10" />
			<state id="s2_n10_0" />
			<state id="s3_0_3" />
			<state id="s4_3_14" />
			<state id="s5_14_up" />
			<parents>VE_GAD1 OA_MAIS</parents>
			<probabilities>0.08618053178135342 0.2305374871619308 0.3440830765719502 0.2842862033550154 0.05491270112975008 0.1273226824056172 0.1694515111427699 0.3327770428411519 0.2996031342220413 0.07084562938841966 0.146808915983997 0.1159458944560869 0.4883025338159649 0.1910078110116213 0.05793484473232997 9.372071227741331e-05 0.002905342080599813 0.08069353327085285 0.4822867853795689 0.434020618556701 6.622516556291391e-05 6.622516556291391e-05 0.03251655629139073 0.2394701986754967 0.7278807947019867 2.906131938390003e-05 2.906131938390003e-05 0.004533565823888404 0.1315315315315315 0.8638767800058123 0.01025270758122743 0.15971119133574 0.6983393501805053 0.1257761732851985 0.005920577617328518 0.01546218487394958 0.1751260504201681 0.6389915966386555 0.16 0.01042016806722689 0.03769633507853402 0.1921465968586387 0.7052356020942407 0.06474694589877834 0.0001745200698080279 0.6621042830540037 0.3180633147113594 0.004748603351955307 0.01126629422718808 0.003817504655493482 0.8519999999999999 0.136375 0.000125 0.011375 0.000125 0.967277108433735 0.03257831325301205 4.819277108433736e-05 4.819277108433736e-05 4.819277108433736e-05 0.06124661246612467 0.1560975609756098 0.4677506775067751 0.2346883468834688 0.08021680216802168 0.002469135802469136 0.2123456790123457 0.3604938271604938 0.3481481481481481 0.07654320987654321 0.2 0.2 0.2 0.2 0.2</probabilities>
		</cpt>
		<cpt id="VE_PDOF_TR">
			<state id="Front" />
			<state id="Left" />
			<state id="Rear" />
			<state id="Right" />
			<parents>VE_GAD1 OA_MAIS</parents>
			<probabilities>0.9277929932671459 0.03974095629350679 0.0007132260641332876 0.03175282437521396 0.9632899155388216 0.0175282385265086 0.0006360028492927648 0.01854584308537702 0.9841160220994476 0.01583634978091065 2.381405982091827e-05 2.381405982091827e-05 0.332825679475164 0.6032099343955014 0.06384723523898782 0.0001171508903467666 0.2358443708609272 0.749751655629139 0.01432119205298013 8.278145695364238e-05 0.2335440278988666 0.7620241208950886 0.004395524556814879 3.632664922987504e-05 0.02833935018050541 0.004512635379061372 0.9619133574007219 0.005234657039711191 0.0004201680672268908 0.0004201680672268908 0.9987394957983193 0.0004201680672268908 0.0002181500872600349 0.0002181500872600349 0.9993455497382199 0.0002181500872600349 0.2994646182495345 0.00616852886405959 0.03829143389199255 0.6560754189944134 0.24453125 0.00015625 0.01015625 0.74515625 0.1181325301204819 6.024096385542168e-05 6.024096385542168e-05 0.8817469879518072 0.7523712737127372 0.1209349593495935 0.06808943089430894 0.05860433604336043 0.9166666666666666 0.07716049382716049 0.00308641975308642 0.00308641975308642 0.25 0.25 0.25 0.25</probabilities>
		</cpt>
		<cpt id="GV_DVLONG">
			<state id="s1_below_n34" />
			<state id="s2_n34_n22" />
			<state id="s3_n22_n15" />
			<state id="s4_n15_n7" />
			<state id="s5_n7_up" />
			<parents>VE_PDOF_TR OA_MAIS</parents>
			<probabilities>0.08902560031752332 0.243718991863465 0.2880730303631673 0.3401666997420123 0.03901567771383211 0.3131529500187899 0.3221721157459601 0.2116873355881247 0.14141300263059 0.01157459601653514 0.4368975782444283 0.2208705446938611 0.2153190119880923 0.1234371228578325 0.003475742215785663 0.006995412844036698 0.01903669724770642 0.06261467889908258 0.3177752293577982 0.5935779816513762 0.01031518624641834 0.05861645517805976 0.1896029471960704 0.3562013917314777 0.3852640196479738 0.01371280724450194 0.09798558491960822 0.1395675475882462 0.3711328774718167 0.377601182775827 0.0001244555071561917 0.0001244555071561917 0.0001244555071561917 0.0001244555071561917 0.9995021779713753 0.000303030303030303 0.000303030303030303 0.000303030303030303 0.000303030303030303 0.9987878787878789 0.0001700680272108844 0.0001700680272108844 0.0001700680272108844 0.0001700680272108844 0.9993197278911564 0.004142692750287687 0.019102416570771 0.07894131185270425 0.3936708860759494 0.5041426927502877 0.02050909090909091 0.08159999999999999 0.2386909090909091 0.3674181818181818 0.2917818181818181 0.07382513661202185 0.1948633879781421 0.1929508196721312 0.1678142076502732 0.3705464480874317</probabilities>
		</cpt>
		<cpt id="GV_ENERGY">
			<state id="s1_below_210" />
			<state id="s2_210_466" />
			<state id="s3_466_1138" />
			<state id="s4_1138_up" />
			<parents>GV_DVLONG OA_MAIS</parents>
			<probabilities>0.02208287895310796 0.1191384950926936 0.4811886586695747 0.3775899672846238 0.01424564511366991 0.07713315618541483 0.3463979923235902 0.562223206377325 0.01077922077922078 0.01614718614718615 0.1496536796536796 0.8234199134199134 0.1075108997225525 0.3683115338882283 0.4190447879508522 0.105132778438367 0.05841248303934871 0.2958616010854817 0.4795793758480326 0.1661465400271371 0.08930809726748558 0.2286914013537227 0.2996365003760341 0.3823640010027576 0.3454761904761905 0.401984126984127 0.2264285714285714 0.02611111111111111 0.2184729064039409 0.4040229885057471 0.2917077175697865 0.08579638752052546 0.3035886901884969 0.2395480908651522 0.3038303528274529 0.153032866118898 0.6186522391257767 0.2614634668952218 0.1054746089565031 0.01440968502249839 0.4148733078792086 0.3110898993405068 0.1975876431794516 0.07644914960083304 0.3572889102718307 0.2307553524176089 0.2334014914601877 0.1785542458503729 0.5030043467143953 0.2915494758373818 0.1496420352850933 0.05580414216312964 0.3285882352941177 0.3182352941176471 0.1798823529411765 0.1732941176470588 0.1966760502381983 0.3354807275877003 0.1986249458640104 0.2692182763100909</probabilities>
		</cpt>
		<cpt id="GV_OTVEHWGT">
			<state id="s1_below_1310" />
			<state id="s2_1310_1490" />
			<state id="s3_1490_1630" />
			<state id="s4_1630_1830" />
			<state id="s5_1830_2140" />
			<state id="s6_2140_up" />
			<parents>GV_CURBWGT OA_MAIS</parents>
			<probabilities>0.2577375425564841 0.1959919529557413 0.1574589910244507 0.1463169297431136 0.1430671618693903 0.09942742185082018 0.2098468000988387 0.1983568075117371 0.1449839387200396 0.1846429453916482 0.1390536199654065 0.1231158883123301 0.02395183645183645 0.1533697158697159 0.1980682605682606 0.1889726264726265 0.2453655578655579 0.1902720027720028 0.2379179442254344 0.1884216673967003 0.1752810629288948 0.159950357716455 0.1454956928018689 0.09293327493064682 0.1700460166810469 0.1640063272936439 0.1847138337647397 0.1312194420477423 0.2028329019269485 0.1471814782858787 0.09082069233761184 0.1146246596654998 0.2007390120575651 0.2469467133411124 0.1839362115908207 0.1629327110073901 0.2072126321423793 0.203198180115081 0.1710825638966948 0.1461929613274455 0.1618493242339088 0.1104643382844909 0.172909351020939 0.1705683443880869 0.1651059955780986 0.154571465730264 0.1931980751723241 0.1436467681102874 0.05738454503886602 0.1160951074531322 0.1915409236396891 0.1613625971650663 0.2524462734339278 0.2211705532693187 0.2173099940155596 0.1863405146618791 0.1854428485936565 0.1567175344105326 0.1522292040694195 0.1019599042489527 0.1551855231143552 0.1702402676399027 0.1894008515815085 0.1570103406326034 0.1606599756690998 0.1675030413625304 0.2112993057145037 0.1536202029449912 0.1000610360875868 0.1382848859388113 0.2039749752040894 0.1927595941100175 0.2290128015755786 0.2035327424913836 0.1747291974396849 0.1488798621368784 0.142232890201871 0.1016125061546037 0.1598323662153449 0.1725983236621534 0.1695035460992908 0.1582849774339136 0.1973565441650548 0.1424242424242424 0.1981282919488337 0.1196858540255832 0.2178799849510911 0.1467738901429646 0.07425696012039129 0.2432750188111362 0.2094301563287948 0.1852244074634392 0.1761472516389309 0.1510337871911246 0.154362077660111 0.1238023197175996 0.1655226396917148 0.182502408477842 0.1709417148362235 0.1315631021194605 0.1994821772639691 0.14998795761079 0.1580738756835175 0.1610869322620243 0.08073875683517465 0.08442138154223859 0.149704274076554 0.3659747796004911</probabilities>
		</cpt>
		<cpt id="GV_WGTCDTR">
			<state id="SPassenger_Car" />
			<state id="STruck____10000_lbs__" />
			<state id="STruck____6000_lbs__" />
			<parents>GV_CURBWGT OA_MAIS</parents>
			<probabilities>0.9778706282884554 0.001083255957907768 0.02104611575363664 0.9901161354089447 0.0001235483073881888 0.009760316283666911 0.9805959805959805 8.662508662508661e-05 0.01931739431739431 0.926558621696598 0.0005840268652358007 0.07285735143816614 0.896174863387978 0.0001438021282714984 0.1036813344837503 0.8994943601711397 7.779074290159471e-05 0.1004278490859588 0.7941924260671752 0.001739595878495919 0.2040679780543289 0.771101573676681 0.0001300559240473403 0.2287683703992717 0.7740283493369913 9.144947416552353e-05 0.2258802011888431 0.8273488928785159 0.0001496110113704369 0.1725014961101137 0.7861922141119221 0.0001520681265206812 0.2136557177615572 0.8602273594262608 7.629510948348211e-05 0.1396963454642557 0.3812161496799606 0.02338749384539636 0.5953963564746431 0.3459703417150226 0.02295293359123146 0.6310767246937459 0.5726109857035364 0.01222723852520692 0.4151617757712565 0.03852748361069087 0.5755925365607665 0.3858799798285426 0.04527938342967244 0.6005539499036608 0.3541666666666667 0.04564222742997434 0.478518022542127 0.4758397500278987</probabilities>
		</cpt>
		<cpt id="GV_FOOTPRINT">
			<state id="s1_below_3" />
			<state id="s2_3_4" />
			<state id="s3_4_4" />
			<state id="s4_4_4" />
			<state id="s5_4_4" />
			<state id="s6_4_up" />
			<parents>GV_CURBWGT OA_MAIS</parents>
			<probabilities>0.5915351284432064 0.384478489631693 0.01632621479418137 0.001934385639121015 0.001934385639121015 0.00379139585267719 0.6075488015814183 0.3796021744502101 0.008957252285643686 0.003768223375339757 6.177415369409438e-05 6.177415369409438e-05 0.5826836451836451 0.4010308385308386 0.008099445599445601 0.008099445599445601 4.331254331254331e-05 4.331254331254331e-05 0.2383559643743613 0.3658198277120748 0.2808439188202658 0.1047598189516718 0.007957366038837789 0.002263104102788729 0.254601668104688 0.3831607707794076 0.2658182341098649 0.08203911417888986 0.01430831176301409 7.190106413574922e-05 0.3274601322442629 0.2782185919875534 0.2842862699338778 0.09268767016725009 0.01730844029560482 3.889537145079735e-05 0.06349524956510104 0.1875418172086177 0.3131941656630537 0.3693964940452296 0.05305767429412552 0.01331459922387261 0.05898036155546886 0.1978800884380284 0.3137599167642087 0.3777474313955001 0.03361945636623749 0.01801274548055664 0.07796067672610883 0.1501143118427069 0.334750800182899 0.3849565614997714 0.03187014174668496 0.02034750800182899 0.02790245362058648 0.05797426690604429 0.1751196888090964 0.3851735487731898 0.3398414123279474 0.01398862956313585 0.08036800486618007 0.04706508515815086 0.1497110705596107 0.4006234793187349 0.3029957420924574 0.01923661800486618 3.814755474174104e-05 0.07213702601663233 0.1705577172503242 0.3825055313954375 0.3607614251926451 0.01400015259021896 0.02775726243229936 0.04548252092565239 0.1802683407188577 0.1315238798621369 0.3039758739537174 0.3109921221073363 0.03913604126370084 0.06002578981302385 0.1621534493874919 0.09290780141843971 0.3505480335267569 0.2952288845905867 0.008794206170052672 0.02092738901429647 0.147056057185854 0.1591892400300978 0.4286587659894658 0.2353743416102333 0.003983862834089763 0.01275844679778114 0.0324256177508825 0.04301563287947553 0.2269793242561775 0.6808371154815934 0.005840558766859345 0.007646917148362235 0.03690992292870906 0.06219894026974951 0.205623795761079 0.6817798651252408 0.02081240932931593 0.01043410333668117 0.04960383885727039 0.01043410333668117 0.2551612543242942 0.6535542908157572</probabilities>
		</cpt>
		<cpt id="OA_AGE">
			<state id="s1_below_25" />
			<state id="s2_25_35" />
			<state id="s3_35_47" />
			<state id="s4_47_61" />
			<state id="s5_61_up" />
			<parents>GV_FOOTPRINT OA_MAIS</parents>
			<probabilities>0.3498824635637047 0.2220028208744711 0.1674659144334744 0.1604137282557593 0.1002350728725905 0.2801795063575168 0.2166043380703067 0.1728496634255796 0.1967838444278235 0.1335826477187734 0.1884663186676609 0.1576435495898583 0.136266467810092 0.2406661695252299 0.2769574944071588 0.3275051546391753 0.2458556701030928 0.1708041237113402 0.1464742268041237 0.109360824742268 0.2412745461281957 0.2108929233049278 0.2108929233049278 0.1886624675805854 0.1482771396813635 0.2163651093707804 0.222576289495004 0.2204158790170132 0.1844990548204159 0.1561436672967864 0.2613431613431614 0.2347256347256348 0.2068796068796069 0.1831285831285831 0.1139230139230139 0.2498692240627725 0.1988666085440279 0.1831734960767219 0.2145597210113339 0.1535309503051439 0.1514418125643666 0.1880020597322348 0.2657569515962925 0.1895468589083419 0.2052523171987642 0.2123809523809524 0.2056349206349206 0.2020634920634921 0.2143650793650794 0.1655555555555555 0.1277755185034567 0.2233428222854819 0.1965026433509557 0.2261895079300529 0.2261895079300529 0.1835529526598341 0.1938018545632016 0.1818448023426062 0.1198633479746218 0.3209370424597365 0.1783501006036217 0.1940442655935614 0.2572233400402414 0.1944466800804829 0.1759356136820925 0.1147410358565737 0.1722886232846392 0.1975210270030987 0.2612660469234175 0.2541832669322709 0.204100790513834 0.1166501976284585 0.0909584980237154 0.2638833992094862 0.3244071146245059 0.13602523659306 0.2145741324921136 0.3038485804416404 0.2243533123028391 0.121198738170347 0.1201898503103322 0.175684556407448 0.2728002920774005 0.2654983570646222 0.1658269441401972 0.09657768651608487 0.168104038329911 0.2043805612594114 0.2344969199178645 0.2964407939767283</probabilities>
		</cpt>
		<cpt id="OA_BAGDEPLY">
			<state id="Deployed" />
			<state id="SNot_Deployed" />
			<parents>GV_DVLONG OA_MAIS</parents>
			<probabilities>0.7377317339149401 0.26226826608506 0.9594036020076765 0.04059639799232359 0.9583549783549784 0.04164502164502164 0.706896551724138 0.2931034482758621 0.8899592944369065 0.1100407055630936 0.9103785409877162 0.08962145901228377 0.5658730158730159 0.4341269841269841 0.7676518883415435 0.2323481116584565 0.7990575157080715 0.2009424842919285 0.3403685451039211 0.6596314548960788 0.5822631030892051 0.4177368969107949 0.5935770988693769 0.4064229011306231 0.105983124520583 0.8940168754794171 0.2675294117647059 0.7324705882352941 0.2315937635339974 0.7684062364660026</probabilities>
		</cpt>
		<cpt id="OA_WEIGHT">
			<state id="s1_below_63" />
			<state id="s2_63_73" />
			<state id="s3_73_83" />
			<state id="s4_83_100" />
			<state id="s5_100_up" />
			<parents>OA_AGE OA_MAIS</parents>
			<probabilities>0.3240936977133296 0.2270496374790854 0.2356943669827106 0.1283324037925265 0.08482989403234802 0.3495132127955494 0.2170375521557719 0.2118219749652295 0.1398470097357441 0.08178025034770514 0.3338822355289421 0.1335329341317365 0.2717564870259481 0.1038423153692615 0.1569860279441118 0.2333534015653221 0.1722456351595425 0.2487055990367249 0.2056592414208308 0.1400361228175798 0.21005291005291 0.1531746031746032 0.280489417989418 0.1766534391534391 0.1796296296296296 0.1901165737455651 0.2217942219969589 0.2342118601115053 0.1820070957932083 0.1718702483527623 0.186064363743726 0.1639208739297313 0.2338943017419546 0.2459994095069383 0.1701210510776499 0.1691815856777494 0.1784526854219949 0.1752557544757034 0.260613810741688 0.2164961636828645 0.09744338933528122 0.09427806184562941 0.1393231068906745 0.2883369856342829 0.380618456294132 0.1432244614315497 0.1835302293259208 0.2307852675469076 0.2540653231410702 0.1883947185545518 0.1256101146721552 0.1291384886798 0.242046456924434 0.2435166127609527 0.259688326962658 0.09956822107081174 0.1377806563039724 0.1904576856649396 0.2098877374784111 0.3623056994818653 0.1444611528822055 0.191077694235589 0.2828070175438597 0.2532330827067669 0.1284210526315789 0.1659985152190052 0.1856718634001485 0.2498886414253898 0.2398663697104677 0.1585746102449888 0.1917112299465241 0.1893716577540107 0.229144385026738 0.1838569518716578 0.2059157754010695</probabilities>
		</cpt>
		<cpt id="OA_HEIGHT">
			<state id="s1_below_163" />
			<state id="s2_163_168" />
			<state id="s3_168_175" />
			<state id="s4_175_180" />
			<state id="s5_180_up" />
			<parents>OA_WEIGHT OA_MAIS</parents>
			<probabilities>0.4229498164014688 0.2797429620563036 0.2399632802937576 0.03953488372093023 0.01780905752753978 0.4222076215505913 0.311826544021025 0.2231274638633377 0.02109067017082786 0.02174770039421814 0.4318281669514279 0.2995362460336832 0.1767634854771784 0.08425677324871857 0.007615328288991945 0.1936864258155033 0.2259558049807085 0.379936864258155 0.1140652402665731 0.08635566467905997 0.1648742746615087 0.2294777562862669 0.3757059961315281 0.1327659574468085 0.09717601547388781 0.1258615858783973 0.2286915102269544 0.3368450546371533 0.2090781731577473 0.09952367609974783 0.1205850487540628 0.1327735644637053 0.3107258938244853 0.2037378114842903 0.2321776814734561 0.1065676756139349 0.1336950314106225 0.3604226156482011 0.1979440319817247 0.2013706453455169 0.1015085761520975 0.1215540400909279 0.3825583798305435 0.1525521802025212 0.2418268237239099 0.07351384998443822 0.07413632119514472 0.2325552443199502 0.2154372860255213 0.4043572984749456 0.09739615623062615 0.08685678859268443 0.2133292002479851 0.2613763174209547 0.3410415375077495 0.09250740150307447 0.0685948531086313 0.2380323388749715 0.2091095422455022 0.3917558642678206 0.05606343283582089 0.06352611940298507 0.1857276119402985 0.1516791044776119 0.5430037313432836 0.07020968908170643 0.09154013015184381 0.1898770788141721 0.2057845263919017 0.442588575560376 0.04276076803321224 0.05400449749178343 0.2790520671164158 0.2031136481577582 0.4210690192008303</probabilities>
		</cpt>
		<cpt id="OA_SEX">
			<state id="Female" />
			<state id="Male" />
			<state id="SN_A" />
			<parents>OA_HEIGHT OA_MAIS</parents>
			<probabilities>0.9208089668615983 0.05823586744639375 0.02095516569200779 0.9337961177529245 0.05180614474868234 0.01439773749839311 0.8665873723857667 0.1243929031618594 0.009019724452373871 0.8309258494978676 0.1507772733525932 0.01829687714953914 0.8582285115303981 0.1325995807127882 0.009171907756813414 0.7175141242937852 0.2823831535695942 0.0001027221366204417 0.5474358974358975 0.4380608974358974 0.01450320512820513 0.5710938762320247 0.4215543706576184 0.007351753110357085 0.5040915682618604 0.4958566397348249 5.179200331468821e-05 0.1782074340527578 0.8184952038369304 0.00329736211031175 0.1963125082902241 0.7892293407613742 0.01445815094840164 0.1971783103858575 0.8027366989631139 8.499065102838686e-05 0.04505747126436781 0.9537471264367815 0.001195402298850574 0.05716562095408824 0.9427347873717757 9.959167413604221e-05 0.04961186015292127 0.9503297729527813 5.836689429755444e-05</probabilities>
		</cpt>
		<cpt id="OA_MANUSE">
			<state id="State0" />
			<state id="State1" />
			<parents>OA_SEX OA_MAIS</parents>
			<probabilities>0.06357714750983852 0.9364228524901614 0.1949640287769784 0.8050359712230216 0.2118306612176464 0.7881693387823536 0.1174580272822665 0.8825419727177335 0.2837801061368894 0.7162198938631107 0.3870315243111213 0.6129684756888787 0.1127167630057803 0.8872832369942196 0.1771653543307087 0.8228346456692913 0.01612903225806452 0.9838709677419355</probabilities>
		</cpt>
	</nodes>
	<extensions>
		<genie version="1.0" app="GeNIe 2.2.2414.0 ACADEMIC" name="vehicle_safety_training_imputed_balanced_binned_data" faultnameformat="nodestate">
			<node id="GV_CURBWGT">
				<name>GV_CURBWGT</name>
				<interior color="e5f6f7" />
				<outline color="000080" />
				<font color="000000" name="Arial" size="8" />
				<position>518 182 590 230</position>
			</node>
			<node id="GV_DVLAT">
				<name>GV_DVLAT</name>
				<interior color="e5f6f7" />
				<outline color="000080" />
				<font color="000000" name="Arial" size="8" />
				<position>503 236 575 284</position>
			</node>
			<node id="GV_DVLONG">
				<name>GV_DVLONG</name>
				<interior color="e5f6f7" />
				<outline color="000080" />
				<font color="000000" name="Arial" size="8" />
				<position>461 285 533 333</position>
			</node>
			<node id="GV_ENERGY">
				<name>GV_ENERGY</name>
				<interior color="e5f6f7" />
				<outline color="000080" />
				<font color="000000" name="Arial" size="8" />
				<position>397 321 469 369</position>
			</node>
			<node id="GV_LANES">
				<name>GV_LANES</name>
				<interior color="e5f6f7" />
				<outline color="000080" />
				<font color="000000" name="Arial" size="8" />
				<position>318 340 390 388</position>
			</node>
			<node id="GV_MODELYR">
				<name>GV_MODELYR</name>
				<interior color="e5f6f7" />
				<outline color="000080" />
				<font color="000000" name="Arial" size="8" />
				<position>236 340 308 388</position>
			</node>
			<node id="GV_OTVEHWGT">
				<name>GV_OTVEHWGT</name>
				<interior color="e5f6f7" />
				<outline color="000080" />
				<font color="000000" name="Arial" size="8" />
				<position>157 321 229 369</position>
			</node>
			<node id="GV_SPLIMIT">
				<name>GV_SPLIMIT</name>
				<interior color="e5f6f7" />
				<outline color="000080" />
				<font color="000000" name="Arial" size="8" />
				<position>93 285 165 333</position>
			</node>
			<node id="GV_WGTCDTR">
				<name>GV_WGTCDTR</name>
				<interior color="e5f6f7" />
				<outline color="000080" />
				<font color="000000" name="Arial" size="8" />
				<position>51 236 123 284</position>
			</node>
			<node id="OA_AGE">
				<name>OA_AGE</name>
				<interior color="e5f6f7" />
				<outline color="000080" />
				<font color="000000" name="Arial" size="8" />
				<position>36 182 108 230</position>
			</node>
			<node id="OA_BAGDEPLY">
				<name>OA_BAGDEPLY</name>
				<interior color="e5f6f7" />
				<outline color="000080" />
				<font color="000000" name="Arial" size="8" />
				<position>51 128 123 176</position>
			</node>
			<node id="OA_HEIGHT">
				<name>OA_HEIGHT</name>
				<interior color="e5f6f7" />
				<outline color="000080" />
				<font color="000000" name="Arial" size="8" />
				<position>93 79 165 127</position>
			</node>
			<node id="OA_MAIS">
				<name>OA_MAIS</name>
				<interior color="ffff80" />
				<outline color="000080" />
				<font color="000000" name="Arial" size="8" />
				<position>277 182 349 230</position>
			</node>
			<node id="OA_MANUSE">
				<name>OA_MANUSE</name>
				<interior color="e5f6f7" />
				<outline color="000080" />
				<font color="000000" name="Arial" size="8" />
				<position>157 43 229 91</position>
			</node>
			<node id="OA_SEX">
				<name>OA_SEX</name>
				<interior color="e5f6f7" />
				<outline color="000080" />
				<font color="000000" name="Arial" size="8" />
				<position>236 24 308 72</position>
			</node>
			<node id="OA_WEIGHT">
				<name>OA_WEIGHT</name>
				<interior color="e5f6f7" />
				<outline color="000080" />
				<font color="000000" name="Arial" size="8" />
				<position>318 24 390 72</position>
			</node>
			<node id="VE_GAD1">
				<name>VE_GAD1</name>
				<interior color="e5f6f7" />
				<outline color="000080" />
				<font color="000000" name="Arial" size="8" />
				<position>397 43 469 91</position>
			</node>
			<node id="VE_PDOF_TR">
				<name>VE_PDOF_TR</name>
				<interior color="e5f6f7" />
				<outline color="000080" />
				<font color="000000" name="Arial" size="8" />
				<position>461 79 533 127</position>
			</node>
			<node id="GV_FOOTPRINT">
				<name>GV_FOOTPRINT</name>
				<interior color="e5f6f7" />
				<outline color="000080" />
				<font color="000000" name="Arial" size="8" />
				<position>503 128 575 176</position>
			</node>
		</genie>
	</extensions>
</smile>
