<?xml version="1.0" encoding="ISO-8859-1"?>
<!-- This network was created in GeNIe Academic, which can be used for educational and research purposes only -->
<smile version="1.0" id="Unnamed" numsamples="10000" discsamples="10000">
	<nodes>
		<cpt id="OA_MAIS">
			<state id="s1" />
			<state id="s2" />
			<state id="s3" />
			<probabilities>0.2626026237430673 0.2701656249702712 0.4672317512866616</probabilities>
		</cpt>
		<cpt id="OA_SEX">
			<state id="Female" />
			<state id="Male" />
			<state id="SN_A" />
			<parents>OA_MAIS</parents>
			<probabilities>0.5349037568384492 0.4650594956768013 3.674748474968028e-05 0.5476561370802182 0.4523083318007777 3.553111900403222e-05 0.4420775119041165 0.5579020758623873 2.041223349620191e-05</probabilities>
		</cpt>
		<cpt id="OA_HEIGHT">
			<state id="s1_below_163" />
			<state id="s2_163_168" />
			<state id="s3_168_173" />
			<state id="s4_173_180" />
			<state id="s5_180_up" />
			<parents>OA_SEX OA_MAIS</parents>
			<probabilities>0.3569187778801879 0.2712784924069975 0.2344575609748862 0.1165634545700114 0.020781714167917 0.3217394803715077 0.3120109811029406 0.2243351692962419 0.1189264279236798 0.02298794130562996 0.2870207864888328 0.247183074099787 0.2638995686035172 0.162771684498306 0.03912488630955716 0.02320961382282379 0.05418858379213436 0.1498078661053326 0.3426461227503579 0.4301478135293513 0.01612886981835686 0.04238479287724968 0.1340631107200924 0.4085598674963242 0.3988633590879767 0.03140128892567672 0.05169333748155423 0.1709098654726863 0.3344631187497765 0.4115323893703063 0.2005652948614381 0.2004769196150693 0.2001276628103739 0.1997183352725153 0.1991117874406033 0.2002537778828656 0.2002621025897911 0.2000957351272866 0.199994496015551 0.1993938883845059 0.2006840174229066 0.1998289956442733 0.1998289956442733 0.1998289956442733 0.1998289956442733</probabilities>
		</cpt>
		<cpt id="OA_WEIGHT">
			<state id="s1_below_61" />
			<state id="s2_61_73" />
			<state id="s3_73_82" />
			<state id="s4_82_100" />
			<state id="s5_100_up" />
			<parents>OA_HEIGHT OA_MAIS</parents>
			<probabilities>0.4578352180936994 0.2532040926225094 0.1255788906838987 0.1212708669897684 0.04211093161012385 0.4535097813578826 0.2216340621403912 0.1008055235903337 0.1353279631760644 0.08872266973532794 0.439830866807611 0.2343340380549683 0.1066384778012685 0.1146723044397463 0.1045243128964059 0.3394132653061224 0.3081632653061224 0.1640306122448979 0.1346938775510204 0.05369897959183673 0.3628888888888888 0.2762222222222221 0.1273333333333333 0.1728888888888888 0.06066666666666665 0.3528735632183908 0.33342175066313 0.09690539345711759 0.1194518125552608 0.09734748010610078 0.1888641425389755 0.3224944320712695 0.1977728285077951 0.2122494432071269 0.07861915367483295 0.1669735327963176 0.3125431530494822 0.2245109321058688 0.165247410817031 0.1307249712313003 0.1146889400921659 0.2900921658986175 0.1486751152073733 0.1967741935483871 0.2497695852534562 0.06918177364037235 0.213718765311122 0.2558549730524253 0.3347378735913768 0.1265066144047036 0.04993662864385298 0.1918884664131812 0.254837346852556 0.3334178284748627 0.1699197296155471 0.0290977798771847 0.1906471421823335 0.1963155408597071 0.2322153991497402 0.3517241379310345 0.01862139917695473 0.08549382716049381 0.1919753086419753 0.4141975308641975 0.2897119341563786 0.01542669584245076 0.09638949671772427 0.1609409190371991 0.3994529540481401 0.3277899343544858 0.007717041800643087 0.05421716547118476 0.1316349245609696 0.4153351471679446 0.391095720999258</probabilities>
		</cpt>
		<cpt id="OA_AGE">
			<state id="s1_below_24" />
			<state id="s2_24_32" />
			<state id="s3_32_46" />
			<state id="s4_46_63" />
			<state id="s5_63_up" />
			<parents>OA_WEIGHT OA_MAIS</parents>
			<probabilities>0.3766192733017377 0.2128488678251711 0.188098999473407 0.1333333333333333 0.0890995260663507 0.3494142705005325 0.1965921192758253 0.1673056443024494 0.1231096911608093 0.1635782747603834 0.3618569636135508 0.08289418653283144 0.1309912170639899 0.1368465077373484 0.2874111250522794 0.280655737704918 0.2043091334894614 0.1865105386416862 0.1944730679156909 0.1340515222482435 0.2403696498054475 0.1392023346303502 0.2257782101167315 0.1873540856031128 0.207295719844358 0.1541591861160982 0.2340514661879114 0.1535607420706164 0.128426092160383 0.329802513464991 0.2361860999425617 0.1959793222286043 0.2235496840896037 0.2 0.1442848937392303 0.1697399527186761 0.199290780141844 0.1981087470449172 0.2382978723404255 0.1945626477541371 0.2676307954062102 0.2148872820076563 0.118757975329647 0.1391748192258613 0.2595491280306253 0.1735472679965308 0.2017346053772767 0.2503035559410234 0.2338248048568951 0.1405897658282741 0.1105822354441139 0.1824054398640034 0.2397790055248619 0.2631534211644709 0.2040798980025499 0.1150501672240803 0.2148700797530229 0.2184718291741704 0.2048366349369694 0.2467712889117572 0.1566222222222222 0.2010666666666667 0.2792888888888889 0.2819555555555556 0.08106666666666668 0.09396782841823054 0.1563002680965147 0.253485254691689 0.3613941018766756 0.1348525469168901 0.05452894438138479 0.1541884222474461 0.2667877412031782 0.3301248581157775 0.1943700340522134</probabilities>
		</cpt>
		<cpt id="GV_CURBWGT">
			<state id="s1_below_1180" />
			<state id="s2_1180_1290" />
			<state id="s3_1290_1420" />
			<state id="s4_1420_1510" />
			<state id="s5_1510_1590" />
			<state id="s6_1590_up" />
			<parents>OA_AGE OA_MAIS</parents>
			<probabilities>0.2046770923834347 0.2198812626701419 0.1803504199247032 0.1668838690993339 0.1386475528525919 0.08955980306979437 0.2775661951396445 0.2155422560754443 0.1687522669568371 0.1497098295248458 0.09639100471527019 0.0920384475879579 0.1339142256828575 0.2028797429242368 0.2058460017303177 0.0931281670992461 0.2707329131133359 0.0934989494500062 0.1650649581776117 0.1837515572165866 0.1688022779854066 0.1784125289197366 0.1634632496885567 0.1405054280121018 0.2061430010070493 0.1916414904330312 0.1614300100704934 0.1668680765357502 0.1741188318227593 0.0997985901309164 0.1950555555555556 0.1027222222222222 0.2413888888888889 0.1640555555555556 0.1083888888888889 0.1883888888888889 0.1253274394237066 0.141535690897184 0.1710052390307793 0.1901604453176163 0.1656024885396202 0.2063686967910937 0.1839332036316472 0.1542639429312581 0.1902561608300908 0.1863651102464332 0.1537775616083009 0.1314040207522698 0.1607561235356763 0.1042066027689031 0.2655484558040469 0.1645899893503728 0.1706602768903089 0.1342385516506923 0.1180815091653319 0.1362342053746218 0.1623954440291867 0.1655988610072967 0.1826837515572166 0.2350062288663463 0.1713345576981941 0.1653657790021426 0.1304713804713805 0.188322620140802 0.1571013161922253 0.1874043464952556 0.1605178964207159 0.2256048790241952 0.1416216756648671 0.132623475304939 0.1254249150169966 0.2142071585682863 0.1142305407011289 0.1374034462269756 0.1338383838383838 0.1685977421271539 0.1703802733214498 0.2755496137849079 0.1738340978593272 0.1394304281345566 0.11190749235474 0.126815749235474 0.1807148318042813 0.2672974006116208 0.1058521154606564 0.1592328983788058 0.05508105970739422 0.1412020561486753 0.248912613681297 0.2897192566231712</probabilities>
		</cpt>
		<cpt id="GV_FOOTPRINT">
			<state id="s1_below_3" />
			<state id="s2_3_3" />
			<state id="s3_3_4" />
			<state id="s4_4_4" />
			<state id="s5_4_up" />
			<parents>GV_CURBWGT OA_MAIS</parents>
			<probabilities>0.5467148014440433 0.4340794223826714 0.01530685920577617 0.0008664259927797832 0.003032490974729241 0.5861490031479537 0.3998950682056663 0.00849947534102833 0.005351521511017837 0.0001049317943336831 0.4550390785684904 0.5319621554915673 8.227067050596463e-05 0.01283422459893048 8.227067050596463e-05 0.4271317829457364 0.4419896640826873 0.1254521963824289 0.00400516795865633 0.001421188630490956 0.4003671970624235 0.4468788249694002 0.1525091799265606 0.0001223990208078335 0.0001223990208078335 0.5966218809980807 0.2998848368522073 0.09143953934740882 0.01197696737044146 7.677543186180423e-05 0.1402868318122555 0.1715775749674054 0.494915254237288 0.1872229465449804 0.005997392438070403 0.1444751381215469 0.1714088397790055 0.5305248618784529 0.1403314917127071 0.01325966850828729 0.1641918294849023 0.2164120781527531 0.4672113676731794 0.141101243339254 0.01108348134991119 0.02566978193146417 0.09046728971962614 0.3733333333333333 0.4350155763239875 0.07551401869158877 0.03269476372924648 0.0850574712643678 0.3698595146871009 0.4745849297573435 0.03780332056194125 0.05932055749128919 0.09155052264808362 0.3846689895470383 0.4321428571428572 0.03231707317073171 0.00748663101604278 0.0482620320855615 0.1244652406417112 0.4045454545454545 0.4152406417112299 0.004308547602501737 0.06198749131341209 0.125225851285615 0.4580958999305073 0.3503822098679639 6.542361792607131e-05 0.06876022244030094 0.1466143277723258 0.4580307491004253 0.326529277069022 0.008053691275167784 0.02574740695546065 0.09591214154972544 0.1691275167785235 0.7011592434411227 0.0001352265043948614 0.01433400946585531 0.0427315753887762 0.1705206220419202 0.7722785665990535 0.009832965647652063 6.303183107469272e-05 0.09933816577371571 0.1182477150961235 0.7725181216514339</probabilities>
		</cpt>
		<cpt id="GV_LANES">
			<state id="State1" />
			<state id="State2" />
			<state id="State3" />
			<state id="State4" />
			<state id="State5" />
			<state id="State6" />
			<state id="State7" />
			<parents>GV_FOOTPRINT OA_MAIS</parents>
			<probabilities>0.02715883292693181 0.02127301774152864 0.3673589506432355 0.1907844950811402 0.2131505927856723 0.1495837887833179 0.03069032203817372 0.0363802046824618 0.01724379643908594 0.3832889387354549 0.2120426188139633 0.1742604794616571 0.1345156315715688 0.04226833029580822 0.06387320885801129 0.02618323925314807 0.4219279201042119 0.1267911419887104 0.3106817194963092 0.04107685627442467 0.009465914025184543 0.01943742098609356 0.02164981036662453 0.3756321112515803 0.1792825537294564 0.2008533501896334 0.1726453855878635 0.03049936788874843 0.02224942396313365 0.01720910138248848 0.470838133640553 0.2001728110599079 0.1603542626728111 0.09684619815668205 0.03233006912442397 4.602356406480118e-05 4.602356406480118e-05 0.3647367452135493 0.2323269513991163 0.1965666421207658 0.1492083946980854 0.05706921944035346 0.02146210596914823 0.02094045756017587 0.3652284074819286 0.1936060809300246 0.2102988300171399 0.1565690438929876 0.03189507414859528 0.0280942118226601 0.0146243842364532 0.4311114532019705 0.1789562807881774 0.1913485221674877 0.1320812807881774 0.0237838669950739 0.03285714285714286 4.464285714285714e-05 0.5119196428571429 0.1797321428571428 0.1734821428571429 0.06910714285714285 0.03285714285714286 0.01980952380952381 0.02194285714285715 0.3398095238095238 0.2011428571428572 0.2134095238095238 0.1675428571428572 0.03634285714285714 0.004894463138574488 0.01667176506576935 0.3608901804833282 0.1649587029672683 0.2393698378709086 0.1681706944019578 0.04504435607219333 4.426933463190048e-05 0.03258223028907875 0.419009252290938 0.2495019699853911 0.1277170304130329 0.1614945327371729 0.009650714949754304 0.0168551951457038 0.0320623267660499 0.3702899093565062 0.1841336429695109 0.1988163907408795 0.1673533598022324 0.03048917521911754 0.01747412008281574 0.003561076604554866 0.3815320910973085 0.1432712215320911 0.2250103519668737 0.2029813664596274 0.02616977225672878 4.018485031143259e-05 0.008760297367892305 0.5187462326702833 0.1643158529234479 0.2307012256379345 0.03632710468153506 0.04110910186859554</probabilities>
		</cpt>
		<cpt id="GV_SPLIMIT">
			<state id="s1_below_35" />
			<state id="s2_35_40" />
			<state id="s3_40_50" />
			<state id="s4_50_up" />
			<parents>GV_LANES OA_MAIS</parents>
			<probabilities>0.05338541666666666 0.4752604166666666 0.37109375 0.1002604166666667 0.08690476190476192 0.4916666666666667 0.305952380952381 0.1154761904761905 0.3330696202531646 0.0007911392405063291 0.6653481012658228 0.0007911392405063291 0.4002293577981652 0.1662844036697248 0.2350917431192661 0.198394495412844 0.4123134328358209 0.166044776119403 0.1361940298507463 0.2854477611940299 0.5257847533632287 0.001121076233183856 0.1401345291479821 0.3329596412556054 0.3765312219898416 0.2053331341499851 0.2331192112339408 0.1850164326262324 0.2627988565488565 0.1900337837837838 0.2448674636174636 0.302299896049896 0.2016655336505778 0.1119306594153637 0.2680149558123726 0.4183888511216859 0.19808352402746 0.2369851258581236 0.3273741418764302 0.2375572082379863 0.1923412929528247 0.1900116482236459 0.3210541642399534 0.296592894583576 0.1106187560425395 0.1244763132452466 0.4032388011601676 0.3616661295520464 0.1610324947589098 0.2658542976939203 0.3764412997903564 0.1966719077568134 0.1519581545064378 0.2887607296137339 0.3526019313304721 0.2066791845493562 0.1418859649122807 0.1983187134502924 0.3722953216374269 0.2875 0.1061666666666667 0.3295 0.3801666666666667 0.1841666666666667 0.05759447674418604 0.2777979651162791 0.4987281976744186 0.1658793604651163 0.02125850340136054 0.2933673469387755 0.3130952380952381 0.3722789115646258 0.07881355932203389 0.238135593220339 0.438135593220339 0.2449152542372881 0.08410493827160494 0.1334876543209876 0.5069444444444444 0.275462962962963 0.0005091649694501018 0.2754582484725051 0.3609979633401222 0.3630346232179226</probabilities>
		</cpt>
		<cpt id="VE_GAD1">
			<state id="Front" />
			<state id="Left" />
			<state id="Rear" />
			<state id="Right" />
			<state id="SN_A" />
			<parents>GV_SPLIMIT OA_MAIS</parents>
			<probabilities>0.5414434610968577 0.2310236762580561 0.05186815749477049 0.175569032595299 9.567255501669288e-05 0.5110948245493258 0.3455564146558779 0.01008891068061581 0.1331487647832238 0.000111085330956801 0.164990253411306 0.6098245614035088 0.05309941520467835 0.1720077972709552 7.797270955165692e-05 0.6187148102055492 0.1424851750683596 0.08049981027781833 0.1582096007380067 9.060371026628025e-05 0.6109972041006524 0.2452003727865797 0.03038210624417521 0.1133271202236719 9.319664492078285e-05 0.3574572127139364 0.4263243683781581 0.02493887530562347 0.1911980440097799 8.149959250203749e-05 0.6186109813277442 0.1160921786793925 0.1199652950586568 0.1452600295678321 7.151536637450704e-05 0.6893182330468693 0.1567405836469798 0.03087916076618887 0.1229971224738322 6.490006612984373e-05 0.4847785634536659 0.2216598436918497 0.04116114625976926 0.2523632303684407 3.721622627465576e-05 0.6075298495400434 0.1100595769566023 0.1669025097235377 0.115395457131537 0.0001126066482796449 0.6730406237176857 0.178169881001231 0.05711940910956093 0.09158801805498563 8.206811653672549e-05 0.4866599799398195 0.3036108324974925 0.09314610498161152 0.1165496489468405 3.343363423604146e-05</probabilities>
		</cpt>
		<cpt id="GV_DVLAT">
			<state id="s1_below_n12" />
			<state id="s2_n12_0" />
			<state id="s3_0_4" />
			<state id="s4_4_17" />
			<state id="s5_17_up" />
			<parents>VE_GAD1 OA_MAIS</parents>
			<probabilities>0.06012466314650321 0.2386597701088727 0.4078771583674096 0.2617330571333197 0.03160535124389474 0.1043878369380626 0.2104093385231917 0.3402328632490192 0.2914257689797525 0.05354419230997398 0.149655273580754 0.144521050315388 0.4669502713803726 0.2081854188059264 0.03068798591755904 0.0001463982140454909 0.004605840016044168 0.1236105184755452 0.5547036513050856 0.3169335919892797 9.674852438175387e-05 9.674852438175387e-05 0.03648144568211314 0.2642202200865698 0.6991048371825535 3.55998576005696e-05 3.55998576005696e-05 0.005553577785688857 0.164684941260235 0.829690281238875 0.003370030580732007 0.1744716649160117 0.7385357431138322 0.08235846646611318 0.00126409492331081 0.02893074050600116 0.1295594031355705 0.6987429412527271 0.1421379859642666 0.0006289291414348081 0.04426229508196721 0.2256147540983606 0.6538934426229508 0.07602459016393441 0.0002049180327868852 0.6013483849262949 0.3798244748188811 0.005363137906198581 0.01113791503495321 0.002326087313672197 0.8418044004442907 0.141068074981476 0.0001846226182335646 0.01675873997821712 0.0001841619777826057 0.9332658569500675 0.06653171390013496 6.747638326585696e-05 6.747638326585696e-05 6.747638326585696e-05 0.1951816689021449 0.2008154891553104 0.2070075885005149 0.1989754228208655 0.1980198306211643 0.1999030788064856 0.1999030788064856 0.2003876847740576 0.1999030788064856 0.1999030788064856 0.2 0.2 0.2 0.2 0.2</probabilities>
		</cpt>
		<cpt id="VE_PDOF_TR">
			<state id="Front" />
			<state id="Left" />
			<state id="Rear" />
			<state id="Right" />
			<parents>VE_GAD1 OA_MAIS</parents>
			<probabilities>0.9305973837198815 0.03866903324402857 0.0007988943648137231 0.02993468867127616 0.9570329527774104 0.02071253391816398 0.001041877963690341 0.02121263534073534 0.98639430834678 0.0135323456065718 3.667302332404283e-05 3.667302332404283e-05 0.316617159870953 0.6052739747798024 0.07792643547631752 0.0001824298729270983 0.2053318078593691 0.7784628143066871 0.01608444217846658 0.0001209356554771923 0.2285955856176576 0.7713154147383411 4.4499822000712e-05 4.4499822000712e-05 0.03085481123507168 0.003436915430392646 0.9601461046511547 0.005562168683380889 0.0007888265454490849 0.0007861614267935099 0.997638850600964 0.0007861614267935099 0.0002561475409836066 0.0002561475409836066 0.9992315573770493 0.0002561475409836066 0.2910722416054214 0.005260972891954461 0.03831504225341973 0.6653517432492045 0.2129377474515888 0.0002302024722282571 0.009438301361358543 0.7773937487148244 0.154942645074224 8.434547908232118e-05 8.434547908232118e-05 0.8448886639676113 0.2591945813836305 0.2481381818295625 0.2483507135141883 0.2443165232726186 0.250363454475679 0.249878848508107 0.249878848508107 0.249878848508107 0.25 0.25 0.25 0.25</probabilities>
		</cpt>
		<cpt id="GV_DVLONG">
			<state id="s1_below_n34" />
			<state id="s2_n34_n22" />
			<state id="s3_n22_n15" />
			<state id="s4_n15_n7" />
			<state id="s5_n7_up" />
			<parents>VE_PDOF_TR OA_MAIS</parents>
			<probabilities>0.09772879091516368 0.2508684034736139 0.2972945891783568 0.3235136940547763 0.03059452237808951 0.3103329685790215 0.3448804126934501 0.204814756917305 0.1310301703923714 0.008941691417852121 0.4670760510155881 0.2229806329711857 0.1942843646669816 0.1105573925366084 0.005101558809636278 0.01063627730294397 0.01538461538461539 0.07141500474833809 0.3249762583095916 0.577587844254511 0.01453287197231834 0.05951557093425604 0.2019607843137254 0.3455594002306805 0.3784313725490196 0.01676457297785811 0.08657930411206508 0.1636240397650249 0.3674197921373701 0.3656122910076819 0.0001858736059479554 0.0001858736059479554 0.0001858736059479554 0.0001858736059479554 0.9992565055762082 0.0005449591280653951 0.0005449591280653951 0.0005449591280653951 0.0005449591280653951 0.9978201634877384 0.0002049180327868853 0.0002049180327868853 0.0002049180327868853 0.0002049180327868853 0.9991803278688526 0.002941176470588235 0.02224264705882353 0.08106617647058824 0.4027573529411764 0.4909926470588236 0.01975308641975309 0.08456790123456791 0.2388888888888889 0.3685185185185185 0.2882716049382716 0.05397205588822355 0.2184431137724551 0.2104590818363274 0.1537724550898203 0.3633532934131736</probabilities>
		</cpt>
		<cpt id="GV_ENERGY">
			<state id="s1_below_210" />
			<state id="s2_210_475" />
			<state id="s3_475_1144" />
			<state id="s4_1144_up" />
			<parents>GV_DVLONG OA_MAIS</parents>
			<probabilities>0.02708333333333333 0.1504166666666667 0.5120833333333333 0.3104166666666667 0.01440886699507389 0.09470443349753693 0.4237684729064039 0.4671182266009852 0.01494597839135654 0.01494597839135654 0.167406962785114 0.8027010804321729 0.1323720025923526 0.4473428386260532 0.3579066753078419 0.06237848347375243 0.0715928093645485 0.3546195652173913 0.4532817725752508 0.1205058528428094 0.09373891450869103 0.2370521461511174 0.2920361830436325 0.3771727562965591 0.4275977366255144 0.3900462962962963 0.1642232510288066 0.01813271604938272 0.2589804543053355 0.4142894875858426 0.2404912836767037 0.08623877443211833 0.3176561960648947 0.1847600966517086 0.3000517777010701 0.1975319295823265 0.672645327446652 0.2256254598969831 0.09207137601177336 0.009657836644591612 0.4054844097995545 0.3197383073496659 0.1944599109131403 0.0803173719376392 0.3616858887381275 0.201916553595658 0.2622964721845319 0.1741010854816825 0.4978134110787172 0.3020616409829238 0.1487921699291962 0.05133277800916285 0.2825367647058823 0.3457720588235294 0.2045955882352941 0.1670955882352941 0.1523118127995489 0.3335917676910065 0.2227939103467719 0.2913025091626727</probabilities>
		</cpt>
		<cpt id="GV_MODELYR">
			<state id="s1_below_2003" />
			<state id="s2_2003_2006" />
			<state id="s3_2006_2009" />
			<state id="s4_2009_up" />
			<parents>GV_CURBWGT OA_MAIS</parents>
			<probabilities>0.6203971119133573 0.2449458483754512 0.109927797833935 0.02472924187725632 0.650183630640084 0.2582633788037775 0.07568205666316895 0.01587093389296957 0.6516865487453724 0.201254627725216 0.06098313451254628 0.08607568901686549 0.3011950904392765 0.3690245478036176 0.2449935400516796 0.08478682170542635 0.3269583843329253 0.366126070991432 0.238219094247246 0.06869645042839656 0.358253358925144 0.3490403071017275 0.1881957773512476 0.104510556621881 0.4845176010430248 0.2980769230769231 0.1755215123859191 0.04188396349413299 0.5222720994475137 0.299896408839779 0.1210290055248619 0.0568024861878453 0.500266429840142 0.2636767317939609 0.2359680284191829 8.880994671403197e-05 0.2786604361370716 0.3783489096573209 0.2699376947040499 0.07305295950155763 0.3417943805874841 0.3775542784163474 0.2377075351213283 0.04294380587484036 0.2775479094076655 0.5136106271777003 0.149934668989547 0.05890679442508711 0.4533756684491979 0.2989639037433155 0.1866644385026738 0.06099598930481283 0.4880125086865879 0.3191452397498263 0.1405489923558026 0.05229325920778318 0.6124468433104351 0.2827118089630357 0.1047595682041217 8.177952240758914e-05 0.3290115924344112 0.2741000610128127 0.3107077486272117 0.08618059792556436 0.3794793779580798 0.2848208248816768 0.29631507775524 0.03938471940500338 0.5380554680113457 0.2210053577056413 0.1882288055468011 0.05271036873621178</probabilities>
		</cpt>
		<cpt id="GV_OTVEHWGT">
			<state id="s1_below_1310" />
			<state id="s2_1310_1500" />
			<state id="s3_1500_1650" />
			<state id="s4_1650_1840" />
			<state id="s5_1840_2120" />
			<state id="s6_2120_up" />
			<parents>GV_CURBWGT OA_MAIS</parents>
			<probabilities>0.242719614921781 0.222503008423586 0.1575210589651022 0.1438026474127557 0.1300842358604091 0.1033694344163658 0.206278419027632 0.2162469394893319 0.1564358167191325 0.1842427422175586 0.09190276320391744 0.1448933193424274 0.02516111339640752 0.207802001919649 0.2530508706979295 0.1535033593857124 0.2448238036473331 0.1156588509529686 0.2707795004306632 0.1874461670973299 0.1796942291128338 0.133182601205857 0.1234926787252368 0.1054048234280792 0.1867605059159527 0.1910444716442268 0.1794165646674827 0.1145450836393309 0.1873725010199918 0.1408608731130151 0.06839411388355726 0.06801023672424825 0.1931541906589891 0.2522712731925784 0.1812539987204095 0.2369161868202175 0.2152325076053889 0.2080617122990004 0.1774228596262494 0.1572142546718817 0.1441764450239026 0.09789222077357668 0.1941758747697974 0.1617173112338858 0.1465239410681399 0.1465239410681399 0.170695211786372 0.1803637200736648 0.08638247483718177 0.1307874481941978 0.136826524570752 0.2576080521018354 0.1947306098283008 0.1936648904677324 0.2050882658359294 0.2237798546209761 0.1795430944963655 0.1384215991692627 0.1371754932502596 0.1159916926272066 0.1763516389953171 0.1610259684972328 0.1731587909748829 0.1431460195828012 0.1814601958280119 0.1648573861217539 0.03752903600464576 0.04580429732868758 0.1337833914053426 0.2182781649245064 0.2653164924506388 0.2992886178861788 0.2100044563279857 0.1986408199643493 0.1892825311942959 0.1525178253119429 0.1444964349376114 0.1050579322638146 0.165508454945564 0.1536946953903173 0.1668983090108872 0.1766272874681492 0.1599490386842715 0.1773222145008107 0.1609966197797405 0.088049285792171 0.1891287754879512 0.1740813433649548 0.2028677352524262 0.1848762403227565 0.2325605043725849 0.2057148667886922 0.1721578198088265 0.1386007728289607 0.1392109009558674 0.1117551352450681 0.1704980842911877 0.1657651566373675 0.2137705656975434 0.1461573135001127 0.1644128915934189 0.1393959882803696 0.2480827818048114 0.117922050635571 0.2134152747137305 0.1078369576636201 0.06623594915432293 0.2465069860279441</probabilities>
		</cpt>
		<cpt id="OA_BAGDEPLY">
			<state id="Deployed" />
			<state id="SNot_Deployed" />
			<parents>GV_DVLONG OA_MAIS</parents>
			<probabilities>0.7408333333333333 0.2591666666666667 0.9810344827586206 0.01896551724137931 0.9746698679471789 0.02533013205282113 0.7488658457550227 0.2511341542449773 0.897366220735786 0.102633779264214 0.8994324228449805 0.1005675771550195 0.5676440329218108 0.4323559670781894 0.7556788166930798 0.2443211833069202 0.7533655505695547 0.2466344494304453 0.3699411331861663 0.6300588668138337 0.5943763919821826 0.4056236080178173 0.5605495251017638 0.4394504748982361 0.1122448979591837 0.8877551020408163 0.2761029411764706 0.7238970588235294 0.189314914011841 0.810685085988159</probabilities>
		</cpt>
		<cpt id="OA_MANUSE">
			<state id="State0" />
			<state id="State1" />
			<parents>GV_DVLAT OA_MAIS</parents>
			<probabilities>0.09664948453608248 0.9033505154639175 0.2641935483870968 0.7358064516129033 0.3199738903394256 0.6800261096605744 0.09676616915422885 0.9032338308457711 0.2563486616334935 0.7436513383665065 0.5534568781183179 0.4465431218816822 0.09010883482714468 0.9098911651728553 0.2477554510474562 0.7522445489525438 0.3079418634830002 0.6920581365169997 0.0869281045751634 0.9130718954248366 0.196988973706531 0.803011026293469 0.3710210830921868 0.6289789169078132 0.09216965742251224 0.9078303425774878 0.1502546689303905 0.8497453310696096 0.1809690002052966 0.8190309997947033</probabilities>
		</cpt>
	</nodes>
	<extensions>
		<genie version="1.0" app="GeNIe 2.2.2414.0 ACADEMIC" name="passenger_car_training_imputed_balanced_binned_data" faultnameformat="nodestate">
			<node id="GV_CURBWGT">
				<name>GV_CURBWGT</name>
				<interior color="e5f6f7" />
				<outline color="000080" />
				<font color="000000" name="Arial" size="8" />
				<position>488 175 560 223</position>
			</node>
			<node id="GV_DVLAT">
				<name>GV_DVLAT</name>
				<interior color="e5f6f7" />
				<outline color="000080" />
				<font color="000000" name="Arial" size="8" />
				<position>472 229 544 277</position>
			</node>
			<node id="GV_DVLONG">
				<name>GV_DVLONG</name>
				<interior color="e5f6f7" />
				<outline color="000080" />
				<font color="000000" name="Arial" size="8" />
				<position>428 277 500 325</position>
			</node>
			<node id="GV_ENERGY">
				<name>GV_ENERGY</name>
				<interior color="e5f6f7" />
				<outline color="000080" />
				<font color="000000" name="Arial" size="8" />
				<position>361 311 433 359</position>
			</node>
			<node id="GV_LANES">
				<name>GV_LANES</name>
				<interior color="e5f6f7" />
				<outline color="000080" />
				<font color="000000" name="Arial" size="8" />
				<position>281 326 353 374</position>
			</node>
			<node id="GV_MODELYR">
				<name>GV_MODELYR</name>
				<interior color="e5f6f7" />
				<outline color="000080" />
				<font color="000000" name="Arial" size="8" />
				<position>198 321 270 369</position>
			</node>
			<node id="GV_OTVEHWGT">
				<name>GV_OTVEHWGT</name>
				<interior color="e5f6f7" />
				<outline color="000080" />
				<font color="000000" name="Arial" size="8" />
				<position>123 296 195 344</position>
			</node>
			<node id="GV_SPLIMIT">
				<name>GV_SPLIMIT</name>
				<interior color="e5f6f7" />
				<outline color="000080" />
				<font color="000000" name="Arial" size="8" />
				<position>67 255 139 303</position>
			</node>
			<node id="OA_AGE">
				<name>OA_AGE</name>
				<interior color="e5f6f7" />
				<outline color="000080" />
				<font color="000000" name="Arial" size="8" />
				<position>36 202 108 250</position>
			</node>
			<node id="OA_BAGDEPLY">
				<name>OA_BAGDEPLY</name>
				<interior color="e5f6f7" />
				<outline color="000080" />
				<font color="000000" name="Arial" size="8" />
				<position>36 148 108 196</position>
			</node>
			<node id="OA_HEIGHT">
				<name>OA_HEIGHT</name>
				<interior color="e5f6f7" />
				<outline color="000080" />
				<font color="000000" name="Arial" size="8" />
				<position>67 95 139 143</position>
			</node>
			<node id="OA_MAIS">
				<name>OA_MAIS</name>
				<interior color="ffff80" />
				<outline color="000080" />
				<font color="000000" name="Arial" size="8" />
				<position>260 175 332 223</position>
			</node>
			<node id="OA_MANUSE">
				<name>OA_MANUSE</name>
				<interior color="e5f6f7" />
				<outline color="000080" />
				<font color="000000" name="Arial" size="8" />
				<position>123 54 195 102</position>
			</node>
			<node id="OA_SEX">
				<name>OA_SEX</name>
				<interior color="e5f6f7" />
				<outline color="000080" />
				<font color="000000" name="Arial" size="8" />
				<position>198 29 270 77</position>
			</node>
			<node id="OA_WEIGHT">
				<name>OA_WEIGHT</name>
				<interior color="e5f6f7" />
				<outline color="000080" />
				<font color="000000" name="Arial" size="8" />
				<position>281 24 353 72</position>
			</node>
			<node id="VE_GAD1">
				<name>VE_GAD1</name>
				<interior color="e5f6f7" />
				<outline color="000080" />
				<font color="000000" name="Arial" size="8" />
				<position>361 39 433 87</position>
			</node>
			<node id="VE_PDOF_TR">
				<name>VE_PDOF_TR</name>
				<interior color="e5f6f7" />
				<outline color="000080" />
				<font color="000000" name="Arial" size="8" />
				<position>428 73 500 121</position>
			</node>
			<node id="GV_FOOTPRINT">
				<name>GV_FOOTPRINT</name>
				<interior color="e5f6f7" />
				<outline color="000080" />
				<font color="000000" name="Arial" size="8" />
				<position>472 121 544 169</position>
			</node>
		</genie>
	</extensions>
</smile>
